0.161476
-0.237933
0.251990
0.252386
-0.178534
0.229949
0.182629
0.124869
-0.153626
-0.225607
-0.199055
0.051971
-0.015477
0.164517
0.156666
-0.077658
-0.017285
-0.123735
0.087557
0.197141
-0.189084
0.129471
0.043618
0.001842
-0.128488
0.205738
-0.070443
0.209024
-0.192489
-0.124954
-0.167989
-0.176933
0.209539
-0.024272
-0.016455
-0.116640
0.183201
0.130953
0.229498
0.091232
-0.110209
0.242043
-0.217348
0.114515
-0.167073
-0.225951
0.215490
-0.028962
-0.016465
-0.019232
-0.114378
0.231590
-0.224505
-0.149140
-0.217623
-0.223481
-0.238155
0.178376
-0.021130
-0.129953
-0.002688
-0.241939
0.006042
0.023398
-0.080576
-0.128227
0.174948
-0.112944
0.089804
0.029972
0.058392
0.012076
0.221080
0.155807
0.056881
-0.057458
0.164593
0.198241
-0.006322
-0.231203
0.138878
0.108666
-0.159478
-0.209142
0.254393
-0.122376
-0.049146
0.041637
0.027498
-0.087583
0.049610
-0.043361
-0.232767
-0.220843
0.168776
-0.104373
-0.026139
-0.145957
0.154584
-0.084882
-0.120299
-0.190309
0.075718
0.130929
-0.187083
-0.127221
0.245412
0.185374
0.202266
-0.089274
-0.140104
0.138830
0.133370
0.079936
-0.158128
-0.002054
0.012537
0.001927
0.011492
-0.022467
0.143395
0.211064
-0.010208
-0.160214
0.059214
0.217260
-0.194996
0.257830
0.104205
-0.072113
0.150550
-0.062019
-0.014452
-0.168964
-0.249329
-0.048119
0.082261
0.239490
-0.126506
0.107377
-0.095756
0.000741
-0.154891
0.022546
0.142629
0.231588
0.200408
-0.228780
0.082725
-0.227534
0.043950
-0.042132
-0.158468
-0.143730
-0.168206
0.219871
0.237399
-0.039230
0.007890
0.113724
0.196761
-0.097141
-0.170796
-0.004881
-0.256337
-0.110428
-0.126479
0.115734
-0.253579
-0.243495
-0.123213
0.219377
-0.100311
-0.149593
-0.074205
0.092866
0.191974
0.073898
0.038981
0.072082
0.182404
0.082321
0.035871
-0.255740
-0.024553
0.128617
-0.122244
0.075775
0.024718
0.039015
0.135021
-0.148743
-0.087348
-0.116959
0.073349
0.013756
0.071410
0.236006
0.244262
0.201619
-0.137673
0.238368
-0.141262
0.216208
-0.074294
0.165244
0.130194
-0.092766
-0.234544
-0.080224
0.183621
-0.126428
0.224620
-0.202043
-0.169527
-0.161110
