0.127658
0.069220
0.144833
-0.188103
0.155854
0.103528
0.199216
-0.149484
0.181434
0.199529
0.102356
0.072125
-0.141143
0.034483
-0.087128
0.181790
-0.172046
0.174779
0.039220
-0.176678
0.123176
-0.034280
-0.188278
0.044968
-0.184019
0.141018
-0.045425
-0.174592
-0.016704
0.130122
0.133429
-0.102737
0.159905
-0.154158
0.112758
-0.070577
0.203832
0.183086
-0.110762
0.082382
0.158436
0.109755
-0.057010
-0.180866
0.105438
0.119021
0.065400
0.063195
-0.135026
0.144203
0.193106
-0.003858
0.065081
0.159394
-0.202652
0.028359
-0.108840
-0.087301
-0.202180
0.188446
-0.099990
-0.019411
-0.111677
0.091496
-0.178358
0.165248
-0.178630
-0.157367
-0.152176
0.170360
0.041087
-0.098785
-0.022896
-0.012236
-0.132807
-0.013017
0.130062
-0.139878
-0.015204
0.123855
0.018498
0.085908
-0.067105
-0.063701
-0.126078
-0.095104
-0.101372
-0.165341
-0.150452
0.138308
0.201115
0.059861
-0.089290
-0.096747
0.103509
0.070997
0.001523
-0.038042
-0.113628
0.009085
0.065033
-0.132978
-0.017761
0.189333
0.173823
0.113364
-0.100012
0.187681
0.166861
0.084889
-0.031014
-0.008070
0.173433
0.030844
-0.073338
-0.079303
0.106744
-0.185423
-0.118263
-0.117591
-0.063423
-0.058664
-0.069055
0.145165
0.073417
-0.092464
-0.099950
0.151769
