0.156348
0.001784
-0.033115
-0.183840
0.177384
0.176830
0.073836
-0.085664
0.190881
-0.210447
0.063955
0.061336
0.243989
0.199205
-0.214302
0.202508
0.222210
-0.148747
0.185351
-0.019337
0.125360
-0.161768
0.161276
-0.122700
-0.172864
-0.158188
-0.066552
-0.242042
-0.106709
-0.117497
0.222789
0.129882
-0.210713
0.191946
0.125877
-0.071314
0.048035
-0.002602
0.046940
0.177509
0.150860
-0.025309
0.168269
0.248218
-0.230592
-0.223861
0.149696
-0.240683
-0.225376
0.005850
-0.019743
-0.183801
-0.055634
0.149675
-0.246917
-0.164793
-0.020459
0.170406
0.184193
-0.125997
0.163417
0.180704
-0.229964
-0.021458
0.195843
-0.060050
-0.039808
-0.020038
0.138100
-0.153107
0.214334
0.119742
0.249643
0.042555
0.177968
-0.227947
-0.135655
-0.163598
0.129955
0.110859
0.194044
0.012139
0.138897
0.163164
-0.069823
-0.153436
0.041383
-0.006982
0.129135
-0.223296
0.104239
0.231776
0.080098
0.195131
-0.133836
-0.242881
-0.165372
0.124532
-0.098611
-0.123457
0.236505
-0.245527
0.200480
0.167737
0.079707
-0.071935
0.013775
0.020497
-0.248197
0.073369
-0.086040
0.117519
-0.133302
-0.119300
-0.010117
-0.023707
-0.247619
0.126060
-0.229778
-0.235692
-0.122462
0.159503
-0.183080
-0.207269
-0.136776
0.100232
0.026679
-0.134817
-0.218443
0.202885
-0.127708
-0.247728
-0.218776
-0.075192
0.176731
-0.083094
-0.186377
0.224236
-0.091455
-0.030348
0.050321
-0.015933
-0.155943
-0.202098
-0.028042
-0.119806
-0.243643
0.150150
-0.162655
-0.144404
-0.125695
0.124613
0.159293
-0.083396
-0.190802
-0.002051
-0.018621
0.241740
0.216197
-0.063996
0.022655
-0.047585
0.100009
-0.059168
-0.082187
0.029020
0.245091
-0.080580
-0.154414
-0.123181
0.100172
0.241229
-0.124155
0.026625
-0.196975
0.176107
-0.184266
0.011693
-0.213876
0.066766
0.246315
0.179487
0.022601
-0.063605
-0.109358
-0.134112
-0.247328
-0.034348
0.126772
-0.231785
-0.098440
0.104776
0.001866
-0.092715
0.118210
-0.220999
-0.139166
-0.155127
0.146616
-0.005770
0.079649
0.110113
0.124410
0.107116
-0.021753
-0.149972
-0.050984
0.107977
0.212889
0.210361
-0.209231
-0.231346
-0.122489
-0.094057
0.171283
0.206084
0.204362
-0.228179
-0.217273
0.189352
-0.037984
0.180075
0.041173
0.224729
0.212411
0.071020
-0.180095
-0.108672
-0.089821
0.071552
0.193074
-0.146438
0.130734
-0.195627
-0.065248
-0.019924
-0.144842
0.069143
0.150765
-0.208367
-0.077677
0.069793
-0.080700
0.095397
-0.084575
-0.155994
-0.165172
0.091404
0.089917
0.102358
-0.160363
-0.148281
-0.122413
0.060719
0.035219
-0.157124
0.084777
0.234357
-0.154515
0.054966
-0.230378
-0.124408
-0.128418
0.241621
0.126795
0.120904
0.172354
-0.088004
-0.183080
0.110878
-0.206236
-0.081024
0.244372
-0.068206
-0.025371
0.229721
0.088335
0.219269
0.064858
-0.241785
0.042233
-0.239749
-0.006775
0.176154
0.222647
-0.064718
-0.002953
-0.110473
0.214060
-0.101059
-0.172947
-0.240000
-0.216385
-0.006121
-0.133588
-0.058574
-0.041984
-0.234256
-0.066318
-0.054433
0.055075
-0.141322
0.191029
-0.072910
0.172712
0.134468
-0.133606
0.205953
-0.213830
-0.198859
-0.167047
0.098024
0.159366
0.052007
-0.154929
0.235374
-0.125826
0.047815
-0.066876
-0.139708
-0.188804
-0.220309
0.170202
0.121301
-0.086439
-0.013994
0.137729
-0.190550
0.224234
-0.001989
-0.121430
0.105728
0.100896
-0.040794
-0.059487
0.039674
0.134421
-0.241412
-0.045947
0.035988
-0.221515
-0.167272
0.243558
-0.001907
0.145770
0.083871
0.016018
-0.019745
0.077398
0.007297
-0.161159
0.178654
0.176612
0.209343
-0.040129
0.053484
-0.004726
-0.118362
-0.134230
0.134523
0.195217
-0.235763
0.146123
0.012073
0.034732
0.159997
0.162209
0.236082
-0.106922
0.023933
-0.184478
0.186204
0.230799
-0.215066
-0.184852
0.067515
-0.023774
0.176718
-0.093915
-0.114592
0.112059
0.074802
-0.249704
-0.142001
0.202387
-0.110746
-0.199058
0.179162
-0.192734
-0.023502
0.066460
-0.227796
0.208648
-0.016736
-0.049205
-0.131055
-0.120986
-0.217376
0.054960
0.101151
-0.014986
-0.112936
0.102114
-0.100077
-0.015942
0.088439
0.212005
-0.221676
-0.171315
-0.063131
0.234988
-0.206451
0.151691
0.186743
-0.225842
-0.094024
0.105215
-0.181142
0.175174
0.103609
-0.078017
0.040315
-0.161645
-0.160182
-0.116479
0.056538
0.019050
-0.228615
-0.202500
0.237619
-0.173248
-0.119079
0.169392
-0.084802
-0.011572
0.182035
0.073314
0.016066
-0.202080
-0.171891
-0.118490
0.139786
-0.099838
-0.130678
0.086953
0.077242
0.048218
-0.133097
-0.046591
0.007640
0.107416
0.155085
0.011127
0.000717
0.187564
-0.161175
-0.162864
0.057334
0.088491
0.098598
0.231885
0.190513
0.074033
-0.222854
0.138842
0.021830
-0.120492
-0.023447
0.229861
-0.119561
-0.003828
-0.229047
0.103967
0.065890
0.238094
-0.190927
-0.009884
0.144410
-0.024605
0.182965
0.037776
0.217488
0.017701
-0.247355
-0.097126
0.013319
0.081423
-0.102865
-0.227096
0.037743
0.093124
0.207487
-0.144019
-0.164144
0.234764
0.222690
-0.071849
0.228512
-0.031629
0.171512
0.177790
-0.196789
0.112118
0.223770
-0.113245
0.126298
-0.093674
-0.008098
0.185878
0.016498
-0.231403
0.115099
