0.075783 0.076267 0.132234 -0.163968 0.119929 -0.127198 -0.053471 -0.101884 -0.017365 -0.096139 -0.135449 0.067226 0.051957 -0.142047 -0.166744 0.159165 -0.080644 0.011216 -0.164717 -0.131069 -0.119039 -0.156155 -0.045792 0.019286 0.015486 -0.000664 -0.049182 -0.148958 -0.076115 -0.068917 -0.049044 0.036929 -0.134843 -0.097139 0.005907 0.029125 0.022657 0.157794 0.070759 0.017073 0.143593 -0.079946 -0.162674 -0.101664 -0.164730 -0.169723 -0.155077 -0.092246 0.114661 0.056274 0.134112 -0.017957 -0.095586 0.061802 0.049811 0.039654 -0.079547 -0.136659 0.010998 0.101880 -0.058070 -0.095349 0.019299 0.076037 -0.132955 0.115853 -0.136334 0.170343 0.011617 -0.070295 -0.058128 -0.138204 -0.045440 -0.094381 0.084882 -0.169541 -0.021891 0.137458 0.125114 0.068998 0.122854 -0.006618 -0.154524 0.169891
-0.104682 0.116913 0.153831 -0.155533 0.150546 -0.062595 -0.021405 0.097970 0.079314 0.094747 -0.036000 -0.008646 -0.065403 0.135158 0.166295 -0.171223 -0.169287 -0.000269 0.089598 -0.171075 -0.042314 0.081742 -0.094605 0.156468 0.123126 -0.009738 0.132034 -0.001874 -0.136018 -0.038082 0.153190 -0.144641 -0.148506 -0.159722 -0.062138 0.128981 0.064125 -0.017603 -0.123067 0.006327 -0.169920 -0.146562 0.072357 0.067428 -0.106556 0.139665 -0.158626 0.035343 -0.140524 -0.163532 -0.157071 0.069817 -0.100209 0.130757 -0.091606 0.021724 0.072141 0.098387 0.069706 -0.058183 -0.127897 -0.124646 -0.039452 -0.141185 -0.041169 -0.054629 -0.007266 0.041308 0.170553 -0.168866 0.166173 0.040568 -0.023105 -0.024958 0.170763 0.156019 0.024481 0.151643 0.156590 0.000114 0.150930 -0.131842 0.013199 0.100414
-0.048251 -0.126414 -0.110532 -0.081439 -0.148252 -0.154922 -0.167344 -0.057834 0.154285 0.160652 -0.053926 0.146036 -0.163839 -0.055149 -0.031038 -0.151250 -0.167307 0.032129 -0.095668 0.154435 0.091285 -0.145221 -0.113207 0.127847 -0.157977 -0.086245 0.151063 0.086712 -0.150327 -0.154776 -0.131997 0.054375 0.093051 0.137917 -0.163630 -0.159571 0.084296 -0.134673 0.013021 -0.063690 0.116573 0.151251 -0.163219 -0.042590 -0.166080 -0.112882 -0.075508 0.027795 0.000440 -0.168497 0.063027 -0.031750 0.096186 0.020007 -0.090391 -0.042310 0.165623 0.152476 -0.080727 0.097348 -0.126320 0.107395 -0.135646 -0.061130 -0.109170 0.053264 0.167588 -0.025196 -0.118166 -0.023564 0.046516 0.068826 0.024587 0.169426 -0.099591 0.107993 0.126176 -0.097002 0.065295 -0.153790 0.027292 0.102184 -0.079598 -0.139340
0.030827 -0.167355 0.049164 0.115316 0.106451 -0.158983 0.050877 0.070024 0.012160 -0.127215 0.106619 0.161303 -0.060084 0.002482 0.143867 -0.073481 -0.006089 0.036835 0.092160 -0.107940 0.169093 0.005208 0.056191 -0.153570 -0.142379 0.142975 0.004072 -0.125759 0.045246 -0.084465 -0.035110 -0.018686 -0.139988 -0.109626 -0.010387 -0.058226 0.154154 -0.072516 0.075394 0.138879 -0.070239 0.010288 -0.055577 -0.037332 0.017290 -0.163582 -0.171375 0.077476 0.112183 0.119432 -0.105256 -0.109265 -0.002554 -0.048018 0.076483 -0.138298 -0.124698 -0.003131 -0.160057 -0.170072 0.094177 0.045269 -0.160853 0.150519 0.105084 -0.169398 0.113299 -0.045333 0.120096 -0.030703 0.142436 -0.028476 0.170698 0.053645 -0.099486 -0.077268 0.136912 -0.092267 -0.016578 -0.131704 0.061113 0.154100 0.124425 -0.036492
-0.101465 0.015400 0.109969 0.167685 -0.154583 0.126939 0.121560 -0.076736 0.055635 0.125845 0.126968 0.038052 -0.158538 -0.108883 -0.060457 0.037598 0.145995 -0.132131 -0.152828 0.143569 -0.005920 0.011719 -0.157289 -0.010330 0.095017 -0.040876 0.099636 -0.170309 -0.166780 -0.018836 -0.170611 0.089447 -0.005120 -0.019246 -0.160854 -0.152423 -0.088549 0.055267 -0.122896 -0.116980 -0.060852 0.169000 -0.052203 -0.129275 0.156497 -0.078290 -0.057206 -0.038181 -0.066021 0.130813 0.019877 -0.102596 -0.141383 -0.159536 -0.108679 0.037620 -0.116882 0.134481 0.093374 0.156133 0.017997 -0.076147 -0.017439 -0.122029 -0.046968 -0.111056 0.098506 0.088426 -0.092301 0.085022 -0.021499 0.051745 0.132659 -0.168876 0.146534 -0.126447 -0.136097 -0.033953 -0.096693 0.120098 -0.021153 -0.015060 0.116037 -0.146820
0.008942 0.077819 -0.153039 -0.101280 0.029017 -0.141643 0.155406 -0.064887 -0.097716 -0.111071 -0.161091 -0.025274 -0.047176 0.133639 0.042846 0.038211 0.097587 0.116641 0.018611 -0.072685 0.137402 0.169611 -0.126372 0.002577 0.076193 -0.105374 0.016751 -0.121857 -0.133537 -0.045628 -0.095104 -0.064598 0.012040 0.001476 -0.140998 0.042324 0.021040 -0.076934 -0.118918 -0.121369 -0.078345 -0.057178 0.109700 -0.094490 0.020101 -0.112800 -0.169049 0.117431 0.085895 -0.019087 -0.032718 0.000248 -0.134684 -0.009494 0.067519 -0.124996 0.007743 -0.150706 0.005645 -0.116752 0.013249 -0.040035 0.139552 -0.151709 0.100597 0.030194 0.080187 0.089307 -0.090981 0.164867 0.112210 0.139274 0.071965 0.086176 -0.132192 0.012080 -0.106614 -0.106309 -0.109708 0.019290 -0.130639 0.092315 0.157926 -0.132681
0.154633 -0.109849 0.148643 -0.043681 0.016691 0.162701 0.004699 0.134693 0.097452 0.058653 0.025991 -0.083866 0.143379 0.025414 0.124852 -0.118678 0.028229 -0.058141 0.073083 0.090045 0.056948 0.078151 0.021664 -0.103583 0.017002 0.074265 -0.123244 -0.027430 -0.080715 -0.160270 -0.065271 -0.097306 0.069859 0.057879 -0.085589 -0.069252 -0.123152 0.065960 0.017914 -0.129478 0.021803 0.170057 -0.144197 -0.091211 0.070274 0.046454 -0.095139 0.037451 0.134489 0.158984 0.105323 -0.097311 -0.068392 0.121460 -0.062154 0.033815 -0.004682 0.048834 -0.071762 -0.144110 -0.014746 -0.066774 0.144254 -0.056479 0.131974 -0.010141 0.039836 -0.054320 -0.084877 0.154229 0.099736 0.052810 0.115953 0.094400 -0.165802 0.080729 0.118690 -0.078004 0.133058 0.148790 -0.119412 -0.170777 -0.012088 -0.090772
-0.033285 -0.045591 0.032531 -0.140117 -0.072901 -0.112130 -0.071711 0.087265 0.129328 -0.108912 0.161331 0.021240 0.118854 -0.029012 -0.116651 0.127159 0.101991 0.146220 -0.074805 0.152937 0.043446 -0.111423 0.018992 -0.114471 0.029432 -0.109363 -0.006557 -0.044234 -0.072304 0.003484 0.001288 0.092730 -0.006115 0.105523 0.124254 -0.073363 0.020068 0.006945 -0.040959 -0.026936 -0.096737 -0.077259 -0.139252 0.033412 0.121514 -0.054974 0.129133 0.138121 -0.022463 -0.029456 -0.089604 -0.040555 -0.006399 0.038351 -0.145753 0.108214 -0.123407 -0.120134 -0.025763 -0.154527 -0.001929 -0.113571 -0.068229 0.165130 0.107413 0.113858 0.133734 0.157659 -0.125659 0.027510 0.013561 -0.118959 -0.096679 0.091790 0.115864 -0.163726 0.068531 -0.059645 0.050899 0.080846 -0.130008 0.028299 -0.088792 -0.009833
-0.070520 0.145277 0.074291 -0.072262 0.055295 -0.099634 -0.083061 0.058128 -0.059698 0.109111 -0.067280 -0.105034 0.123803 -0.024902 -0.073439 -0.126484 0.056938 -0.108529 -0.031493 0.091852 0.000196 -0.134807 -0.069580 -0.082111 -0.041648 -0.125212 0.141044 -0.001912 -0.087712 0.052103 -0.100813 0.024315 -0.072863 0.104743 -0.083140 -0.108264 -0.163800 -0.059117 -0.154285 -0.080546 0.146491 0.125461 -0.073770 0.098871 -0.164700 -0.095211 -0.067770 0.028964 0.167757 0.098368 0.014828 0.110573 -0.033859 0.112782 0.040723 0.022212 -0.050915 -0.131092 0.031521 -0.117560 -0.095665 -0.031948 0.101352 0.169928 -0.048571 0.131785 0.020774 0.168065 -0.078579 -0.036804 -0.092881 -0.049274 -0.009782 -0.121072 0.119778 -0.089261 -0.092175 0.004487 -0.140371 -0.093832 -0.101453 -0.106602 0.149204 -0.090247
-0.149520 0.061433 -0.016231 -0.100184 -0.153216 -0.002641 0.046651 0.122577 0.033841 -0.039826 -0.049757 -0.099778 -0.052872 0.114944 -0.098984 0.046301 0.091242 -0.094040 -0.125267 0.102240 0.168162 0.125848 -0.063120 -0.123338 -0.141293 -0.110443 -0.004590 0.119149 0.007711 -0.152122 0.169328 0.105700 0.009962 0.104469 0.059755 -0.147135 -0.123395 -0.145891 0.132302 -0.142244 0.124756 -0.089342 -0.039385 -0.001782 -0.092011 0.089444 0.009949 0.130950 -0.105759 -0.125702 -0.052508 0.142462 0.146257 -0.035566 -0.035529 0.037792 0.008476 0.143814 0.040305 -0.020597 -0.146444 -0.151058 -0.091969 0.077898 -0.167044 0.088310 0.019483 -0.169316 -0.151727 0.056944 -0.121286 0.102202 -0.098601 0.018258 -0.169438 0.164387 -0.027278 -0.157661 -0.032051 -0.110033 0.026937 -0.008212 -0.084657 -0.070538
0.071942 0.091628 -0.114881 -0.044804 0.166369 -0.108318 -0.064126 0.151729 -0.084452 -0.122858 -0.038163 -0.106885 0.148478 -0.009141 -0.093997 -0.088883 -0.094458 -0.068504 0.054220 -0.087533 0.061397 -0.138269 -0.123360 -0.104936 -0.163281 0.071344 -0.019959 0.131855 0.062866 0.105910 -0.119052 -0.026893 -0.027368 -0.087279 0.025792 0.162218 -0.097015 0.059943 -0.134355 0.154881 -0.036112 0.144796 0.099933 -0.066778 0.158364 0.070388 0.049825 -0.094092 0.150958 0.019806 0.045489 0.143954 -0.070464 -0.051375 0.076394 0.000865 -0.158423 -0.150453 -0.168356 -0.159479 -0.022243 0.002311 -0.084327 -0.093369 0.084103 0.043122 0.125605 0.015187 -0.036721 0.047050 -0.147159 0.078088 0.021467 -0.170506 0.163951 0.005120 -0.012139 0.164109 0.096574 0.042818 0.060610 0.039989 0.156101 -0.101725
-0.090867 -0.015792 0.133557 0.042518 0.075339 0.129151 0.096553 0.052775 0.067406 -0.046964 0.041759 0.112995 0.037465 -0.031882 0.034975 -0.078323 -0.022134 -0.006165 -0.164351 -0.163166 -0.160797 -0.153550 0.142065 0.050311 0.051363 -0.049871 -0.149509 -0.033976 -0.077465 0.004589 0.141116 0.082146 -0.015809 0.151217 -0.159423 -0.036750 0.077819 -0.150961 0.157611 -0.131143 0.058747 0.043763 -0.056772 -0.098682 0.001389 -0.062805 -0.043008 -0.118500 0.094825 0.023886 0.080147 0.168950 -0.158237 -0.035422 -0.086162 -0.156648 0.004198 0.116716 0.060311 0.117915 -0.047993 0.074433 0.002574 -0.157056 0.097956 -0.062370 -0.064658 -0.104313 -0.073156 -0.118435 -0.052851 -0.010805 0.021909 0.145540 -0.117860 0.162237 0.040581 0.038752 0.168086 0.129523 -0.146792 0.153657 0.001615 -0.020661
-0.158741 -0.052530 -0.040164 -0.104597 -0.098552 -0.089028 0.056453 0.157618 0.098102 0.079755 0.122063 -0.001704 0.059654 0.088698 0.061236 0.092479 0.070950 0.021672 -0.001007 0.042769 0.024963 0.077386 -0.008362 0.093024 -0.076642 0.114714 0.137667 0.048753 0.011479 0.121271 -0.003148 0.079829 0.098086 -0.044786 -0.068733 0.087155 0.143808 -0.141421 -0.001535 0.142215 0.127309 -0.121032 -0.056373 0.019270 0.067382 0.043443 0.052731 0.001784 0.125542 -0.034541 -0.155377 -0.151527 -0.116382 0.119578 -0.018575 -0.128466 0.079824 -0.115220 -0.129034 -0.126053 -0.000598 0.039317 0.047400 -0.097261 0.166625 -0.011399 -0.129160 -0.015539 -0.004121 0.137460 0.027491 0.075780 0.112055 -0.142704 -0.015219 0.098639 -0.120593 -0.129928 0.016787 0.106235 -0.014088 -0.159661 0.091104 -0.157146
-0.142366 -0.165474 -0.120297 0.041356 0.045968 -0.127970 0.071911 0.115438 -0.001823 0.118536 0.086729 0.099732 -0.041914 0.038481 -0.071700 0.069538 -0.024607 0.116434 -0.018578 0.126197 -0.020961 -0.017387 -0.069196 -0.003377 -0.126483 0.050764 0.034651 -0.035898 0.013416 0.156230 0.009648 -0.116706 0.097355 -0.078773 0.118368 0.154076 -0.062428 -0.113733 -0.107410 0.096400 -0.044196 -0.000831 0.007640 0.022910 -0.004255 -0.104364 0.127293 -0.118202 -0.039852 -0.066699 -0.074803 -0.023142 -0.056645 0.150457 0.168339 -0.083196 -0.155800 -0.143892 -0.042081 0.108851 -0.126480 0.010481 -0.025116 -0.087026 0.131313 0.004398 -0.077385 0.058278 -0.073938 0.090078 -0.006166 0.056450 -0.120830 -0.017904 -0.041582 -0.066556 -0.054386 0.110976 0.035719 -0.012468 -0.112265 -0.170211 -0.086842 0.021306
-0.008862 -0.025785 -0.040947 0.100715 0.073665 -0.047719 0.058660 0.048085 0.031731 -0.090996 -0.129306 -0.113958 -0.002664 0.153343 0.096158 -0.101855 0.089295 0.068455 -0.095617 -0.043309 0.092789 0.131421 0.127951 0.060983 0.074733 0.060522 0.132377 0.046490 -0.114823 -0.069839 -0.076563 0.051228 0.166177 0.046100 -0.088605 0.053171 -0.111111 -0.130562 0.061067 -0.047932 0.169710 -0.104484 0.118973 -0.079562 -0.081321 -0.018480 0.083291 0.058823 -0.030316 0.101407 -0.125064 0.072648 -0.110428 0.009541 0.113661 -0.020409 0.048103 -0.072807 -0.058650 0.109839 0.072105 0.056749 0.065136 0.155884 0.128995 -0.010924 0.081636 0.086752 -0.047537 -0.065694 0.070763 -0.105841 -0.062887 0.031709 0.057236 -0.162909 -0.106824 -0.020615 -0.094641 -0.094354 -0.098197 -0.050243 0.089266 -0.016529
0.000883 -0.141446 -0.157198 0.084930 0.046458 0.118957 -0.099228 -0.126028 -0.078237 -0.086046 0.069955 0.083486 -0.044924 -0.158631 -0.091699 -0.106319 -0.163665 0.005076 0.169225 -0.167340 0.109655 -0.076412 -0.028699 -0.088220 -0.108079 -0.068184 -0.082455 -0.070901 -0.142590 -0.150252 0.087583 0.067162 -0.078723 0.106672 -0.157218 -0.079703 -0.148561 0.082459 0.014110 -0.046045 0.055084 0.027910 -0.161465 -0.070788 -0.079139 -0.026476 -0.061528 -0.070831 0.149671 -0.059526 -0.167186 -0.125205 0.138243 -0.121015 0.089434 0.170284 -0.138611 0.039466 -0.073036 0.077345 0.041875 0.127112 0.170188 0.043397 -0.156992 0.056680 -0.011404 -0.111402 -0.149926 -0.107462 -0.030493 0.109526 0.009899 0.047399 -0.167442 0.154399 -0.049225 0.154978 0.046191 -0.116772 -0.151244 0.100947 0.074670 0.079873
0.083742 0.159920 -0.170191 0.047004 0.132823 0.125828 0.103226 -0.154968 -0.149146 0.109984 -0.023213 0.065333 -0.036342 -0.156233 0.036261 -0.055053 -0.039571 0.162103 -0.007767 0.055271 0.142811 0.111686 0.000853 0.019060 -0.028723 0.016866 0.063593 -0.008943 0.107990 -0.005752 -0.131134 0.159399 -0.003323 -0.048795 0.036908 -0.098902 0.153833 0.011392 0.096828 0.146657 -0.120292 0.065493 -0.113773 0.024181 0.016411 0.127862 0.023165 -0.120609 0.139586 -0.002802 0.157974 -0.018192 -0.009651 -0.020134 0.002080 -0.058905 -0.060995 -0.101282 -0.134543 0.046540 -0.130621 0.043291 0.094608 -0.154450 0.017247 -0.055750 0.031473 -0.116234 0.114872 -0.022193 0.130939 -0.090307 -0.130427 0.069420 0.111448 -0.075803 -0.108097 0.155979 0.074616 -0.035120 0.147418 -0.139520 -0.086949 0.169114
-0.093182 0.159724 0.097411 0.084187 -0.075877 0.170059 -0.136187 -0.029333 0.086703 0.002925 0.009540 0.082284 -0.125618 0.159430 -0.135838 -0.116594 -0.165721 0.099165 -0.148521 0.093916 -0.044360 -0.043071 0.065192 -0.066469 0.170553 0.077130 -0.158698 -0.139899 -0.147115 -0.092215 -0.003097 -0.049868 -0.100743 0.103342 0.130936 0.011853 0.126325 -0.170307 0.007860 -0.010570 0.113153 0.067853 0.023053 0.168015 0.155832 0.027875 -0.082117 0.148741 -0.106479 -0.004282 -0.047941 -0.118655 0.023746 -0.123946 -0.106442 -0.105163 -0.092885 0.072443 0.017550 0.056568 0.162186 -0.101119 -0.137719 0.082422 -0.023300 -0.070520 0.049588 0.124650 0.020567 -0.126530 0.111827 -0.039287 -0.054197 0.155676 -0.107299 0.151520 -0.104030 0.028346 -0.166720 -0.037839 0.120113 0.084848 -0.027480 0.002391
-0.135191 0.005239 -0.088534 -0.116750 -0.163995 -0.156830 0.009394 0.071884 -0.136972 0.144316 -0.036905 0.006247 -0.082580 -0.123157 -0.087368 -0.046574 -0.143117 0.038267 0.118447 0.036045 -0.129785 -0.071423 0.043408 -0.029468 0.112104 0.166841 -0.044908 0.087192 0.009107 0.115526 -0.141952 -0.074011 -0.035958 -0.126800 0.159929 0.058370 -0.113346 0.017017 -0.152190 -0.162798 -0.120373 0.108212 -0.044291 0.132564 -0.043754 0.069621 -0.129913 -0.066956 0.149454 0.122135 0.070719 0.040993 0.032058 0.068394 -0.060899 0.123351 0.096921 0.134349 -0.115735 -0.043067 -0.108888 0.053337 0.119524 -0.061162 0.120801 -0.156674 0.023198 -0.100153 -0.143918 -0.045165 0.150332 0.003976 -0.007878 -0.107187 -0.052120 -0.056050 -0.161388 -0.033258 -0.154330 0.142298 0.048757 -0.017958 -0.098933 0.006770
-0.086357 -0.039282 0.039169 -0.147249 -0.078807 -0.144915 -0.118798 -0.000713 -0.095347 0.092006 0.089642 -0.076499 0.131785 0.134170 -0.136176 -0.148457 0.161301 0.007830 0.062158 -0.168982 0.011490 -0.018788 -0.088386 0.164073 -0.095706 -0.029776 -0.102728 -0.122276 0.020857 0.121578 -0.144269 -0.110063 0.119546 0.018595 0.137029 -0.018430 0.100459 0.098529 -0.014827 -0.062935 0.159941 -0.038445 0.132291 0.112209 -0.105470 -0.088978 -0.136329 0.056430 0.099523 0.124494 -0.085420 -0.010546 -0.116600 0.060467 0.104429 0.089092 -0.113650 -0.087851 -0.079443 0.108916 -0.113588 -0.009289 0.155610 -0.067495 0.123378 -0.013759 -0.145299 0.000353 -0.012647 -0.166594 -0.006336 -0.066362 0.037813 0.114797 -0.033977 -0.163529 -0.074764 -0.029693 -0.073583 -0.019830 -0.158244 0.162195 -0.040211 -0.031664
0.114911 0.065463 -0.011792 0.170092 -0.162989 0.083262 0.163773 -0.022641 -0.156571 0.132359 -0.023771 -0.040368 -0.095414 0.094207 -0.060888 -0.150523 -0.120268 -0.156355 -0.061860 0.112386 -0.148600 0.091690 -0.137653 0.027553 -0.091759 -0.141590 0.001771 -0.050181 0.040271 0.164087 0.147590 0.058751 0.100521 0.106061 0.096264 0.000957 0.072893 0.107363 0.147184 -0.040631 -0.097633 -0.108969 -0.145791 0.105540 0.074638 -0.137072 0.030099 -0.146060 -0.096003 -0.093353 -0.147652 -0.082702 -0.006248 0.128616 -0.076860 0.047818 0.043119 -0.068709 -0.056116 -0.050593 -0.009648 -0.049658 -0.051061 0.027924 -0.018529 0.027984 -0.170330 -0.162912 0.026422 -0.112530 0.130879 -0.017792 -0.017282 0.057651 0.156592 0.023591 -0.055826 -0.064871 0.131898 0.033218 0.171457 0.067410 0.121626 0.025983
0.101702 -0.083918 -0.078910 0.114981 0.069341 -0.106456 0.010747 -0.155785 -0.061743 0.092520 -0.148696 0.046646 -0.108933 0.105109 -0.104260 -0.078815 -0.028658 0.061387 0.009121 -0.037793 0.067355 0.048270 -0.148890 -0.030804 0.033089 -0.072944 -0.061295 0.005927 -0.010884 -0.158771 -0.074315 0.037936 0.135566 0.127557 0.016337 0.162690 -0.083969 0.069713 -0.088035 -0.030199 0.047458 0.052668 0.162735 0.109926 -0.169559 -0.047283 -0.040722 -0.165941 0.093988 0.015613 -0.003081 0.033300 -0.044946 0.049859 -0.147424 0.009007 0.122484 0.096323 0.128576 -0.101754 0.168322 0.151879 -0.048491 -0.039591 -0.124606 -0.071074 0.113246 -0.004996 0.025322 -0.148949 0.089787 -0.113119 -0.031422 -0.009142 0.066191 -0.165498 -0.031801 -0.106967 -0.125384 0.137328 -0.170682 0.129181 -0.006115 0.048872
0.101929 -0.013457 0.022645 -0.059480 -0.131595 0.107557 -0.139408 0.133978 -0.118104 -0.033827 -0.080568 0.118465 -0.028651 -0.040310 0.084008 -0.129299 -0.090835 -0.125746 -0.096686 0.031236 0.164341 -0.123480 0.113648 -0.129242 0.008848 0.048872 -0.042376 0.072472 0.016090 -0.125965 -0.127609 0.020978 0.159285 -0.162019 -0.123660 -0.091555 0.142888 0.045918 0.043090 -0.004951 0.076760 -0.154239 -0.110785 -0.058561 -0.075610 0.040127 0.037283 0.065311 0.006713 -0.151817 -0.114837 -0.116733 -0.113362 0.108785 -0.120630 -0.026808 -0.118384 0.025412 -0.148826 -0.171386 -0.147992 -0.082566 0.015114 0.073672 -0.024140 -0.155322 0.141943 0.031433 -0.064451 0.075384 -0.110393 0.072088 0.026846 -0.016676 0.026597 0.087886 0.074993 -0.001100 0.062010 0.102013 0.055049 -0.004459 -0.060180 -0.113320
-0.109531 0.107974 0.138699 -0.003984 0.033278 -0.012490 0.127899 -0.120473 -0.152535 -0.009615 0.168487 -0.088008 0.009621 -0.106129 0.091673 -0.124093 -0.018928 0.018994 0.087114 -0.059199 -0.138548 -0.147285 -0.141577 0.043472 -0.103394 0.017782 -0.043085 0.107919 0.088903 -0.103862 0.167332 0.133722 -0.090667 0.168590 -0.100997 0.120427 0.014230 -0.013489 -0.008631 -0.057073 0.145023 -0.129722 0.006733 -0.152099 0.009845 0.111545 0.071348 0.135324 -0.080531 -0.130605 -0.061266 -0.065577 0.094008 0.163990 -0.026005 -0.011223 0.058246 -0.055652 0.065302 0.151857 -0.102451 -0.091090 0.114914 -0.133424 -0.156783 -0.070016 -0.147221 0.091159 -0.147577 0.133710 0.030783 0.067287 0.025152 -0.026778 -0.141145 0.161053 0.051925 0.134978 0.061692 0.076033 0.064625 0.114234 0.011713 -0.013547
-0.044147 -0.140746 -0.087205 -0.100405 -0.014435 -0.159529 0.132553 -0.114889 0.055510 0.144968 -0.026793 -0.080871 0.031084 -0.121456 -0.126353 -0.109922 0.099614 -0.162176 0.077607 0.111982 -0.117443 -0.148897 0.077822 -0.039553 -0.112360 -0.081713 -0.099587 -0.076558 0.144960 0.104006 -0.144587 0.008755 -0.036201 -0.011836 -0.000429 -0.076061 0.063080 -0.096848 0.072784 0.029478 0.075299 -0.015224 -0.117621 0.118058 0.109865 0.064004 0.012355 -0.166847 -0.066079 -0.130843 -0.002695 0.132647 0.038494 -0.094564 0.011333 0.040998 0.049473 -0.046470 0.095865 -0.052849 0.063172 -0.044681 -0.153152 -0.003000 -0.107397 -0.114881 0.139611 0.147762 0.146923 -0.154624 -0.045150 0.124595 0.167445 -0.111045 -0.004180 -0.116469 -0.088496 -0.123179 0.007526 0.113414 -0.076845 0.136956 0.080593 0.113532
0.083473 0.033670 -0.021180 -0.142017 -0.079061 -0.047310 -0.031734 -0.109756 -0.085715 0.060597 -0.097419 -0.036682 -0.028422 -0.159472 -0.080854 0.027657 0.060131 0.167947 0.159581 0.152039 0.014635 -0.055142 0.009826 -0.129974 -0.089197 0.141317 -0.082252 -0.058265 -0.053496 -0.081049 -0.049227 0.051928 -0.124308 -0.055366 0.068253 0.042226 0.055622 0.006520 0.134045 0.012351 -0.059404 -0.062511 0.096227 0.100205 -0.019678 -0.086428 -0.102703 0.105569 -0.144236 -0.031011 -0.076062 0.123878 0.167392 -0.032761 0.046458 -0.127547 0.124654 0.092224 -0.011806 0.145316 -0.145257 0.054135 -0.006423 0.165640 -0.124660 -0.111474 0.138236 -0.032133 -0.080546 0.007303 -0.119327 0.150487 0.055453 0.086026 0.002141 -0.017250 0.042700 -0.156794 0.038919 0.047140 -0.158071 0.150336 -0.042993 -0.169678
0.046976 -0.148371 -0.100009 0.049792 0.102869 0.047599 0.019436 0.088578 0.072630 -0.122440 0.124464 -0.145244 -0.091011 -0.072407 -0.086720 -0.107355 0.010236 -0.011501 0.108195 -0.034766 0.101894 -0.025590 0.161745 0.127383 -0.038574 -0.147998 -0.020794 -0.028728 0.020364 -0.032606 0.143500 -0.147256 -0.032251 -0.076641 -0.134614 -0.138464 -0.095196 -0.134492 -0.104916 0.118394 -0.165706 -0.089716 0.055089 0.080075 -0.168981 -0.159737 -0.039083 0.113696 -0.016357 -0.098083 -0.113814 0.053237 0.000139 0.032477 -0.041667 0.013373 0.020017 -0.086825 0.024318 -0.082658 -0.140426 0.169929 -0.099616 -0.074323 0.103221 0.069496 -0.167232 -0.102035 0.048610 -0.022212 -0.131078 -0.019798 -0.097818 -0.112551 0.004036 -0.162506 -0.001654 -0.053506 -0.111260 -0.128095 0.051436 0.156072 -0.144619 -0.069159
0.047962 -0.128477 0.138643 0.015465 0.136223 -0.119852 0.003415 -0.068771 0.003547 0.075113 0.152100 -0.049514 0.093781 0.075332 -0.016168 0.114110 0.061097 0.108580 -0.078346 0.091795 -0.055033 0.017798 0.116926 0.028455 -0.051019 0.127551 -0.107817 -0.098606 0.169530 -0.031738 0.147220 0.043709 -0.034156 -0.112003 0.062721 0.106863 -0.065767 0.028626 -0.094319 0.119470 0.022124 -0.138177 -0.165155 0.009185 -0.168689 0.087109 -0.131150 -0.141166 -0.095146 0.096492 -0.107137 0.081373 -0.136609 -0.157298 0.049289 0.085162 0.149243 0.098471 -0.096320 -0.019072 0.081512 -0.042133 -0.164743 0.005279 -0.052444 0.088009 0.036328 -0.048519 0.154741 0.133351 -0.028237 -0.088846 -0.041515 0.112767 0.080213 0.005874 0.128694 0.065669 -0.091509 0.096944 0.140885 -0.114185 0.143057 0.017526
0.130021 -0.073690 -0.067662 -0.079145 0.157699 0.014128 -0.100728 0.168479 -0.157399 -0.092694 -0.035893 0.031928 -0.101212 -0.041899 -0.060147 -0.092087 0.051852 0.164179 0.042243 -0.052843 0.114536 0.034383 -0.165565 0.011055 -0.123602 -0.159560 -0.095242 -0.052616 -0.052866 0.033642 -0.097403 0.012393 -0.049998 -0.160732 0.121448 -0.103336 0.053575 -0.123279 0.088319 0.041311 0.051634 0.070809 0.037217 -0.168690 -0.126033 0.077095 -0.025833 -0.102848 -0.133535 -0.086365 0.115436 -0.093345 -0.069345 0.169055 0.072217 0.100523 0.041681 -0.163281 -0.138200 0.056407 -0.072612 -0.149113 0.097303 0.026784 0.063611 0.050545 0.021994 0.128923 -0.057584 0.072293 -0.047623 -0.159393 -0.170730 -0.077733 0.087719 -0.131689 -0.086744 0.061004 -0.045479 -0.020420 -0.121466 -0.012296 0.129294 0.142350
-0.072599 -0.167107 -0.105813 0.054755 0.143022 -0.053760 0.051109 -0.120346 0.123123 0.081748 0.005067 -0.112831 0.142636 -0.110212 -0.002572 -0.144843 -0.035989 -0.010871 0.121006 0.085064 0.040105 0.136830 -0.107411 0.021948 0.145543 -0.001041 0.083805 -0.016131 -0.063840 -0.051401 -0.026317 0.063391 -0.149684 -0.016491 0.070507 -0.162012 0.165456 -0.059160 0.164519 0.143650 -0.073558 -0.146933 0.052346 -0.028101 -0.121645 0.131411 0.170061 -0.055581 0.002236 0.082944 0.160964 -0.128117 -0.036598 -0.059914 0.063762 0.053850 0.009128 0.026144 0.128815 0.131616 -0.095371 -0.120540 -0.098278 0.100688 0.032827 -0.162984 0.125863 -0.089617 0.133337 0.090883 0.088583 0.153570 0.009121 0.147109 0.059963 0.056486 0.015484 -0.107384 -0.007317 -0.167645 0.061601 -0.159219 -0.033640 -0.059456
-0.021249 -0.039397 0.017317 0.152920 -0.105438 0.048066 -0.081222 0.052716 0.150667 -0.064354 0.090373 -0.035670 0.020871 0.051257 0.051874 -0.139141 -0.064214 -0.075312 -0.140471 0.051860 -0.102108 -0.083803 0.014230 0.112912 -0.103360 -0.014640 0.091616 0.083439 -0.132277 0.122380 -0.168923 -0.037350 -0.158456 0.073494 -0.077582 -0.128496 -0.121764 -0.027891 0.133959 -0.125751 0.036509 -0.051366 0.020404 -0.129549 0.011619 0.022066 0.011580 0.152637 0.093315 -0.075563 0.019893 -0.116869 -0.052723 0.086347 0.051924 0.024484 0.093893 -0.133530 -0.164602 -0.132657 0.126587 0.113910 0.145085 -0.147591 0.121072 -0.152297 0.123471 -0.076408 0.014368 -0.157343 -0.113903 0.150314 0.057393 -0.035231 -0.010321 -0.024385 -0.096561 0.137120 -0.097867 0.084891 0.152038 0.000148 -0.117197 -0.077609
-0.057404 0.135847 0.003521 0.056916 0.031973 0.155952 0.144820 -0.142990 -0.167115 0.168523 -0.165633 -0.132928 0.068420 -0.125893 0.136143 0.081220 0.156603 0.068273 -0.073725 0.115562 0.132119 -0.121784 0.058022 0.141918 -0.015127 -0.086441 -0.083300 0.114165 0.124790 0.121886 -0.008475 -0.075619 0.062956 0.144167 -0.109284 0.166843 0.165404 0.086666 -0.144048 0.114016 0.113445 -0.165133 0.000276 0.113771 -0.019772 0.059302 -0.008256 -0.160841 0.144206 0.110403 -0.138323 -0.061451 -0.133344 0.089003 -0.154753 0.024092 0.129189 0.089538 0.123634 0.116622 -0.006272 0.117576 -0.161268 0.076452 0.129785 -0.165559 0.116360 0.028653 0.088219 -0.021733 -0.121044 0.000549 -0.063766 -0.111054 -0.125667 -0.036631 -0.138584 -0.012552 -0.041947 -0.090809 0.016871 -0.043135 -0.017810 -0.143443
-0.108975 0.110941 0.009281 0.096717 0.060294 0.140603 0.001960 -0.031985 0.006505 -0.086567 0.120970 -0.139663 -0.140125 -0.162196 0.138167 -0.046612 0.102902 -0.163410 -0.022697 0.138619 -0.085262 -0.040538 -0.093275 0.056843 0.013331 -0.020649 -0.008705 0.165607 -0.015230 0.142932 0.122657 0.033906 0.158605 0.151746 -0.161125 -0.016190 0.036293 -0.016488 0.090881 -0.027651 -0.089221 -0.030110 -0.034949 -0.023039 0.132733 -0.038268 -0.102118 -0.094795 -0.130874 -0.116293 0.149655 0.147275 -0.083878 0.077900 -0.137323 0.027559 0.108573 0.134058 0.168662 -0.158174 -0.105542 -0.157434 0.090392 -0.016832 -0.000046 0.140330 0.151254 -0.101384 -0.155643 0.043416 -0.008121 -0.074713 -0.044449 0.111355 0.158111 0.164782 0.157436 -0.008862 -0.120568 -0.077189 -0.035819 -0.136015 -0.073934 0.141972
-0.035855 0.044814 -0.094099 -0.057570 0.125894 0.120661 0.134060 -0.038647 -0.137215 0.053637 0.025828 0.122202 0.146676 -0.126469 0.081256 -0.163855 -0.151482 0.140634 -0.014316 0.023268 -0.069902 0.052715 -0.084505 -0.161738 -0.095986 -0.021649 -0.114674 0.143297 -0.126519 0.151632 0.046680 0.010022 -0.012237 0.096746 -0.155842 -0.142189 0.092738 -0.004707 0.075312 0.097790 -0.091666 0.113941 0.072385 -0.099468 0.081804 0.143697 0.063693 0.031642 0.125527 0.051015 -0.023499 0.123802 -0.109260 0.077416 0.133828 -0.118319 0.122853 -0.107568 -0.130264 -0.000807 -0.049990 0.124706 0.115378 -0.104997 -0.013226 0.050721 0.086025 0.026181 0.116946 0.103902 -0.001410 0.066269 -0.162229 -0.125065 -0.153226 0.001481 0.127335 0.112159 -0.025894 0.035457 -0.114126 0.141553 0.125259 0.148738
-0.092119 0.169045 0.135961 0.045810 0.014515 0.004506 0.119552 -0.147746 -0.033597 -0.086577 0.160199 -0.066830 -0.141509 -0.125284 -0.065908 -0.046613 -0.137930 0.007188 0.170140 -0.093534 -0.140825 -0.014888 -0.096435 0.006648 -0.101020 0.096869 0.057757 0.033362 0.119746 -0.087558 -0.147027 -0.170677 -0.133069 -0.097855 -0.115790 -0.085609 0.050250 -0.066916 -0.090109 0.162206 -0.011734 0.044196 0.151703 -0.066895 0.055928 -0.151325 -0.138695 -0.094930 0.104146 -0.171319 0.168965 0.024119 -0.164647 -0.115421 -0.151193 -0.090212 0.165239 -0.042655 -0.042134 0.133147 0.048399 -0.065470 0.080230 -0.095990 -0.079575 -0.157373 0.103757 -0.015694 0.166102 -0.078483 0.003110 -0.143000 -0.064850 -0.021886 -0.127036 -0.024510 -0.057495 0.142648 0.066565 0.073112 -0.017444 -0.135555 0.075145 0.122481
0.132284 -0.151833 -0.142254 -0.081796 0.149905 -0.042765 -0.170052 0.103845 0.137723 0.035163 0.166209 0.096690 -0.059531 0.091486 -0.158597 -0.098594 -0.076888 -0.082032 0.126811 -0.164609 0.052349 0.000592 -0.079392 0.136232 0.121821 0.011863 0.045900 0.072509 0.055610 -0.154751 0.148863 0.114433 0.006321 -0.056364 0.121691 -0.033081 -0.102711 -0.067764 -0.101075 -0.052086 0.102880 -0.015911 -0.154019 -0.108450 -0.051066 0.094959 -0.079555 -0.050897 0.093369 -0.097350 -0.154222 -0.114179 -0.128155 -0.122300 -0.105390 -0.019617 0.088302 -0.125528 0.014961 -0.042491 0.026989 0.036430 0.113462 0.151885 0.080222 0.132042 0.030492 -0.156786 -0.077073 0.003240 -0.163057 0.021603 0.122083 -0.111390 0.064567 -0.062012 -0.112350 0.127081 -0.059537 -0.128665 -0.078073 0.018988 0.111761 0.109325
-0.133457 -0.051806 0.161233 0.099017 0.125320 0.018378 0.034940 0.115602 -0.074574 0.115003 0.138471 0.091307 0.018931 0.100763 -0.000645 -0.052600 -0.036703 -0.004122 0.132975 0.159804 0.080926 0.113175 0.099910 -0.127784 0.056051 0.070973 -0.073870 0.135253 -0.001610 0.099589 0.133712 0.045400 -0.067157 0.014666 -0.013204 -0.152449 -0.089098 -0.150294 0.112048 -0.023974 -0.093972 -0.003265 0.070231 -0.168864 0.024419 -0.075677 0.129650 0.136055 0.159423 -0.069528 0.167457 -0.002617 0.030513 0.007250 -0.078791 -0.136664 0.073268 -0.027535 -0.054586 -0.162575 0.166860 -0.105218 0.146530 0.023792 0.154830 -0.102544 -0.159575 -0.141662 -0.126098 -0.067942 -0.099661 0.084341 0.026055 -0.078511 -0.109070 -0.045943 -0.167434 0.119651 -0.082409 0.114328 -0.143045 0.023103 -0.008266 -0.138703
-0.113141 -0.090905 -0.163411 -0.054412 0.020989 0.112962 -0.001865 0.018766 -0.062099 -0.164507 -0.096702 -0.020844 0.113301 0.141685 0.068120 0.082520 -0.126300 -0.027584 0.018978 0.137274 0.068774 0.151783 0.169767 0.044873 -0.121822 0.133276 -0.007535 0.047444 0.070450 0.107115 0.170443 0.082083 -0.004554 -0.047295 -0.007765 0.072237 -0.144650 -0.020942 0.033764 0.129422 -0.064441 0.167279 -0.027448 -0.144411 0.132507 -0.127113 -0.079975 -0.092187 0.146590 -0.003251 0.022694 -0.044814 0.009122 0.167926 -0.116760 -0.102333 -0.138725 0.086522 -0.121193 0.105236 -0.089502 -0.136848 -0.163144 -0.169276 -0.038483 0.058164 0.155850 0.142423 -0.043847 0.018128 -0.025062 -0.084337 -0.102472 -0.064234 -0.142324 -0.023076 0.155157 0.024886 -0.040920 0.147067 0.025100 -0.088043 0.028765 0.007909
-0.013585 -0.108445 -0.098655 -0.022207 0.159112 -0.050136 0.143971 0.039344 -0.126555 -0.060741 0.111036 -0.086688 -0.090429 -0.152817 -0.050698 0.052775 0.113229 -0.120991 -0.162382 -0.018848 -0.096372 -0.123792 -0.119720 -0.044786 0.050193 0.093989 -0.142712 0.137302 0.163959 -0.075883 0.079962 0.004399 0.038631 0.039156 -0.036858 0.102846 -0.121189 0.110470 -0.077711 -0.028438 -0.041716 -0.114125 0.100785 -0.004882 -0.076918 0.033609 -0.050127 -0.092158 0.031233 0.168264 -0.025425 0.117816 0.151966 -0.141445 -0.071052 -0.149029 0.044045 0.122785 -0.091963 -0.014496 -0.156979 0.087948 -0.008169 -0.141731 0.070231 -0.017885 0.094221 0.162851 0.014167 0.157036 0.040428 0.141324 0.055223 0.120323 -0.091802 -0.020445 0.031959 -0.127728 -0.046694 0.146778 0.150838 0.170553 -0.135939 0.080958
-0.037472 -0.101592 -0.056630 -0.093634 -0.165909 0.029894 -0.164836 -0.035200 -0.102537 0.040206 -0.114607 0.073331 -0.097360 -0.053621 0.125967 -0.089882 0.084618 -0.029731 0.075153 -0.119093 0.077851 -0.169284 -0.104463 -0.098903 -0.068795 -0.066016 -0.143716 -0.100021 -0.075058 -0.028963 0.099762 -0.154472 0.035038 -0.069979 -0.134785 -0.124084 0.062494 0.094965 -0.066114 0.105096 0.037314 -0.107704 0.003247 -0.108306 0.145960 -0.082470 -0.136787 0.079202 0.168087 -0.020867 0.081144 -0.006899 -0.048570 -0.127776 0.092367 -0.083031 0.011530 0.104243 0.129014 0.120912 0.040812 -0.108186 0.045011 0.026096 0.160264 0.091346 -0.112762 0.031737 -0.141051 -0.126163 -0.108708 0.131084 -0.058261 -0.012699 -0.126657 -0.054622 -0.085033 0.064835 -0.025937 -0.047631 -0.164960 0.063762 -0.009260 0.097740
-0.068586 0.082852 -0.003042 -0.097526 0.165947 -0.127048 0.110040 0.137687 0.145071 0.139209 -0.040425 -0.113714 -0.004848 -0.048777 0.036207 -0.102077 0.144063 -0.094515 -0.039989 0.040472 0.101943 -0.010003 -0.142144 -0.020408 0.028468 -0.141058 -0.035650 -0.129116 0.157237 -0.010343 0.087060 0.136997 -0.158929 0.157995 -0.059692 -0.120320 0.159817 0.043617 0.027593 -0.166622 0.152251 0.012598 0.056766 -0.008873 0.082999 0.077186 -0.162946 0.143695 0.021279 -0.135453 -0.124756 -0.130924 0.161629 0.013104 -0.145012 -0.052091 -0.069885 -0.124141 0.052082 0.111680 -0.169851 0.034800 -0.055055 -0.083540 0.084250 -0.000116 -0.093854 -0.144196 -0.096798 -0.020675 0.009025 0.118367 0.066916 -0.069170 -0.108613 -0.101150 -0.008332 0.105978 -0.138932 -0.044192 -0.003930 -0.136813 0.050179 0.119610
-0.062397 -0.110214 0.159624 0.111878 -0.116287 -0.084461 -0.126218 -0.161145 0.160517 -0.089612 -0.032058 0.078946 -0.016183 0.066066 -0.154802 -0.088911 0.141095 0.119494 -0.031251 0.145581 0.035552 -0.045382 0.057526 0.098211 0.076527 -0.072918 0.112139 -0.129876 -0.064559 -0.145858 0.097199 -0.055266 -0.128551 0.028760 0.166603 -0.089644 0.051697 0.148505 0.125417 0.048021 0.000941 0.100572 -0.051356 -0.156819 -0.030480 -0.053870 -0.088284 0.000910 0.066678 -0.067728 0.087691 -0.000030 0.038830 -0.156775 -0.129900 -0.048159 0.157561 0.166512 0.095052 -0.170846 -0.160029 -0.092965 -0.074452 -0.100988 -0.024212 -0.105761 0.115557 -0.089247 0.163671 0.078985 -0.121690 0.020330 0.076959 -0.040269 -0.121766 0.168946 0.105588 0.134582 -0.055124 0.122800 -0.142075 -0.028433 0.030481 0.088693
-0.051765 0.023980 0.009380 0.108819 0.098234 0.038198 0.101048 0.113896 -0.010725 -0.111055 -0.097066 0.083639 -0.018715 -0.134832 0.034543 0.115895 -0.123752 -0.131636 0.026813 -0.064706 0.164228 -0.090148 -0.150459 0.152301 -0.153923 -0.051390 0.055711 -0.167700 0.071119 -0.019477 0.068940 -0.132540 -0.092143 0.109329 -0.132206 -0.057374 -0.037821 0.090592 -0.120977 -0.046783 -0.003807 0.056161 -0.011196 -0.057250 0.132988 -0.155291 0.161841 -0.041412 0.034999 0.045058 -0.135079 0.106638 -0.161867 -0.054338 0.127908 0.120620 0.136511 0.096095 -0.013599 -0.001103 -0.052482 -0.137036 -0.170496 0.115296 0.116568 -0.088477 0.051518 -0.068771 -0.139129 0.160901 0.065947 -0.070933 0.153045 0.133260 0.049496 -0.021978 -0.092906 -0.005955 -0.033795 -0.105807 -0.086488 -0.079831 0.156295 -0.008703
0.017972 -0.073946 0.094318 -0.108263 -0.005177 0.120164 0.099233 0.150363 -0.134725 -0.054849 0.024135 -0.151891 -0.060618 0.062854 0.089672 0.135769 0.062989 -0.032082 -0.116517 0.059451 -0.119340 -0.103666 0.108886 -0.166513 -0.080976 0.136945 -0.099456 0.068918 -0.049610 -0.095589 0.020995 0.035036 0.154724 0.002317 0.019205 0.101718 -0.103527 0.025951 -0.092249 0.005964 -0.035618 -0.135074 0.061506 0.045377 -0.009330 -0.147083 0.023294 0.165082 -0.013216 -0.018507 0.166460 0.153509 0.125518 0.139223 -0.039613 -0.133589 -0.058875 0.072227 0.075427 -0.088021 -0.123672 0.021583 -0.134708 0.133475 -0.162405 0.118565 0.029063 -0.128808 0.139139 -0.092847 -0.031707 0.148606 -0.049938 0.024327 -0.142286 -0.044444 -0.039664 -0.132463 0.171003 -0.138101 -0.137883 -0.047421 0.106147 -0.146292
0.108609 -0.123954 -0.114767 -0.151181 -0.076572 0.067143 0.147763 0.156421 0.033737 -0.018898 0.094093 0.128356 -0.130203 0.061338 -0.171129 -0.168986 0.160089 0.056431 0.124999 0.042589 0.110038 -0.109890 0.103253 0.109810 -0.110435 0.166793 -0.110632 -0.117692 -0.095174 -0.012767 -0.013311 -0.168810 0.158599 0.154782 -0.113309 -0.099907 -0.075585 0.115649 0.144670 0.060125 0.013985 0.011434 0.077032 -0.092126 0.032645 0.171490 -0.068644 -0.017136 0.011991 -0.138885 0.139170 -0.126708 -0.000067 0.034445 0.150154 -0.151762 0.066882 -0.122247 -0.164639 -0.049334 -0.061276 0.098407 -0.055104 -0.157210 0.162397 -0.098572 -0.092604 0.113408 -0.130873 0.097157 -0.125493 0.091231 -0.149406 -0.123541 0.067566 -0.117653 -0.126003 0.077303 0.065170 -0.093529 -0.118995 -0.021057 -0.045786 0.008232
-0.114870 0.045993 0.006751 0.092002 0.002242 -0.083848 0.077481 0.083647 -0.130216 -0.050271 -0.047152 -0.008245 0.063482 -0.112138 0.119867 -0.087363 0.059645 0.119002 -0.017931 0.001730 0.039827 0.132376 -0.035348 0.035700 -0.068685 0.057531 -0.109708 0.118444 -0.150150 -0.009604 0.107174 -0.113120 -0.038407 0.128609 0.160684 -0.146074 -0.114375 -0.123909 -0.147359 0.139744 -0.013963 0.122776 0.043855 -0.151127 -0.081723 -0.061179 -0.031684 0.044014 -0.019956 0.105622 0.128411 -0.121588 -0.054954 -0.120298 -0.018487 0.068150 0.063475 0.164668 -0.089172 -0.114594 -0.149207 0.044440 0.136370 -0.160993 -0.047162 0.163371 0.060100 0.102403 0.150046 -0.143421 0.074181 -0.026477 0.016507 0.003991 0.104945 0.138173 0.020273 0.031661 -0.169882 -0.058274 -0.132033 -0.136250 -0.049322 -0.018796
0.102384 -0.149673 -0.046162 -0.132873 0.125258 -0.129928 -0.145750 -0.069570 -0.144081 -0.043633 -0.025414 0.109141 -0.100932 0.070488 0.141681 -0.010458 -0.171427 -0.149616 0.129910 0.121331 -0.004754 -0.031110 -0.021430 0.144943 0.128043 0.128079 0.170135 -0.164473 0.071575 0.168869 -0.159157 -0.115602 0.140401 0.128608 0.081893 -0.171468 0.156573 0.019478 0.058226 0.030688 -0.081092 -0.162833 0.019313 0.024647 -0.134468 0.108696 -0.122939 -0.094423 -0.169349 -0.097786 0.015496 -0.085129 -0.154058 0.085834 0.166565 -0.114432 -0.078866 -0.138381 0.143390 -0.041626 0.151536 -0.001052 0.062953 -0.024814 -0.035722 -0.143810 0.069891 -0.144408 0.008609 0.167314 0.152634 -0.097912 -0.162277 -0.050285 -0.048206 -0.144726 0.018861 0.035769 0.091671 -0.166093 0.141253 0.106457 0.140370 0.072195
0.076196 -0.001118 0.134780 -0.045160 -0.019264 0.036081 -0.068028 -0.071054 -0.120579 -0.046290 0.128984 0.128423 0.115808 0.016895 0.049864 0.027177 -0.078630 -0.018390 -0.120594 0.061959 -0.123286 0.149564 0.161760 -0.005814 0.122582 -0.148640 0.065851 -0.051999 0.078381 0.080120 -0.089704 0.030944 0.018885 -0.075674 -0.075186 0.044375 0.032836 -0.149769 -0.017299 -0.015324 -0.155089 -0.103525 -0.094324 -0.010938 0.058137 0.005979 -0.050689 0.140495 0.159320 -0.159234 -0.157177 0.098411 -0.045954 -0.130686 -0.012507 0.100275 -0.020899 -0.150647 -0.034354 -0.107028 -0.132307 0.085490 -0.169768 0.145854 -0.033203 0.077686 0.059113 0.169122 0.008218 -0.127615 0.123268 -0.079838 -0.114445 -0.078708 0.009660 0.129219 -0.084958 -0.012085 -0.169598 -0.059500 -0.058125 0.064490 0.089258 -0.088073
-0.126810 0.073448 -0.025325 0.151113 -0.068544 0.037230 -0.104155 -0.063715 -0.009817 0.005877 0.052105 0.104666 -0.019236 -0.142245 0.000098 -0.086648 0.013581 0.161440 0.137602 -0.007011 -0.140527 0.029642 0.163323 0.030624 -0.077341 -0.121577 -0.000240 -0.026244 -0.074169 -0.007705 -0.045910 -0.132692 -0.034457 -0.118496 0.091250 0.005163 0.097643 0.038718 0.156086 0.138320 -0.165469 0.070377 0.093745 0.074233 -0.106072 0.092525 0.079534 0.130324 0.126687 -0.126385 0.038756 -0.027435 0.103240 0.141751 -0.014118 0.146636 0.013034 0.166308 -0.075640 0.119586 -0.107620 -0.046908 -0.066063 0.002225 0.049342 -0.085758 0.166127 0.080416 -0.060279 0.032251 0.096992 -0.141117 -0.048456 0.010862 0.079205 -0.005454 0.065653 0.098438 -0.063880 -0.123679 -0.107849 -0.038880 0.123186 -0.145296
0.169540 0.117800 0.013215 0.085799 -0.014345 -0.090748 0.017156 0.040647 0.065619 0.051588 0.056864 0.097429 0.094886 0.058254 -0.028143 -0.124681 0.171444 -0.127049 -0.049984 -0.121679 0.073497 -0.042450 -0.052062 0.060463 -0.059541 0.010861 0.014291 0.118559 0.076230 0.031067 -0.002896 -0.131555 0.006832 0.117644 0.092291 -0.008796 -0.164726 -0.083445 0.083162 0.106459 0.108465 0.045955 -0.147658 -0.040906 -0.040647 -0.163695 -0.145698 0.040805 0.018416 0.161310 -0.005243 -0.089410 -0.080449 0.159691 -0.047309 -0.066601 -0.067957 0.040118 -0.085286 0.011346 0.136526 0.050628 -0.079701 0.042344 -0.162452 0.135321 -0.146721 -0.131440 -0.170836 -0.018187 0.049687 -0.114835 -0.170227 0.151538 0.161873 -0.079752 0.136458 -0.144183 0.082947 0.034517 0.105339 -0.032057 0.169678 -0.097769
-0.102319 -0.004143 -0.067973 0.133606 -0.016708 -0.165036 -0.094545 -0.024097 -0.033876 0.058937 0.063813 -0.095201 0.003094 0.124413 0.056754 0.011596 -0.041353 0.079776 0.116755 0.035610 0.073676 0.018670 0.030128 -0.074106 -0.098680 -0.135819 -0.139004 -0.001352 -0.013860 -0.070248 0.167527 -0.137475 0.029313 0.149345 0.058495 0.101131 0.016005 -0.160128 0.093155 -0.016859 0.078998 0.066131 -0.058795 -0.141151 0.126331 0.162933 0.037096 -0.108904 -0.049346 -0.145284 0.048932 0.170524 0.032464 -0.121050 0.078705 0.122628 0.120414 -0.021742 -0.046747 0.169094 0.101365 0.002963 0.143029 -0.064240 -0.042496 -0.124502 -0.169899 0.156323 0.022286 0.136240 -0.095031 0.031490 0.061542 0.080500 0.047404 -0.003810 -0.158212 0.024958 -0.026841 0.068628 0.002210 0.015610 -0.145312 0.071757
-0.078978 -0.098312 -0.036184 -0.060683 0.115761 0.171027 -0.144557 0.135936 -0.017856 0.054047 0.158009 -0.168839 -0.047048 0.104718 -0.080414 0.022089 0.060876 -0.076243 -0.032816 0.076988 0.148937 -0.080926 -0.000033 0.042322 -0.150900 -0.034644 -0.024352 -0.145032 -0.018341 0.123598 0.078427 0.131625 0.115226 -0.058303 0.075046 0.141176 -0.143547 0.038733 -0.012811 -0.118957 0.134245 0.110950 0.000240 0.080448 -0.089681 0.071480 -0.124621 -0.151266 -0.118009 -0.090130 -0.161601 0.055106 -0.124947 -0.102755 0.119076 -0.053940 -0.094848 0.093990 -0.116714 0.140055 0.131237 -0.084387 0.163288 0.045357 0.038720 -0.052325 -0.159750 -0.094112 -0.039530 0.107503 0.030941 -0.147534 0.147314 0.098021 0.157148 -0.001259 0.010528 0.086727 0.043945 0.129391 -0.161869 0.116750 0.135763 0.137024
-0.116669 0.135394 -0.097800 0.052270 -0.047425 0.046923 -0.046715 -0.131022 0.073222 0.098938 0.041183 -0.109646 0.054328 -0.095276 -0.133345 -0.082921 -0.067838 0.099238 -0.031955 0.066641 -0.162418 -0.061120 -0.018852 -0.018896 -0.142534 -0.136617 0.125785 -0.034472 -0.157764 0.171260 0.157804 -0.029558 0.022679 0.077994 -0.079485 -0.021292 0.004002 0.062715 -0.143255 -0.162465 0.006328 -0.122779 0.058205 -0.169131 0.126269 -0.056631 0.090824 0.084118 -0.018101 0.038496 -0.132929 0.125504 -0.132739 0.129119 -0.102000 0.075535 0.046141 -0.070967 -0.100978 0.078295 -0.099217 -0.130143 -0.112171 0.034747 0.044437 -0.056850 -0.096234 -0.125249 -0.052066 -0.045947 -0.067216 0.141260 0.168865 0.018121 -0.163764 -0.024025 0.011263 -0.135949 0.104284 0.067835 0.103977 -0.059617 -0.136079 0.085294
-0.003317 -0.101791 -0.028831 0.024572 -0.039253 -0.145783 0.109387 -0.043075 0.088150 0.033625 -0.120615 -0.115933 0.044306 -0.072448 -0.123345 -0.057016 -0.160705 0.079895 0.009831 -0.145173 0.096830 0.003827 -0.154636 0.069439 -0.145139 -0.028190 -0.137490 -0.070197 0.129817 0.074420 0.118594 0.135167 -0.110747 0.011359 -0.090371 0.050153 0.037419 0.078660 -0.082975 0.138965 0.150458 -0.129535 0.101255 0.077176 -0.168898 0.023032 -0.128352 0.120798 -0.057622 -0.020630 -0.007803 0.147522 0.022692 0.159009 -0.155441 -0.004178 0.155268 -0.024022 -0.097659 -0.101358 0.146034 0.070980 -0.155229 -0.166511 -0.171107 -0.134630 0.131320 0.118189 -0.090222 0.020705 -0.148682 0.065468 0.083901 -0.126453 0.089815 0.161272 -0.058383 0.149880 -0.011386 0.108455 0.071362 -0.141698 0.127210 0.053102
0.003591 -0.065360 0.147018 -0.144636 -0.102368 0.146560 0.009938 0.084039 -0.063423 0.145308 0.098534 0.158239 0.076573 0.005986 0.130380 -0.027882 0.080841 0.118802 0.052802 0.037662 0.030118 -0.093505 0.169144 -0.133798 -0.085050 -0.022458 -0.127511 -0.090399 0.077580 0.006165 -0.043194 -0.069590 -0.087749 -0.069773 0.005759 0.055191 -0.119152 0.143339 -0.088873 0.119149 0.059392 0.117763 -0.006525 -0.086284 -0.142205 -0.109450 -0.103880 0.096513 -0.020709 0.114159 0.022729 0.026077 0.035223 -0.034565 -0.040468 -0.165382 -0.029716 0.022239 0.047496 -0.008104 0.015580 0.041565 0.039449 0.100511 -0.086618 -0.152604 0.082685 -0.072356 0.140734 -0.116169 -0.050454 0.122507 0.137078 0.122352 -0.052753 -0.041506 -0.127134 -0.072387 -0.027374 -0.139203 -0.141315 -0.155196 0.116407 0.143654
0.126299 -0.141451 -0.097799 0.143998 -0.030118 0.128070 0.067635 -0.156024 0.026821 -0.017680 0.046224 -0.141930 0.036574 -0.130192 0.068501 0.026024 0.057591 -0.136877 -0.024319 -0.006012 0.043757 -0.101567 -0.154755 -0.066186 -0.008685 0.029217 0.053879 -0.055640 -0.133701 0.009921 -0.106781 -0.113020 -0.004291 0.057069 0.010697 0.095965 0.137955 -0.135255 -0.071407 -0.119711 0.168325 0.163816 -0.162402 -0.088555 -0.083343 0.009231 0.019036 0.163473 -0.131561 -0.006566 -0.158359 0.069549 0.038531 0.033412 -0.062550 0.032519 0.123478 -0.091632 0.151200 0.158761 0.149142 0.165706 -0.146048 0.094397 -0.074886 -0.049517 -0.070930 -0.138620 -0.024076 0.067929 -0.006181 0.014119 -0.049855 -0.107766 0.027470 -0.004201 0.101215 -0.078849 -0.055691 -0.073777 -0.088755 -0.078304 0.007383 0.075192
0.034701 -0.043091 0.050923 -0.039417 0.043725 -0.168911 0.116214 -0.020830 0.040421 0.067445 0.128943 0.076745 0.105576 0.011655 -0.089265 -0.093245 -0.012167 -0.153267 0.001667 -0.101102 0.159923 0.145950 -0.026411 -0.020341 -0.022063 -0.015039 0.130596 0.115870 -0.063707 -0.007638 0.000619 -0.060637 0.169488 0.124988 -0.044211 -0.028546 -0.075552 -0.043545 0.066423 -0.016384 0.033594 0.008305 -0.045152 0.096722 0.166294 0.025741 0.073768 -0.128336 -0.073078 0.144884 0.110514 -0.160428 0.018602 0.015541 -0.094032 0.056241 -0.028968 0.146884 0.141814 -0.163609 -0.081499 -0.050604 0.111712 -0.004476 0.056290 0.076986 0.145165 0.086628 -0.020008 -0.009421 0.106361 -0.068815 0.035286 0.037125 0.009369 -0.027566 -0.003789 0.048256 0.053943 0.070335 0.102552 0.051947 -0.144236 -0.048644
-0.131207 0.065592 0.167091 0.120108 -0.032752 0.042337 0.140395 -0.133290 -0.082875 -0.079846 -0.040484 -0.073494 -0.133004 0.048201 -0.000086 0.017355 0.139436 -0.009032 -0.118089 0.121298 -0.095974 0.032562 0.162089 0.161180 -0.039121 0.090115 0.096230 -0.043084 -0.122121 -0.130301 0.131957 0.147515 -0.004897 -0.040296 0.035824 -0.163986 0.054329 0.152861 0.140328 -0.078008 -0.023518 0.060478 0.148780 0.032325 -0.017433 0.160774 -0.063126 0.025555 0.021314 0.010003 -0.105526 0.111950 -0.074425 0.120164 -0.030664 0.161252 -0.066665 -0.024028 0.100954 0.104264 -0.052808 0.146082 -0.109480 -0.016729 -0.015405 0.041802 -0.118624 0.154316 0.062589 -0.098615 0.134297 -0.154400 0.103302 0.124113 -0.020332 0.073921 0.104172 -0.041569 -0.017826 -0.094335 0.033264 -0.133046 -0.044033 -0.099033
0.110315 0.062267 0.120312 0.049983 0.067028 -0.091630 -0.109819 -0.084255 0.085850 -0.161016 0.121964 -0.025616 -0.141536 -0.153349 0.021367 -0.000316 0.112544 0.124074 0.077072 -0.087660 0.106739 -0.051986 -0.034952 0.009220 -0.140446 0.068332 0.155703 0.160728 0.067913 0.064458 -0.059136 0.029006 0.147771 0.039896 0.128427 -0.152006 -0.041916 -0.066912 0.008146 -0.034201 -0.058211 -0.143798 0.165699 -0.007185 0.062891 -0.097439 0.129411 -0.041558 -0.036469 0.032469 0.103591 -0.170537 0.077212 -0.000333 0.161969 0.091837 0.104434 -0.156349 0.047410 0.151127 0.034565 0.108544 -0.107808 -0.140781 -0.064007 0.085039 0.128962 -0.155420 -0.118098 0.053069 0.094786 -0.092471 0.085456 -0.144144 -0.162916 -0.022926 -0.003356 0.054785 0.040678 0.047157 0.079941 -0.017262 0.076396 -0.005116
0.072957 -0.088018 -0.100560 0.118954 0.165710 -0.128366 0.109232 -0.130573 -0.008039 0.114441 0.079868 0.044745 0.132367 0.030238 0.060193 -0.124741 0.008858 -0.027124 0.007307 0.030741 0.147522 0.081755 0.009432 0.165062 -0.009235 0.107007 -0.035191 -0.155669 -0.027417 0.145988 0.095377 0.144067 0.158781 -0.159946 -0.036742 -0.127810 0.166126 0.060724 -0.130900 0.106305 -0.104777 -0.101385 -0.018120 -0.028196 0.023176 -0.031224 -0.169130 0.083376 -0.091921 -0.163333 0.131914 0.090737 0.139708 -0.012286 0.002381 0.052736 0.076708 0.093317 -0.103086 0.030738 0.143653 0.081757 0.092662 0.008662 -0.150720 -0.000907 0.093327 -0.054011 0.000553 0.111874 -0.059659 0.063126 -0.065197 0.012093 0.047427 -0.016240 0.100956 -0.092011 -0.095288 0.151371 0.024233 -0.091408 0.095274 0.154759
0.012630 0.010728 0.146092 0.097768 0.092439 -0.154350 -0.150989 0.167981 0.021690 0.082590 0.053308 -0.076882 0.131337 0.126622 0.057854 0.067528 -0.139528 -0.101273 0.081934 0.111634 -0.165339 -0.103793 -0.071459 -0.005759 0.047049 -0.164480 -0.021726 -0.033731 0.017120 0.045169 0.169163 0.151131 -0.032425 -0.035115 -0.062305 -0.091209 -0.081195 -0.056649 -0.011672 -0.044770 0.026493 0.029640 0.150744 0.074990 -0.027834 -0.106590 -0.138425 0.143554 -0.153229 0.133740 0.029876 0.067777 0.030197 0.165629 -0.047939 0.065869 0.114109 -0.089649 0.097121 0.094825 -0.117853 -0.025538 0.090081 0.129578 -0.092182 0.086728 0.094927 0.103355 -0.124893 0.154987 -0.128022 0.143736 -0.028256 -0.085019 0.070771 0.093147 -0.076144 -0.100353 -0.113018 -0.141604 0.068759 -0.122288 0.023729 -0.024959
0.139395 -0.074473 0.104198 -0.061769 -0.162371 0.000257 0.148467 0.038728 0.029636 -0.025220 0.123190 0.098442 0.009415 -0.004549 -0.112968 -0.043555 -0.029443 -0.077784 -0.144885 0.161949 -0.047622 0.089362 0.118148 -0.050765 -0.100843 -0.018233 -0.042875 0.066648 -0.126853 -0.169236 0.079354 -0.069612 0.064075 0.028837 -0.011938 0.127122 -0.158968 0.078935 -0.163799 -0.044599 0.155628 0.054775 0.096417 0.031214 0.004891 0.017565 -0.009109 0.048428 -0.149190 0.090656 -0.156034 0.154311 0.143857 0.052991 -0.051746 0.011943 -0.131356 -0.093271 -0.025350 -0.034653 0.156968 -0.101824 0.129506 0.075718 0.122165 0.071589 -0.154918 -0.005495 -0.004358 0.098177 -0.157248 0.082464 -0.120578 0.050273 0.170540 -0.009785 -0.094423 0.067676 -0.028400 0.138864 0.078579 0.093222 -0.097357 -0.148603
-0.088572 0.103658 -0.006557 -0.099128 -0.052168 0.127914 0.112187 0.137992 -0.121677 -0.029957 0.080119 -0.157098 -0.065191 -0.160404 -0.065174 0.115342 0.018600 0.135717 -0.005495 -0.132260 -0.070843 -0.152573 -0.035016 0.077455 -0.033724 -0.064270 0.030864 0.110241 0.073916 0.144805 0.095526 -0.115635 -0.154911 -0.001020 0.037451 0.166130 0.036020 -0.036296 -0.134193 -0.049296 0.152117 -0.140983 0.115687 0.031177 0.033018 0.154422 -0.013282 0.159298 -0.013303 0.069865 0.015085 0.088223 -0.036227 0.043713 0.023766 -0.155708 0.130093 0.113635 0.112863 -0.126434 -0.060547 -0.032541 -0.134539 -0.157392 0.051423 -0.150664 0.030276 -0.083044 -0.041474 0.136790 0.094431 -0.138352 -0.090796 0.133312 -0.063714 0.012677 0.100110 0.088962 0.080326 0.162943 0.054007 -0.030594 0.147468 -0.076104
0.148290 -0.046866 0.157417 0.138255 -0.075787 0.033256 0.161446 -0.011346 0.040815 0.135302 -0.129214 0.074892 0.156858 0.072887 0.044154 0.013732 0.129477 -0.110744 -0.150835 0.001552 0.134104 -0.101182 0.037615 0.074678 -0.090013 0.099024 0.000030 0.136655 0.153013 -0.100972 -0.139748 0.113223 -0.044321 -0.077879 0.023780 0.152372 -0.107025 0.081599 0.030481 -0.011463 0.135384 -0.064877 0.026753 -0.058044 -0.129169 -0.041071 0.051633 0.105071 -0.126384 0.064859 0.016672 -0.133991 -0.013805 -0.046672 0.055379 0.000063 0.164132 0.098053 0.004811 -0.118746 -0.066226 -0.066194 -0.073536 -0.090001 0.079760 -0.022705 -0.057094 -0.134891 -0.166521 -0.034589 -0.100028 0.051586 -0.138628 0.020312 0.149259 0.115712 -0.160012 0.129101 -0.154675 -0.116728 -0.063889 0.033826 0.138640 0.088120
-0.099541 0.148585 0.002183 -0.031245 0.113223 0.013828 0.115945 -0.121381 0.142921 0.106791 0.098088 0.137541 0.077192 0.098712 -0.088086 0.020470 0.010269 0.023275 0.083191 0.074442 -0.135298 -0.029483 -0.002921 0.018481 -0.108560 0.029220 0.102229 0.001541 -0.125531 0.141879 0.059333 -0.101449 0.150857 0.162931 -0.066061 0.105069 0.026912 -0.028474 -0.053149 0.164834 0.124740 -0.035161 0.089494 -0.079015 0.077402 0.032567 0.134917 -0.066139 0.040443 -0.031914 0.049154 0.107565 -0.014907 -0.021218 -0.008281 0.018438 0.041485 0.042349 -0.137341 -0.125560 -0.127616 0.055844 0.089633 -0.108119 0.035676 0.032170 0.071569 0.099413 0.098171 0.073865 0.004925 0.026244 -0.136803 -0.106331 -0.085618 0.065532 0.142156 -0.107211 -0.046418 0.039808 0.056988 -0.092730 -0.067833 -0.006783
0.018391 0.169007 -0.170935 -0.055967 0.021773 -0.143242 -0.050454 0.134750 -0.031706 -0.098361 0.044728 -0.022642 -0.133927 -0.004079 0.104418 -0.113276 -0.018696 0.079122 -0.108979 0.165298 -0.003021 0.121672 0.160490 -0.051656 0.035891 -0.064202 -0.118323 0.094870 -0.039113 0.053395 -0.108772 0.117305 -0.163693 -0.102139 0.160218 -0.126748 -0.127639 0.126983 0.064700 -0.053631 -0.001194 -0.030180 0.152570 -0.058306 -0.097168 -0.007461 -0.101968 -0.085530 -0.132105 -0.157400 -0.130058 0.064036 0.139844 -0.076029 -0.086731 0.069543 -0.035443 -0.153108 0.114265 0.146092 -0.035526 -0.038480 0.050391 -0.069501 -0.076175 -0.085687 -0.154429 -0.030157 0.019822 0.139644 -0.065545 -0.102271 0.089323 -0.104826 -0.160519 0.011427 0.138944 0.143928 0.110151 0.092268 0.040976 -0.057745 -0.110116 -0.012917
-0.080498 0.135640 0.083784 -0.005080 -0.105261 -0.065823 0.139078 -0.100784 -0.014936 0.049521 0.027691 -0.074682 -0.133736 -0.024931 -0.035890 -0.153065 0.076173 0.149231 -0.140994 0.158372 0.108096 0.036628 -0.139477 0.048896 -0.067059 -0.050798 -0.161457 0.135552 -0.163543 -0.102123 0.171233 -0.142503 -0.149656 -0.086252 -0.131671 0.007356 -0.036704 -0.116815 -0.105975 -0.134910 -0.099918 -0.128688 0.057586 -0.155410 -0.046547 0.019576 0.054752 -0.101533 0.002336 -0.011984 0.102326 -0.043723 0.025214 0.018022 -0.078423 0.067436 -0.042200 0.150452 0.061928 -0.115181 0.151863 0.137071 0.003842 -0.141402 0.034601 0.040087 -0.036041 -0.096019 -0.074066 -0.166191 0.153937 -0.163200 -0.077833 0.153771 -0.014264 -0.038538 -0.080114 -0.056895 0.046640 0.076235 -0.144617 -0.031992 0.165120 0.146070
0.010354 0.152227 -0.124359 -0.042498 0.088848 -0.143633 0.008542 -0.165825 0.022270 -0.045321 0.043539 0.099359 0.058504 0.049918 0.062975 -0.017404 0.087802 0.023757 0.006453 -0.070956 0.099391 0.127938 0.086752 0.117027 0.154577 -0.031509 -0.047088 -0.062742 0.089725 0.076789 -0.013014 0.055751 0.043973 0.065001 0.026453 -0.001596 -0.028369 0.005290 0.015343 -0.014040 -0.056757 0.153653 -0.163547 0.062534 -0.115162 0.124210 0.017161 0.065359 -0.046585 -0.145017 0.123560 0.165270 -0.090518 0.119773 0.020098 0.064633 -0.056994 -0.079927 -0.086615 -0.150949 0.125859 -0.056440 -0.016238 0.084870 0.163952 0.017560 0.047172 -0.169040 -0.161309 -0.093323 -0.125235 -0.129105 0.027099 0.067148 -0.093265 0.020125 0.142360 -0.064082 -0.050777 -0.052301 0.117809 -0.160654 0.015830 -0.149802
0.092545 -0.166408 0.113366 -0.163380 0.136722 -0.117769 -0.028293 -0.065259 -0.081411 0.154729 -0.160011 0.082335 -0.134758 -0.014977 -0.128261 0.167516 -0.165959 0.106366 -0.149434 0.087123 0.110940 -0.077887 0.026478 -0.098862 0.165103 -0.028107 0.063256 -0.151743 -0.027307 0.137892 -0.007726 0.120797 0.039141 -0.122723 0.048176 -0.093797 -0.115965 0.132098 -0.147788 -0.006522 -0.054209 0.001060 0.156129 0.034115 0.104994 0.160343 -0.129220 -0.143893 0.141465 0.074912 -0.003409 -0.107315 0.153202 0.154965 -0.024397 0.008829 -0.146346 -0.093272 0.048711 0.146612 -0.068635 -0.168009 -0.115256 0.064834 0.120672 0.055944 -0.122099 -0.032272 0.132070 0.090100 -0.084684 -0.115452 -0.040022 0.107090 -0.140691 -0.058202 0.135386 -0.166659 -0.009099 0.061170 0.090549 0.083646 -0.062841 0.113810
0.058349 -0.145039 0.124572 0.092967 0.136103 -0.127594 -0.055929 0.125310 -0.099231 -0.156119 -0.080447 -0.051844 -0.096766 0.084724 0.157083 -0.075576 0.005131 0.168691 -0.107789 -0.068546 -0.098008 -0.032578 -0.129693 -0.101341 0.043932 0.039274 -0.101995 0.018188 0.051017 -0.114839 0.089866 -0.108334 0.085522 -0.041452 0.015459 0.139092 -0.027100 0.052597 0.021328 -0.017751 0.074837 0.066407 -0.094998 0.070968 -0.084880 -0.131414 -0.114945 0.084124 0.059396 -0.159707 0.166564 -0.070666 0.087565 -0.112363 -0.062734 -0.099291 0.168617 0.156298 0.118218 0.125382 0.006113 0.015923 -0.111477 0.050540 0.149552 0.082877 -0.077763 -0.162442 -0.041527 -0.160772 0.161281 0.050418 -0.078601 -0.111507 0.015951 0.000968 -0.037706 0.150499 -0.108051 0.082072 0.012914 -0.064749 0.069061 0.038985
-0.043866 0.100797 0.009644 -0.138749 0.052810 0.138514 -0.028522 -0.171196 -0.168011 0.076525 0.166505 -0.085260 -0.139404 0.125690 -0.149455 0.075923 -0.105097 -0.131069 -0.002964 -0.150245 -0.115592 -0.038711 -0.093703 0.097318 -0.127192 0.162182 0.081679 0.022474 -0.129507 0.150998 0.060126 0.066183 -0.161691 -0.171127 -0.090300 -0.072397 -0.093475 -0.006964 0.116419 -0.069325 -0.033506 -0.152436 -0.162554 0.139082 -0.141305 0.043580 0.134398 -0.128684 0.149185 0.109940 0.141785 0.163950 -0.052397 0.126363 -0.145454 -0.099484 0.029340 -0.001596 -0.080784 0.058953 -0.037175 0.096340 -0.043005 0.093765 0.139636 0.105441 -0.007488 -0.106212 0.055117 -0.008937 0.045647 -0.141360 -0.084844 0.021380 0.164515 0.169663 -0.100660 -0.171047 0.119373 0.124340 0.059535 0.144742 0.086882 0.095664
-0.003623 -0.124388 -0.154606 0.091766 0.037453 -0.019134 -0.019751 0.025041 0.022311 -0.037024 -0.037451 0.154600 0.110317 -0.125459 0.077976 -0.065419 -0.095980 -0.000245 -0.017196 -0.040004 0.112834 0.145765 0.003245 0.064665 0.038211 0.105438 -0.088299 -0.065134 -0.146329 0.166132 0.166878 0.009071 -0.168481 0.003256 0.126455 -0.117945 -0.148746 -0.002258 0.023508 0.116290 -0.094583 -0.104818 0.124610 -0.011739 0.090980 0.101636 -0.002353 -0.149355 0.169557 0.155078 -0.077348 -0.102849 -0.128140 -0.055496 -0.055821 0.050242 -0.113438 -0.102592 0.025035 0.022223 -0.054796 0.076550 0.033266 0.009295 0.083862 -0.036723 0.001374 0.153946 -0.116992 0.127653 -0.020279 -0.003862 0.037569 0.145662 0.014116 0.152959 0.116403 -0.147307 0.061184 -0.032646 -0.011696 -0.116900 0.076056 0.022566
0.044563 -0.127653 0.111461 0.046920 0.001254 -0.008509 0.139255 -0.108058 0.137342 -0.082476 -0.127615 0.143262 0.148967 0.162662 0.093005 -0.046233 0.036608 -0.063455 -0.125262 -0.006953 0.037904 0.076453 -0.141939 -0.094654 -0.123525 0.019474 0.170290 -0.056441 -0.095398 0.007815 0.099316 0.127037 -0.053033 0.151525 0.135296 -0.053017 -0.018240 0.069063 0.150995 -0.024157 -0.154595 0.030376 -0.017665 -0.158938 0.051061 0.033901 0.051418 -0.112361 0.053160 -0.090173 -0.118483 0.123633 0.146956 0.115769 0.121423 -0.055213 0.142145 0.150080 0.058783 0.066332 -0.059360 -0.069252 -0.115636 0.103381 0.085219 0.168340 0.160211 0.093911 0.061832 -0.159311 0.149773 -0.096825 -0.013485 0.116028 -0.066469 -0.019490 0.113335 -0.027743 0.032209 -0.137103 -0.154546 0.089579 -0.165871 0.012862
0.031633 0.121154 -0.165076 -0.064786 0.055546 -0.111341 -0.039116 -0.137456 0.160470 0.161370 0.119248 -0.170787 0.112465 0.046164 -0.164709 0.034890 0.127669 0.171015 0.167241 0.085657 0.004073 -0.145280 -0.153705 -0.105459 0.001808 0.109042 -0.035106 -0.160913 -0.024029 0.004948 -0.091239 -0.070041 -0.163944 0.007933 0.156134 0.131706 -0.091008 -0.065056 -0.050392 -0.152810 -0.091303 0.051921 -0.132313 -0.010073 0.013729 0.067125 0.039964 0.116436 -0.118051 0.104543 -0.042610 0.059280 -0.012147 -0.141424 0.135715 -0.054409 0.125151 -0.085764 -0.162714 0.112662 0.061952 -0.036521 -0.018428 -0.047637 0.034337 0.014368 0.068999 -0.041764 0.045219 0.060246 0.005126 0.010255 -0.115472 0.083393 0.165823 -0.122372 0.116789 -0.037758 -0.132513 0.083257 0.099456 -0.115830 0.110048 -0.035294
-0.084335 -0.123525 -0.154909 0.072147 -0.084118 -0.091100 0.072132 -0.057368 -0.086014 -0.030651 0.101962 -0.018385 0.105317 0.000968 -0.068783 -0.029961 -0.128516 0.035244 -0.120331 -0.124692 0.104759 0.042399 -0.143746 0.055361 0.087001 0.045431 -0.074467 0.156975 0.021734 -0.167827 0.143610 0.119922 -0.108125 0.030847 0.065992 -0.125104 0.033674 0.117525 0.106583 -0.143864 -0.088856 0.085118 0.015379 0.111867 -0.018222 -0.078879 0.079177 0.139458 0.078194 0.050103 -0.097700 0.072587 -0.035207 -0.155498 -0.123752 -0.166421 -0.058035 -0.085783 -0.165409 -0.139018 -0.107581 0.141748 0.157169 -0.139046 -0.102079 0.142885 -0.025626 -0.117924 0.063122 0.132675 -0.086867 -0.029366 0.120019 0.008774 -0.090073 -0.115631 0.001271 -0.077400 0.161463 0.125820 0.098501 0.102108 0.169554 -0.012247
0.096809 0.010379 -0.140821 -0.009429 0.029619 -0.122071 -0.102503 0.043033 -0.157125 -0.098909 0.104829 0.003186 0.031084 0.033005 -0.065869 0.026978 -0.069209 0.106805 -0.133352 -0.089449 0.039029 -0.055311 0.078716 -0.073089 -0.071426 -0.168249 0.043510 -0.010156 0.084556 0.122346 -0.165405 0.090065 0.073373 -0.042138 0.109328 -0.007748 0.124378 -0.116775 0.145449 0.076586 -0.122879 -0.023065 -0.145217 -0.092964 0.167939 -0.130298 -0.057631 0.017013 -0.061116 -0.107529 0.078138 -0.007335 -0.083155 -0.069706 0.154696 0.039758 -0.090873 0.019278 0.163721 0.125860 -0.051828 -0.005726 0.024007 -0.034747 0.057138 0.072565 -0.111193 0.101306 0.029647 0.093560 0.021702 0.142495 -0.094405 0.107547 -0.088617 -0.126156 -0.087496 -0.017878 0.003990 -0.037549 0.095763 -0.117546 0.012204 -0.015324
0.120415 -0.147972 -0.059671 0.093464 0.088285 -0.096997 -0.094892 -0.100969 -0.158988 -0.097174 0.035569 -0.112835 -0.129750 0.057911 0.131185 -0.000275 0.019897 -0.097010 -0.165613 0.059592 -0.087848 0.167234 -0.142556 -0.063920 -0.112254 0.026168 -0.117306 -0.023800 -0.009879 -0.081330 0.008109 -0.110211 -0.167462 -0.026570 -0.113995 0.028628 -0.100492 -0.071005 -0.095982 -0.165035 -0.160013 0.165279 0.091708 -0.066860 0.027887 0.156152 0.154668 0.026463 0.145957 -0.124011 -0.040314 0.065216 0.074643 -0.009056 -0.143800 -0.106342 0.134886 0.150360 0.071800 0.103019 0.013383 0.036218 0.072152 0.121741 -0.137489 -0.032381 -0.126468 -0.038085 -0.119698 0.045249 0.147733 -0.120745 -0.027600 0.146563 -0.054540 -0.010656 0.054586 0.047930 -0.096684 -0.070964 -0.051261 -0.038983 0.113328 0.121277
-0.076003 -0.004726 -0.156965 0.033496 -0.131991 -0.106116 0.114971 0.159612 -0.164286 0.069823 0.037104 -0.112819 -0.141263 -0.045744 -0.075355 -0.098056 0.116316 -0.029071 0.145221 0.032386 -0.098160 -0.092893 -0.158557 -0.022474 0.002685 -0.156704 -0.008274 0.145909 0.036454 -0.068687 -0.166348 -0.096963 0.131215 -0.115550 0.069251 0.089706 -0.141307 -0.154156 -0.024268 0.016118 -0.128437 0.155198 0.001973 -0.162861 -0.166191 -0.141317 -0.149959 -0.068793 -0.084808 0.031686 -0.066286 0.067049 -0.106366 -0.134926 0.137385 0.040628 0.140541 0.044932 0.112896 0.142016 0.143799 0.122505 0.040324 -0.023082 -0.047765 0.157149 0.106885 0.052922 -0.100297 -0.131540 -0.006399 0.070141 -0.085442 0.068336 0.015197 0.014510 -0.170752 0.061161 0.090194 -0.088406 0.085377 -0.152090 0.099013 0.016120
0.024313 -0.130733 0.036879 0.082975 -0.024228 -0.100687 0.006230 -0.097304 -0.153970 0.015394 0.017894 0.012374 0.111113 0.059612 -0.018968 -0.158113 0.036610 0.117334 0.008683 0.133987 0.163855 -0.120556 -0.050122 0.165932 -0.058771 -0.050597 -0.129503 -0.052892 0.087927 -0.101619 -0.109219 0.104195 0.102582 0.119295 -0.046142 -0.112488 0.008473 -0.050308 -0.058126 -0.015751 0.094651 0.121480 -0.080533 0.164921 0.163882 0.154483 -0.027791 -0.140328 0.091002 0.141749 0.120386 0.098444 0.021016 -0.061472 -0.151815 0.158543 -0.043667 -0.142150 -0.034073 0.092080 -0.092006 0.085747 0.130919 0.155226 0.079545 -0.097259 0.061049 -0.003414 -0.007371 0.148804 -0.074117 0.148239 0.139090 -0.016766 0.022992 0.004613 0.049918 -0.076676 -0.056373 -0.093407 0.096480 0.150050 -0.040640 0.113136
-0.091726 -0.156990 0.088295 0.114925 -0.058436 -0.079166 -0.140886 0.135506 0.093543 -0.158380 0.034187 -0.131022 0.013278 0.161797 -0.004923 -0.111971 -0.150447 -0.035830 -0.084676 -0.097787 0.157504 0.064101 -0.015971 0.058684 -0.067640 -0.110231 -0.165203 0.073039 0.055745 0.007677 0.031513 0.081529 -0.001668 -0.082796 -0.114684 -0.046506 -0.030985 0.021727 0.113572 -0.007829 -0.055499 0.104855 0.125035 -0.150235 0.039851 -0.117902 -0.081522 -0.127356 0.081829 0.136963 0.037346 -0.020815 0.093562 -0.100687 -0.122411 0.010957 -0.025419 0.078137 0.017962 -0.008714 0.003442 -0.003921 -0.015847 -0.059919 0.136453 -0.095188 0.080578 -0.015680 0.133687 -0.164053 -0.007341 0.149176 0.152776 -0.023003 0.004556 0.124285 0.163985 0.105195 -0.107219 0.150799 -0.003598 -0.031705 -0.064862 -0.127449
-0.100079 0.054244 -0.035903 0.060760 -0.111461 0.052783 0.126173 0.137757 -0.162615 0.151238 -0.025031 -0.010273 0.007374 0.112761 0.103710 0.036595 0.081014 0.054022 -0.035201 0.002262 0.128801 -0.132551 -0.024951 -0.114335 -0.087661 0.054776 0.082806 0.052513 -0.055537 -0.127265 -0.008436 -0.011605 -0.027505 0.164030 -0.008502 -0.063894 -0.076435 -0.059449 -0.049977 0.048286 -0.080214 -0.148422 -0.012187 0.152458 0.135345 0.078804 -0.040925 -0.104077 0.083805 -0.102412 0.097651 0.078548 0.135661 -0.157936 0.085835 -0.081022 0.039238 -0.160026 -0.170069 0.099354 0.007486 0.059558 -0.162319 0.108830 0.066521 0.144056 0.165227 0.089280 0.092925 0.076716 -0.138430 0.050816 -0.007597 -0.045310 -0.042751 0.017899 0.016848 0.039905 -0.015148 0.063206 0.137760 -0.034660 0.077161 -0.114843
-0.155792 -0.005639 -0.127036 0.115709 0.046650 -0.093419 -0.001185 0.015452 0.076331 0.095853 -0.160528 0.008540 -0.126167 -0.001153 0.103550 0.118173 -0.066649 0.116731 0.048376 -0.001068 0.134906 -0.018224 -0.107296 0.026015 -0.109149 0.044729 0.059628 -0.088869 -0.147585 0.144959 -0.062923 0.169206 -0.015614 0.087238 0.042213 0.085656 0.072382 0.075464 -0.094800 -0.037266 -0.141451 -0.006169 0.158470 0.097007 -0.155221 0.027735 0.042140 -0.144551 -0.101583 -0.048008 -0.065121 -0.152771 -0.032229 -0.108905 -0.099762 0.049393 0.063698 0.112871 0.039551 -0.147408 -0.064165 -0.168345 0.033386 0.151654 0.163334 -0.008409 -0.047286 0.073041 0.100560 0.024901 0.057030 -0.146742 -0.074918 0.072759 -0.048086 -0.141189 -0.094637 0.070358 0.149648 -0.077850 0.140529 -0.010973 0.093613 0.047637
-0.032825 -0.113148 0.146403 0.055766 -0.143516 0.137463 -0.005317 -0.051053 0.077680 0.167046 0.031973 0.134309 -0.166624 0.088965 -0.050645 0.171246 -0.145520 0.141651 -0.019449 0.064451 -0.064717 0.052899 0.162240 -0.002695 0.155872 -0.125085 -0.092137 0.115130 0.089850 0.095538 -0.126530 -0.171210 -0.101257 -0.119812 -0.106033 -0.039001 0.092130 -0.125797 0.116390 -0.169470 -0.124588 0.037906 0.053846 -0.127511 -0.148273 -0.115662 -0.116043 0.030494 -0.064770 -0.049896 0.169268 -0.157477 -0.143385 0.087556 -0.138905 -0.067135 -0.110672 -0.029931 -0.068562 -0.091230 -0.134345 -0.046862 -0.002967 -0.051363 0.001649 -0.003859 0.136501 0.068735 -0.001066 -0.121088 -0.138011 -0.034370 -0.000305 0.055281 0.133686 0.141303 0.035837 0.007460 0.033131 0.145890 -0.071051 -0.051800 0.120847 0.103468
0.114079 0.042936 0.131780 0.127768 -0.143021 -0.034889 0.009739 0.054645 0.041546 -0.120295 0.047172 -0.097089 -0.105418 -0.163668 0.112722 0.086515 0.077782 0.032170 -0.158543 -0.153769 0.163351 -0.074816 -0.018938 0.050327 0.140324 0.045302 -0.118793 0.150098 -0.166423 -0.134919 -0.169262 0.007639 -0.120660 -0.167681 -0.020599 -0.066128 -0.157081 -0.113172 -0.037545 0.097455 0.100657 0.104987 -0.030291 0.111403 0.024354 -0.059735 0.141039 -0.070252 0.113905 0.077365 0.014803 0.025532 -0.101118 0.040105 0.013215 0.148682 -0.060380 -0.010198 0.101889 0.034754 -0.066761 -0.051700 0.140314 0.069030 0.124346 -0.130302 0.007513 0.043294 0.017419 -0.135459 0.117173 0.039514 -0.040725 0.080379 -0.160823 0.108499 -0.127135 0.008760 0.088602 -0.031387 -0.151218 -0.102737 0.049564 0.085265
-0.154761 -0.145338 0.051217 0.050462 0.093023 -0.153644 0.110970 -0.070856 -0.003373 0.144445 -0.035233 0.002217 -0.033914 -0.123239 0.104181 -0.025964 -0.024169 -0.109965 -0.049445 -0.051862 0.115215 0.066380 -0.077662 -0.012819 0.029317 0.079052 0.056663 0.155438 -0.009667 -0.009676 -0.100714 -0.077214 0.061420 -0.058569 -0.166486 -0.132837 0.157082 0.093396 -0.149611 0.086278 0.002611 -0.054979 0.076098 -0.100267 0.110301 0.165833 -0.112673 0.024963 0.061796 0.163508 -0.011616 0.119363 -0.111237 -0.000297 0.090074 -0.051802 0.112309 -0.155513 -0.076822 0.166471 0.063621 0.026507 -0.093708 0.092148 -0.143794 -0.006421 0.083601 -0.148566 0.160295 0.128205 -0.092685 -0.089617 0.007298 -0.037962 0.040024 -0.060710 -0.136871 -0.142687 0.081704 0.130972 0.078004 -0.031426 -0.024287 0.055134
0.046198 -0.004127 -0.114527 0.140472 -0.140706 0.092848 -0.036007 -0.094359 0.063988 -0.070864 0.116822 0.150059 0.026217 0.131801 -0.134598 0.100486 -0.008679 -0.084214 0.086346 -0.057425 -0.081446 0.111703 0.167861 0.012549 0.051789 -0.111801 -0.058365 -0.033958 0.109039 -0.167373 0.160323 -0.154319 -0.169496 0.058212 -0.154180 0.026024 0.055279 -0.057837 -0.081958 0.158931 -0.121478 0.021396 -0.072199 0.000121 0.066338 -0.130402 0.096975 0.140437 -0.150018 0.051751 -0.141406 0.065728 -0.145209 -0.071762 0.110640 -0.095675 0.076412 -0.068301 0.023248 0.020540 0.088220 0.146527 -0.084595 -0.157265 -0.056993 -0.153707 -0.075321 -0.161681 -0.053390 -0.096181 0.034674 -0.000436 0.027900 0.076200 -0.030447 0.130867 -0.025610 0.001831 0.043259 -0.043710 -0.000116 -0.016834 0.130792 -0.101490
0.111787 -0.102968 -0.007099 0.014983 0.048881 -0.134002 0.129390 -0.130090 0.150245 -0.139021 0.100468 -0.092068 -0.037252 0.056531 0.147645 0.069038 -0.084001 -0.140831 -0.078029 0.076783 -0.103974 -0.078594 -0.011415 0.077779 -0.018458 -0.026405 -0.091758 0.140400 0.154282 0.021306 -0.157860 -0.096436 -0.077119 0.041926 -0.062554 0.122219 -0.118983 0.073753 -0.145806 -0.053567 -0.086246 0.038902 -0.141011 0.100493 0.109444 0.067870 0.126399 0.121496 0.059531 -0.035838 0.037758 -0.158160 -0.149329 0.043481 0.057025 0.137811 -0.074408 0.162135 -0.040252 -0.058949 -0.042908 0.107568 0.125958 0.010262 -0.048952 0.080235 0.009283 -0.146549 -0.000224 -0.120095 0.045600 -0.155745 0.063137 0.009925 -0.080544 -0.143641 0.148016 0.044323 0.091358 0.053176 -0.015954 0.001199 0.152360 -0.128544
-0.156303 0.059053 0.053943 -0.134340 -0.107682 -0.151161 0.078900 0.078033 0.115590 0.041622 -0.119108 0.098904 0.038401 -0.099192 -0.062706 -0.086092 -0.055747 0.010723 -0.131850 0.009206 0.129355 0.012694 -0.106843 -0.083474 0.095587 0.004066 0.039816 -0.092450 -0.025839 0.039444 -0.088165 0.038239 0.051959 0.160065 0.131256 -0.113672 0.022991 0.109468 -0.035773 -0.092469 0.012581 -0.070989 -0.025866 -0.148691 0.035523 0.134026 -0.145356 -0.053391 0.122169 0.022512 0.017258 0.007487 0.119080 -0.099742 -0.004147 -0.007225 -0.099799 0.140959 0.033873 -0.014225 0.045427 0.116389 0.088222 -0.152765 0.068947 0.013100 0.143852 0.023810 -0.002917 -0.119243 0.102183 0.080352 0.031884 0.032541 -0.156162 -0.132445 -0.005787 0.059896 -0.109645 0.003179 -0.023800 0.003693 -0.072804 0.163539
0.138810 0.061372 -0.098202 0.165354 -0.038624 -0.106334 0.120923 0.107736 0.131296 0.066374 0.154043 -0.129920 0.101577 0.159162 0.067856 0.142896 -0.146562 -0.004408 -0.113249 -0.164139 0.151622 -0.167721 -0.103115 -0.104228 0.077217 0.006337 0.005297 0.051851 0.008085 0.044335 -0.124431 0.092367 0.082160 -0.105565 -0.109963 -0.121911 0.142221 -0.119826 0.002163 -0.065715 0.010320 0.080905 0.098024 0.153284 0.161573 0.012615 -0.117828 -0.154477 -0.075330 -0.144838 -0.029456 0.060261 0.102607 -0.051478 -0.143008 0.025087 0.153358 0.092304 0.024595 -0.151227 0.065611 0.033252 0.135707 -0.116533 0.127373 0.100041 0.019186 0.009994 0.077771 0.049706 -0.020170 -0.103704 -0.088758 -0.028706 -0.069032 0.002156 0.104091 -0.012038 -0.037335 -0.037785 -0.096844 -0.145133 -0.108811 -0.054648
-0.054795 0.114312 -0.021960 0.161043 0.109474 -0.035537 -0.097898 -0.077763 -0.030840 0.143109 0.071374 0.150721 -0.081334 0.108304 0.018333 0.159777 0.013336 -0.116783 -0.165281 0.042095 0.099247 0.098045 -0.068967 -0.101438 0.010539 0.043110 0.001282 -0.070396 -0.054367 0.122585 0.136372 0.070763 -0.154537 -0.084670 -0.045888 -0.104299 0.170810 0.136349 -0.130940 -0.117577 0.049413 -0.083321 -0.138975 0.127238 -0.126406 0.019570 0.097285 -0.074460 0.101396 0.037035 0.141861 0.130567 0.155701 0.015693 -0.114905 -0.079118 -0.128861 -0.074383 0.146355 0.057955 -0.153743 0.113077 -0.133139 -0.159542 0.042523 -0.129732 -0.142841 -0.128107 0.166724 -0.153578 0.019289 0.164596 -0.049792 -0.155326 -0.167076 0.008856 0.041371 0.076817 -0.158035 -0.047959 -0.021632 -0.052649 -0.092561 0.032835
0.030215 0.030543 0.150926 -0.060947 -0.079763 0.117771 -0.119661 0.123609 0.168417 -0.143661 -0.059545 0.159264 0.167845 -0.136404 -0.136480 -0.142914 0.133945 0.089320 0.107065 0.047338 0.147709 -0.080577 -0.025643 0.100398 -0.104303 -0.115904 0.067712 -0.141419 0.113909 0.120997 -0.132158 -0.088992 -0.070043 -0.086877 0.045594 0.003529 0.161573 0.124094 0.140607 0.095199 0.061691 0.080752 -0.105850 0.116224 -0.006482 -0.092654 0.105902 -0.055144 -0.033588 0.082447 0.140699 0.123049 0.051393 -0.072447 -0.144599 -0.056088 -0.020282 -0.139434 0.115790 -0.150425 0.024674 0.042089 -0.117095 -0.027992 0.063430 -0.101191 0.088285 -0.003015 0.083489 0.102798 -0.170484 -0.037688 0.036294 0.036332 -0.059245 -0.014176 0.155943 -0.019780 -0.121553 -0.010632 -0.143450 0.057822 0.055175 0.023872
0.043982 0.025518 0.153232 0.023913 0.029153 -0.066722 -0.168059 0.075320 0.163791 -0.047635 0.141954 0.055444 -0.092292 -0.047532 0.046095 -0.116870 -0.069580 -0.007128 0.067378 0.046719 0.080335 -0.035957 0.073284 -0.137157 0.087988 -0.076922 -0.034434 -0.122496 -0.069346 -0.021124 -0.123975 0.132411 0.013704 0.126844 0.022200 0.009648 -0.115741 -0.041592 -0.086112 -0.098604 0.006012 -0.014897 -0.126504 -0.071874 0.109582 -0.144521 -0.163240 0.046933 0.051890 -0.044517 0.042857 -0.078064 0.117707 0.012012 -0.035991 0.125668 0.040525 -0.069407 0.155781 0.031538 -0.091440 0.163137 -0.071234 -0.060369 -0.125635 -0.120937 0.128426 -0.157476 -0.017725 0.059585 0.024164 0.075456 -0.123116 0.016056 0.091058 0.169425 -0.061075 0.145552 -0.033871 -0.111963 -0.132124 -0.129247 0.070206 0.087324
0.117132 0.083039 0.166548 0.095841 -0.157009 0.145932 -0.030256 0.036037 -0.017455 0.072190 -0.152128 -0.034069 0.131942 -0.159959 -0.048339 0.089423 0.100777 -0.081444 0.086186 -0.160436 0.169591 -0.050269 -0.072251 0.029990 0.047995 0.108424 0.080250 0.075243 0.073865 0.112460 -0.042649 0.023420 0.120952 -0.092836 -0.079587 -0.111690 0.016125 -0.085415 0.137236 -0.069403 -0.067321 -0.138658 -0.083800 -0.156055 0.156999 0.115824 -0.064388 -0.141462 0.019132 0.090431 -0.127310 0.136709 -0.158543 -0.121405 0.101367 -0.100167 0.138304 -0.004887 0.161533 -0.106542 0.146629 0.065363 0.098493 -0.153246 0.053340 -0.171123 0.033429 -0.137180 -0.160120 -0.053692 0.122836 -0.040867 -0.059066 -0.137595 -0.142976 -0.103311 -0.005340 0.126393 -0.001333 0.127731 -0.013600 -0.056074 0.073635 0.078115
0.075081 -0.002628 -0.006331 -0.069262 -0.068732 -0.101995 -0.046079 0.042185 -0.004938 -0.115917 -0.046797 -0.115812 0.102959 -0.159075 0.164477 0.150372 -0.160587 -0.063625 0.085328 0.093641 -0.142514 -0.025900 -0.087163 -0.003281 -0.142012 0.103146 -0.169991 -0.024467 -0.016976 0.036886 0.042624 0.095766 -0.092699 0.107443 0.042753 0.086653 0.150811 -0.050121 0.099203 0.017120 0.033319 0.032800 0.017311 0.122734 0.162854 -0.097969 -0.145642 -0.063325 -0.163837 -0.040113 -0.005598 0.171054 -0.014016 0.085852 -0.117131 -0.108231 0.126806 -0.085812 0.156101 0.013467 0.113794 -0.000181 0.012413 0.048933 -0.169494 0.150951 -0.112375 0.139782 -0.058994 -0.041161 -0.048911 -0.031085 -0.089984 -0.151471 0.059581 -0.051079 -0.139177 -0.011224 0.066882 -0.103251 -0.047031 0.071400 -0.018249 -0.110990
-0.162622 -0.039514 0.129442 0.062804 0.061198 -0.046843 -0.131781 0.087809 0.123485 -0.067276 -0.106843 0.049557 0.049866 -0.154778 0.060255 0.001755 -0.029559 0.044255 -0.092692 0.136821 0.153065 0.048498 0.071824 -0.127677 -0.086506 -0.069027 0.029714 -0.055686 -0.109279 0.067874 -0.099613 -0.158255 -0.011432 -0.123847 -0.077750 -0.123109 -0.157053 -0.079933 0.022570 0.049625 0.061345 -0.063084 0.037820 0.049487 0.043017 0.156917 -0.003274 0.080774 -0.058535 -0.027855 0.044116 0.127412 -0.047667 -0.015148 -0.057361 0.124771 -0.156527 -0.051449 0.146643 0.084127 0.112336 -0.151044 0.112349 0.091095 0.153253 -0.058721 0.140250 -0.059246 -0.109932 -0.102244 -0.007999 0.141404 -0.070012 -0.020490 0.145537 0.147780 -0.108818 -0.043397 0.120364 -0.009270 0.042163 -0.082467 0.096157 0.160120
-0.086927 -0.128919 0.024566 0.037686 -0.083349 -0.010394 0.120985 0.020928 0.125038 0.021643 0.095522 0.065198 0.029611 -0.110408 -0.091165 0.017908 -0.136738 -0.052714 -0.131568 0.098270 -0.149390 0.015441 0.166836 -0.044339 -0.090238 0.080409 0.045423 0.089735 -0.015601 0.040984 0.000604 0.029284 0.055890 0.077042 0.154023 -0.086799 -0.103023 0.087130 -0.081178 0.063853 -0.097668 -0.015657 -0.083054 0.057575 0.004872 -0.168460 -0.084534 0.071526 0.147010 0.165441 0.142106 0.161721 -0.012921 -0.095332 0.107145 -0.146984 0.040318 -0.168607 0.140805 0.110478 -0.152963 0.142088 0.011100 0.128964 0.107513 0.166227 0.089000 -0.079089 -0.006239 -0.037454 0.038420 -0.001734 -0.014326 -0.168956 -0.088589 -0.068802 0.023537 -0.074086 -0.157031 0.087908 0.075440 -0.052439 -0.131812 0.023738
-0.106778 -0.073996 0.102843 0.145927 0.153011 0.148030 0.059692 -0.141464 0.068675 -0.078623 -0.037667 0.061902 0.166370 0.128890 0.034134 -0.002307 -0.137557 -0.116365 -0.030837 -0.089051 -0.167357 -0.040330 -0.049260 -0.018006 0.080253 -0.146909 0.040991 -0.017623 -0.153725 -0.064258 0.149732 0.045480 0.121506 -0.153070 0.014508 0.066761 0.119838 0.122580 0.118932 0.019140 0.039346 -0.055932 -0.031965 -0.120181 0.143045 -0.005530 -0.004138 -0.075180 -0.028104 -0.047723 -0.029356 -0.018572 -0.145526 0.098849 -0.131341 0.066458 0.151437 -0.101997 0.020811 -0.009739 0.127516 0.142303 0.100915 0.031972 -0.074263 -0.070903 -0.062987 -0.092085 0.030021 0.092378 -0.083706 -0.138068 0.091109 -0.016456 0.165867 -0.001552 -0.051245 -0.133895 -0.093043 -0.081675 0.039567 0.149771 0.021303 0.018229
0.158928 0.115196 0.146595 0.104604 0.020142 0.039158 -0.062701 0.157701 -0.025050 0.005753 -0.123089 0.113606 -0.014886 0.009545 0.084503 -0.007464 0.171189 -0.120442 -0.089148 0.115651 0.089093 -0.064953 -0.156017 0.147271 -0.085892 0.069569 -0.149109 -0.106906 -0.118736 0.147461 -0.166091 0.056898 0.107203 0.102502 -0.160786 -0.003579 0.082542 -0.078947 -0.163532 -0.084869 -0.011167 -0.065797 0.000833 0.038540 -0.164618 -0.128482 0.006420 -0.092635 -0.109223 0.034489 -0.035770 0.111007 0.078086 0.167061 -0.004394 0.081540 0.048972 -0.083000 0.161142 -0.112294 0.114834 -0.095102 0.106011 0.120753 0.138643 0.052107 0.003815 -0.131527 0.014444 0.113977 -0.124502 -0.001265 -0.052054 0.159293 0.161859 -0.072517 0.150877 0.059639 -0.005321 0.029349 0.004759 0.153240 -0.053019 0.119230
-0.116846 0.027400 -0.098505 -0.063997 -0.066483 -0.078625 0.146754 0.025356 -0.131939 0.073642 0.017138 -0.079396 -0.065110 0.161891 -0.019447 -0.039553 0.064472 0.168097 0.170816 -0.051447 -0.171167 0.049897 -0.142112 -0.033738 -0.120783 -0.028662 -0.100237 -0.042708 0.069648 0.143204 0.052997 -0.049373 0.003129 -0.037470 0.126081 -0.058580 -0.036061 -0.149750 0.131374 -0.025690 -0.150976 0.164984 -0.077568 0.084536 -0.070167 -0.064132 -0.021913 0.054919 0.084664 0.067813 -0.019842 -0.043351 -0.017059 -0.163224 0.103865 -0.144735 -0.064318 0.006679 0.022086 0.010291 -0.154670 0.132957 0.084218 -0.077334 0.141555 -0.109734 0.132587 0.023994 0.141727 0.140154 -0.138516 0.128662 -0.074227 -0.011456 0.117190 -0.121539 0.044103 0.159710 0.168912 -0.091550 0.162336 0.029727 0.092544 0.083022
0.043050 -0.124965 0.156478 -0.072141 -0.037561 0.151869 -0.066948 -0.154334 0.077708 -0.093268 0.018546 -0.034169 -0.155924 -0.038723 0.109150 0.138576 -0.114997 0.057133 -0.025056 -0.071272 0.048101 -0.005184 -0.157382 0.036523 0.049362 0.074439 -0.085529 -0.046329 -0.057832 0.075337 0.124910 0.072843 -0.018218 -0.043507 -0.096847 0.070412 0.069898 0.129120 -0.126224 0.064809 -0.008024 -0.008715 -0.124310 -0.076720 -0.028336 0.019674 0.021991 -0.129446 -0.125637 -0.115276 0.108584 0.000579 0.020339 -0.140657 0.020150 0.146164 -0.116175 0.028492 0.107959 0.090198 -0.086326 -0.142471 -0.128718 0.091146 0.087945 0.014082 -0.075792 -0.098513 -0.042178 0.040539 0.055925 0.073396 -0.150907 -0.125770 -0.027109 0.148349 -0.140898 0.128338 0.062980 0.128996 -0.121857 0.013136 -0.059977 0.018874
-0.000466 -0.076157 0.108012 0.023432 0.159153 0.164580 0.066408 0.060693 -0.095707 0.170885 -0.070580 0.059444 0.141875 -0.114877 0.146235 0.006662 0.011401 -0.166677 0.049710 -0.010033 -0.071978 0.127903 -0.166349 0.162517 0.017413 0.067591 -0.161430 0.134091 0.103010 0.088531 0.154594 -0.117705 -0.158459 -0.083575 0.160057 -0.062764 0.096775 0.095750 0.095924 -0.097091 -0.104735 -0.048511 -0.003511 -0.095483 0.137135 0.026006 0.053091 0.035229 0.049109 0.074717 -0.000076 -0.002324 0.021556 -0.001899 -0.092264 -0.053859 -0.032685 -0.080206 0.041480 -0.139759 -0.124484 0.050600 0.011795 -0.144249 0.110877 0.135528 -0.040586 0.097459 0.037002 -0.086163 -0.129124 0.082156 -0.061477 0.141136 0.010302 -0.117517 0.030441 -0.057940 -0.159084 0.127603 0.115557 -0.095793 -0.049216 0.126546
-0.114547 0.032419 0.036290 -0.081501 -0.047347 0.082931 0.154401 -0.145090 0.032392 0.036078 -0.126132 0.120742 0.046491 -0.116536 -0.025369 0.075976 -0.066683 0.034666 0.156451 0.052988 -0.134253 0.117589 0.116684 0.124668 0.150817 0.083236 -0.058957 -0.076957 -0.151777 0.061940 -0.161662 0.086802 -0.147650 0.030693 0.106109 -0.147178 -0.170492 0.086788 -0.101043 -0.146832 0.060438 0.125860 -0.028486 0.047416 -0.044138 0.050942 0.068636 0.092818 -0.001013 0.170162 -0.129755 -0.102574 0.160683 -0.108718 0.043830 0.145258 0.121209 0.120263 0.162911 0.091248 -0.000048 -0.109661 0.051883 0.095183 0.032566 0.010600 -0.166059 0.071764 -0.153771 -0.100392 -0.111055 0.118951 0.148121 0.114645 0.025532 -0.052464 -0.023583 -0.007246 -0.099378 0.128783 0.142909 -0.055829 -0.167022 0.123175
0.063817 0.117918 -0.131313 -0.121609 0.045303 0.046300 0.070159 -0.137582 0.081578 -0.134476 0.021838 -0.024635 -0.087685 -0.006584 -0.010956 0.154029 0.011412 -0.061292 -0.026258 0.058717 -0.128789 -0.155506 0.025731 0.127352 0.026672 -0.045848 -0.084445 0.053084 -0.114874 -0.073333 0.047679 0.066882 0.052584 0.042475 0.047855 0.107134 0.057600 0.045615 0.150271 -0.083343 0.039157 -0.054399 0.098117 0.057434 -0.035403 0.061032 -0.142223 -0.155612 0.018011 0.035338 -0.029194 -0.055398 -0.148813 0.170073 -0.025872 -0.070691 -0.055446 -0.023734 -0.024665 -0.110800 -0.059934 -0.139212 -0.016843 0.146533 0.146220 0.027146 0.058146 -0.087950 0.010061 0.167287 -0.075011 -0.077942 0.027543 0.060836 -0.085601 0.114631 -0.158288 0.056224 0.072716 -0.030431 0.088605 0.010225 0.125553 0.083157
-0.152171 0.171104 0.016661 -0.103501 -0.023235 0.032461 -0.160299 -0.148067 -0.115935 0.125748 0.135423 -0.135622 -0.119733 -0.042620 0.123571 -0.033092 -0.049664 -0.007309 0.085371 0.033427 0.041260 -0.134492 0.019004 0.028412 -0.070581 -0.017240 0.170463 -0.028349 -0.038849 -0.075835 -0.040148 -0.084452 0.063936 -0.002384 -0.134735 0.029401 0.037422 0.051381 0.152035 -0.146483 -0.127134 -0.137152 -0.021218 0.085396 0.054325 -0.104933 -0.006753 -0.043931 -0.057333 -0.132451 0.171081 -0.013026 -0.019522 0.081712 0.059060 -0.113458 0.093360 -0.120926 0.006440 -0.003974 0.098323 -0.168361 -0.084334 -0.020896 -0.000503 0.074025 -0.150268 -0.043983 -0.144834 -0.098872 -0.089235 0.058801 -0.053863 -0.157752 0.012918 0.136647 0.015475 -0.037005 0.085367 -0.112638 -0.071387 0.056196 0.118638 0.005980
0.142047 -0.059127 0.064499 -0.163838 0.006119 0.099924 0.082851 0.084245 -0.074623 -0.149936 0.079514 0.049523 0.072017 0.060854 -0.067066 0.078275 0.134690 0.150342 -0.090971 -0.066964 0.087939 -0.017681 0.122881 -0.096638 -0.082231 0.049362 0.014940 0.124650 -0.171423 -0.119118 -0.011219 -0.129154 -0.155946 -0.072053 -0.149114 -0.056554 -0.062090 -0.068795 -0.138417 -0.071304 0.064100 -0.166458 -0.036550 -0.139254 0.165445 0.099542 -0.017083 0.158312 0.081905 0.057422 0.102274 0.040803 -0.029019 0.123475 -0.008761 0.152344 -0.058194 0.130851 0.066358 0.159308 -0.113930 -0.117155 0.062112 0.123641 -0.167942 0.073409 0.090860 0.169528 -0.024004 -0.016009 0.108345 -0.009618 0.015074 -0.053493 0.119854 0.093191 -0.159749 -0.087855 -0.097106 -0.104356 -0.029640 -0.161840 -0.106481 0.035670
-0.052933 -0.160580 -0.169765 0.111627 -0.142869 0.025398 0.062838 0.121277 -0.156467 -0.124385 -0.092544 -0.037227 -0.106072 0.022590 0.110404 -0.142401 -0.016109 0.040037 -0.144893 0.012051 0.103700 -0.169837 -0.068721 -0.128859 0.120029 -0.060678 0.060253 -0.102737 -0.046028 -0.061293 -0.103316 -0.119305 0.123613 0.114139 -0.030497 -0.051010 -0.087678 -0.040699 0.139177 0.047696 -0.008748 -0.020236 -0.012177 -0.080869 0.160301 -0.084243 0.110781 -0.053574 -0.112097 -0.154394 0.140366 0.165231 -0.146366 0.105984 0.105246 0.077588 -0.031502 0.162529 0.043979 -0.135836 0.031534 -0.097228 0.144388 0.017662 -0.055952 0.000447 0.008602 0.098460 0.012727 -0.165560 0.157602 -0.160655 0.076628 0.150797 0.098250 -0.017940 -0.049247 -0.085916 0.095990 0.055149 0.054771 0.013265 -0.040826 0.073592
-0.049032 0.065738 0.146062 -0.156051 -0.126825 -0.002843 -0.013158 -0.145150 -0.113429 -0.093057 0.165803 0.040933 0.089057 -0.123895 0.009641 0.035188 0.058340 0.088771 -0.076616 0.074521 0.137490 -0.054430 0.107953 0.086557 -0.136502 0.113417 -0.052920 -0.155589 -0.131809 -0.137352 0.100693 -0.015549 -0.105864 -0.118160 -0.097444 0.026442 0.059982 0.032091 0.017798 -0.116389 0.133976 0.053060 0.001525 -0.022575 0.135958 -0.057615 0.111184 0.095900 -0.129238 -0.120825 0.134615 0.111538 0.046647 0.061374 0.148224 0.155924 -0.063120 0.001861 0.034534 0.148252 0.127084 -0.103688 0.024520 -0.141817 0.169860 -0.034537 -0.107263 0.038666 0.100627 -0.093801 0.007628 0.002234 0.003216 -0.081243 0.126719 -0.135473 -0.031811 -0.117355 0.127657 0.106761 0.057656 -0.077265 0.079479 0.110573
0.050563 -0.100180 -0.104238 0.125007 -0.059294 0.027157 0.054712 -0.020638 0.145549 -0.039939 -0.160654 0.143801 -0.148376 0.112935 -0.169794 -0.014500 0.062394 0.134471 0.123924 0.018691 0.146114 -0.033792 -0.015233 0.164870 -0.026725 0.098346 0.024369 -0.157570 0.141030 -0.100741 0.041345 0.053186 -0.032470 -0.033432 0.168149 0.154970 -0.145702 0.096435 -0.146191 -0.097023 0.115908 -0.009049 0.131223 0.022831 0.043103 0.024970 -0.143714 -0.137016 0.156869 0.133599 0.152732 -0.140114 0.070640 0.012591 -0.078177 -0.008759 0.069663 0.163901 0.022445 0.166558 0.019462 0.127083 -0.011560 0.103906 -0.091817 0.118304 0.059630 -0.143884 -0.021486 -0.099978 0.080160 -0.132237 0.119356 -0.015511 -0.018553 0.101607 0.116170 0.030664 0.002655 -0.047482 -0.008804 0.146145 -0.042091 0.011313
-0.071169 0.169185 0.027045 0.146944 -0.035532 -0.015488 0.008247 -0.006837 0.036464 -0.082109 0.073150 0.087708 0.108853 0.003530 0.152390 0.011859 -0.028961 0.102391 -0.045644 0.064978 0.073075 -0.059092 0.088379 0.102756 0.008516 0.080838 0.098359 0.029510 -0.020542 0.103665 -0.067334 0.077342 -0.035508 -0.118848 0.127986 0.021854 -0.159031 -0.152543 0.017395 0.047531 0.083555 0.132904 -0.137232 0.054369 -0.076722 0.085627 0.099938 -0.126722 -0.116967 0.085363 -0.121144 0.160369 -0.038490 0.034892 -0.144734 -0.014958 0.089305 0.012060 -0.160910 -0.140613 -0.060985 -0.159894 0.166650 -0.135153 -0.145618 -0.119561 -0.167045 -0.060180 -0.144181 -0.098823 -0.057515 0.082990 -0.109251 -0.143736 0.156247 -0.020639 0.084768 0.109148 0.130641 -0.030697 -0.108498 -0.101645 0.041486 -0.071513
-0.157437 0.134494 -0.001798 -0.043673 -0.014536 0.061541 -0.158105 0.085427 -0.044239 0.157095 0.010806 0.140715 -0.065512 -0.159349 -0.123840 -0.115839 -0.052149 0.153065 -0.125478 0.039830 0.016590 0.036985 0.023024 -0.013629 -0.163188 -0.144246 -0.090206 0.067790 0.130333 0.147174 -0.057378 0.048851 -0.040941 0.157362 0.049406 -0.133691 -0.021501 0.023571 0.016835 -0.081294 0.142053 0.030000 -0.149459 0.100577 -0.114025 -0.161206 -0.126611 0.041878 -0.166188 -0.001927 -0.106425 -0.066731 -0.156749 -0.102046 -0.132709 0.008568 -0.048975 -0.082057 0.137809 0.060684 0.017983 0.032415 0.090567 -0.114186 -0.088726 0.156228 -0.045270 -0.039733 -0.010838 0.005032 -0.166927 -0.059877 -0.015038 -0.072072 -0.040339 0.132163 -0.144614 -0.039970 0.150634 -0.121724 0.020359 -0.059889 0.128122 -0.169485
-0.127298 -0.002729 0.038572 -0.028279 0.119101 -0.117734 0.116674 0.170354 -0.032712 0.122586 0.095012 0.000401 -0.074122 -0.098466 -0.047028 0.063421 0.074287 -0.121660 0.131550 0.050739 0.040280 0.138212 -0.113282 -0.137075 0.146119 -0.081286 -0.023402 0.007729 0.045726 0.161606 0.032788 0.063491 0.167343 0.089221 -0.133433 -0.041981 0.030361 0.119255 -0.163038 -0.160405 0.111271 -0.037930 0.043079 -0.159738 -0.154458 -0.018570 0.162545 -0.087262 -0.112718 0.063622 -0.163875 -0.094048 -0.133707 -0.063127 0.003516 0.151486 -0.151425 0.161440 -0.068174 -0.053287 0.123096 -0.099408 -0.117792 0.044753 0.034998 0.069218 0.158805 -0.054852 -0.022597 -0.037883 0.135092 -0.155921 0.009079 -0.154219 -0.069017 0.161552 0.163516 0.121829 0.095827 0.152266 0.127584 0.155433 -0.119617 0.156268
0.026515 -0.124425 -0.020560 -0.030760 -0.062320 -0.041402 -0.108292 -0.068243 0.034725 0.048105 0.132339 0.099021 -0.097292 0.099849 0.115098 0.145037 0.043488 0.009121 0.043172 0.023758 0.049797 0.161880 -0.104552 0.118087 0.170311 -0.144930 -0.103009 0.043101 -0.130261 -0.035276 0.155025 0.169656 -0.084014 0.053497 -0.026804 -0.018311 0.034190 -0.085859 0.114346 -0.023017 0.051623 0.023703 0.061221 -0.094186 0.124137 0.061950 0.134336 -0.020327 0.078196 0.036248 0.048559 0.155165 0.161468 0.070248 0.094318 -0.101742 -0.045456 0.028601 -0.021718 -0.170098 -0.153698 -0.091027 0.137841 0.057285 0.091419 0.004958 0.046887 -0.026458 0.019759 0.135695 -0.112808 0.066019 0.115345 0.085511 -0.107630 0.152098 -0.147410 -0.024376 0.002830 -0.104530 -0.031195 0.025362 -0.071137 -0.026681
0.137379 -0.004809 0.039221 0.139423 0.084653 0.089001 0.019148 0.097707 -0.006587 -0.094396 0.035118 0.166651 0.069854 -0.110905 0.091285 0.152346 -0.158719 -0.133865 0.151503 0.002210 0.091228 -0.152648 -0.015400 0.037297 -0.067703 0.164008 0.119423 -0.058054 0.037220 -0.082956 0.122317 0.126363 -0.103475 0.159865 -0.080738 0.043710 0.132294 -0.049254 -0.162645 0.126240 -0.007209 0.001517 0.094660 -0.141366 0.041614 0.123011 -0.094015 -0.166781 0.000441 0.169359 0.045460 -0.115300 0.018220 -0.079301 0.128642 -0.137957 0.099724 0.030050 0.031097 -0.108854 0.002212 -0.051632 -0.096446 -0.165534 -0.138403 -0.117186 0.058319 0.108773 -0.105246 -0.156835 -0.146548 0.084441 0.054665 -0.001852 0.118967 -0.004624 0.034229 -0.124265 0.024455 0.052907 0.146860 -0.113879 -0.090411 0.124194
0.023031 0.007913 -0.059362 -0.026896 0.100689 0.103167 0.014314 -0.127467 0.028558 0.170024 -0.019952 0.054400 0.047251 -0.002933 -0.106038 0.089975 0.087058 -0.044773 -0.146099 0.165969 -0.017888 0.099766 -0.136914 -0.082681 0.026599 0.094479 -0.001268 -0.027768 -0.024448 0.125415 0.055839 0.091314 -0.138759 -0.030041 -0.013769 -0.158445 -0.062326 -0.011992 0.158628 -0.006473 0.037482 0.116842 0.092675 0.024169 -0.125039 -0.054152 0.102221 -0.007272 -0.019337 -0.083640 0.156460 -0.045778 0.046034 0.152059 0.162586 -0.055673 0.146747 0.062507 0.079483 0.131633 0.135013 0.066304 0.122437 -0.156919 0.089909 -0.049823 -0.133008 0.166219 0.073558 -0.006350 0.052399 0.091183 0.078441 0.061065 -0.102488 -0.028121 -0.061399 -0.049408 -0.128987 -0.138279 0.049035 0.126718 -0.051461 0.036336
0.108168 -0.151946 -0.163664 0.011370 -0.080105 -0.133089 0.060195 -0.132383 -0.123144 0.042507 -0.160568 -0.129401 -0.162560 0.087617 0.005348 0.152659 -0.051792 0.073378 0.057758 -0.134036 0.000187 -0.154310 -0.048513 0.130650 0.080044 0.037630 0.001390 -0.157556 -0.038510 0.120943 0.123163 -0.160728 0.035413 0.097837 -0.158158 0.042389 0.153920 0.149116 0.021074 0.123495 -0.067078 0.095094 0.164136 0.169896 -0.016093 -0.092865 -0.044965 0.138616 0.077607 0.128977 0.101919 0.020775 0.047775 0.170932 0.147135 -0.027963 0.171060 -0.068474 -0.073045 0.008686 -0.119535 0.114127 -0.161599 0.033015 0.114706 -0.122429 -0.134102 -0.039745 0.008828 -0.087356 0.163755 -0.086275 0.026692 0.080483 -0.045965 -0.005467 0.050205 0.121089 0.112949 -0.120527 0.161071 0.126206 -0.162334 0.046712
0.169406 0.116564 -0.091182 -0.067894 -0.144995 0.144909 0.165162 -0.114281 -0.134599 -0.015162 -0.161260 0.034297 0.104272 -0.067406 -0.140382 -0.118047 0.119641 0.098661 0.040987 -0.055027 -0.090720 -0.013918 0.059642 0.109392 0.085325 -0.115316 -0.083597 0.164164 -0.107366 -0.131899 -0.095350 -0.007607 -0.060447 -0.097988 -0.132591 -0.161071 -0.086857 -0.105112 0.036595 0.068359 0.085983 -0.142427 -0.125603 -0.064465 0.087903 -0.116824 0.021341 -0.084259 -0.066229 0.134420 -0.046445 -0.150563 -0.036816 0.060229 -0.045849 0.131451 -0.075230 -0.021205 -0.028538 0.046357 -0.158024 -0.162353 0.095072 -0.071648 -0.145083 0.145928 0.027266 -0.015432 0.055402 0.067859 0.037306 0.020063 0.073098 0.022211 -0.082986 -0.134453 0.133762 -0.106814 0.138620 0.160498 -0.117301 -0.055373 -0.007134 0.099614
-0.144192 0.130824 0.114899 -0.093463 -0.119742 0.125096 0.152383 0.011456 -0.149528 -0.157979 -0.006809 -0.033031 0.138408 0.049620 -0.117563 -0.035374 0.030352 0.054237 -0.155674 -0.067322 0.009935 0.016387 -0.066293 0.000540 -0.162140 -0.049205 -0.081488 -0.084070 -0.152522 0.107336 0.112077 0.062892 0.135543 -0.009550 -0.103422 -0.162248 -0.018347 -0.086915 -0.120395 -0.031915 0.111293 -0.070629 0.038281 -0.042640 0.093627 -0.155860 0.136602 -0.149444 0.023618 -0.036321 -0.120032 0.110570 -0.110534 -0.170487 0.095891 0.092390 -0.097077 -0.064306 -0.013134 -0.086113 -0.060189 0.075405 -0.058440 -0.010830 -0.167616 0.169630 0.049863 -0.071927 -0.150665 -0.097127 -0.020147 -0.134657 -0.162132 -0.025427 -0.157249 0.036962 0.107309 0.086032 0.122774 -0.055428 0.026682 0.030082 0.030399 -0.044960
-0.171006 0.006751 -0.125649 -0.149988 -0.168221 -0.143202 -0.051145 0.157805 0.099954 -0.102971 0.104442 -0.044710 -0.136310 0.112697 0.143505 -0.080529 -0.128054 0.019743 -0.092946 -0.150961 0.020264 -0.032774 -0.104418 0.163538 0.073587 -0.083234 0.036894 0.049517 -0.102751 0.019122 -0.093634 0.022343 -0.045445 0.152459 -0.058014 0.049629 -0.104075 -0.149326 0.161091 -0.142107 0.111868 0.023857 0.107700 0.098574 -0.133275 0.017912 -0.128824 0.022706 0.034384 -0.044999 0.133222 0.021724 -0.029333 0.136918 0.144874 0.144391 -0.117618 0.070245 0.033140 -0.063745 -0.104504 -0.093919 -0.043774 0.083069 0.149175 -0.118396 0.124849 0.115183 -0.158189 -0.028197 -0.030608 0.080836 -0.100638 0.077472 0.110766 0.129760 0.163175 -0.140457 -0.066970 -0.122286 0.022463 0.081495 0.012281 -0.143197
0.026297 -0.094826 0.068113 0.029782 -0.100483 -0.098684 0.120242 -0.036273 -0.085122 0.088470 0.048383 -0.061477 0.081815 0.131672 0.037078 -0.021061 -0.149681 0.024604 -0.162209 -0.122681 0.104237 -0.023387 0.167625 -0.150887 -0.059144 -0.162664 -0.013331 0.130603 0.074476 -0.137122 -0.141955 -0.058915 0.115464 0.033503 0.121402 0.159979 0.004356 0.090255 -0.152920 0.165539 0.125672 0.143259 -0.165490 0.167849 -0.104201 -0.095171 -0.159121 0.140364 0.006498 0.081970 0.093312 -0.164331 0.141311 -0.163055 0.097410 -0.169420 0.001574 -0.064273 -0.159100 -0.056958 0.148501 0.115186 -0.100139 -0.046174 -0.131129 0.106212 0.151898 0.118481 0.041121 0.169931 0.063656 -0.159820 0.044102 0.156446 0.125753 -0.005856 -0.020251 -0.026063 0.107157 0.154378 0.002412 0.062286 -0.052268 0.019916
-0.053840 0.011389 0.142756 0.060930 -0.136102 -0.009375 0.122339 -0.151143 0.104400 -0.111455 -0.001865 -0.058557 0.034524 0.039054 -0.142447 0.016990 -0.021925 -0.168308 0.014549 -0.021215 0.036987 0.087472 -0.034127 -0.014756 -0.134274 -0.072465 -0.103761 0.134822 -0.067671 -0.108941 -0.115088 -0.100783 0.096912 0.072143 0.128054 -0.075822 -0.117576 0.135537 0.086029 0.165624 0.066601 0.110300 -0.089842 0.148035 -0.065125 -0.108929 -0.030921 0.100272 -0.146543 -0.139952 -0.064105 0.092046 -0.170831 -0.086386 0.086328 0.162822 0.132023 -0.077673 -0.075406 -0.116484 -0.037037 0.051014 -0.116479 -0.033693 0.158401 -0.006073 0.076882 -0.044379 0.101406 0.144550 0.137463 0.083337 0.016982 -0.048321 0.090876 0.161341 0.125065 0.143083 -0.057963 -0.012140 -0.148323 0.165478 -0.082698 0.108974
