0.200865 -0.108883 0.135436 0.085806 -0.170342 0.053808 0.208051 0.214264 0.052289 -0.144802
0.134500 0.097701 0.196162 -0.056389 0.228628 0.101478 -0.121132 0.169821 0.240911 0.156073
-0.080903 0.032336 -0.154211 -0.092568 -0.182434 0.129232 -0.246243 -0.029855 -0.205118 -0.002557
-0.041374 -0.065819 -0.237167 0.214025 -0.224741 0.173550 0.221977 0.228643 -0.161254 0.194206
0.055018 -0.228080 0.250789 0.069287 -0.170320 -0.168572 -0.221660 -0.046818 -0.201896 -0.226528
0.121031 0.237753 0.050247 -0.238459 -0.227315 0.145229 0.252529 0.216181 0.136389 -0.069422
-0.252542 -0.116557 -0.189151 0.243579 0.016596 0.206142 -0.099856 0.033242 0.232232 -0.139705
0.247656 -0.057213 -0.224389 -0.068888 -0.120304 0.198012 -0.207088 0.030501 0.157204 -0.056646
0.239809 -0.060199 -0.025145 -0.095952 0.247459 0.249155 0.069403 0.087301 0.152356 0.178501
0.094392 -0.031376 -0.130317 -0.033301 -0.071349 -0.014701 0.146421 0.161415 0.026190 -0.236025
0.041487 0.193432 0.141330 0.088083 0.159565 -0.068457 0.083287 0.205704 -0.190059 -0.096884
-0.010994 0.250735 -0.044522 0.198475 0.233130 0.144805 -0.134572 -0.074688 -0.050447 -0.169533
-0.088449 -0.050049 -0.016560 0.046752 -0.138011 0.214132 0.085601 0.240515 0.037977 0.208643
-0.145931 0.060837 -0.114739 0.176298 -0.119416 0.183896 0.062546 -0.154164 0.094224 -0.148191
0.065895 0.213913 0.026533 -0.218512 -0.166373 0.062022 0.109907 0.195377 -0.069367 -0.094703
-0.016746 -0.121950 0.048163 -0.211421 0.101874 0.023475 -0.226944 0.081510 0.242436 0.239056
-0.237210 0.168894 -0.094750 0.214395 0.049933 0.215840 0.056904 -0.023703 -0.025048 -0.043110
0.206212 0.120825 0.021921 -0.134338 -0.183496 0.177761 -0.132448 0.106526 0.107921 -0.120751
0.018822 0.196790 0.208221 0.044855 0.240830 -0.214325 0.164802 -0.102457 -0.021184 -0.157834
-0.182530 0.083881 -0.132450 0.214099 -0.049916 0.047141 -0.185971 0.192643 0.183509 -0.022545
0.112282 -0.011774 -0.013026 -0.113311 0.112827 -0.135312 0.001960 0.090574 0.110327 0.061939
-0.200613 -0.087863 0.041561 0.099040 -0.223115 0.117274 -0.227455 -0.203187 -0.166571 -0.193950
0.118397 -0.064475 -0.239054 -0.115102 0.058524 0.059768 -0.047422 -0.001433 0.139286 0.186019
-0.165709 -0.240341 -0.134074 0.197331 0.020767 -0.171420 0.236728 -0.036004 0.034452 -0.198276
-0.079329 -0.088959 0.107459 -0.013241 -0.029352 0.135526 0.092909 -0.073538 -0.230280 -0.182022
0.216846 0.162383 0.088166 0.113486 0.121201 0.180554 -0.122244 -0.198562 -0.192520 -0.079400
0.108222 -0.076145 0.187221 0.168139 0.172265 -0.156099 0.089165 0.045355 -0.037448 0.190722
0.169033 -0.206548 -0.017402 0.035303 -0.089750 -0.001320 0.151369 0.107226 -0.093020 0.003577
-0.237338 0.093443 0.061433 -0.187358 0.211297 -0.209352 -0.162463 -0.219368 -0.083950 -0.229651
0.193472 -0.240944 -0.145954 0.039161 0.176029 -0.210962 -0.177543 -0.082983 -0.230521 -0.237725
-0.032182 -0.019516 -0.205155 0.041728 -0.104596 0.142225 0.002127 -0.059220 0.194884 -0.178762
0.075925 0.008220 -0.120255 -0.212530 -0.169599 -0.235536 -0.168658 0.247241 0.078853 0.213453
-0.060595 -0.178408 0.125789 0.181244 0.126925 -0.170454 -0.138445 -0.150637 -0.059005 -0.062743
-0.126188 0.134284 -0.185400 0.224447 0.086660 -0.013110 0.025414 -0.192748 0.077821 -0.205518
0.087349 0.118523 -0.004309 -0.168810 0.096765 -0.008879 -0.234663 -0.233703 -0.049343 0.090059
-0.168250 0.090417 -0.244185 -0.206860 -0.087271 -0.226663 0.161477 0.109605 -0.139037 0.149869
-0.004410 -0.201819 -0.001142 0.011026 -0.207353 -0.209282 -0.135606 -0.112617 -0.166910 -0.164517
0.202408 0.240239 0.012812 -0.009281 0.197564 0.081531 -0.080845 0.097967 -0.220216 0.055161
0.126916 -0.026943 0.037749 0.106513 0.182080 0.171973 0.028642 -0.176374 0.050067 -0.043037
0.015619 0.033426 0.019031 0.154542 -0.085336 0.226540 0.141592 0.011077 -0.186482 0.042224
-0.002922 -0.080265 0.204828 -0.028927 0.173650 0.183509 -0.040421 -0.188118 0.027735 -0.032451
0.104595 -0.034172 0.091030 0.013548 -0.246660 0.025340 0.095233 -0.234803 -0.127724 0.102179
0.175399 -0.134010 0.080517 0.246418 0.209070 0.250793 -0.125090 -0.143281 -0.207596 -0.071297
-0.099281 0.157623 0.120799 0.124071 -0.085878 0.036516 -0.015624 0.200592 -0.045444 -0.102060
-0.206704 -0.102169 -0.100320 -0.078537 0.240642 0.157997 0.052424 -0.049561 -0.057435 0.040322
-0.167328 -0.004501 -0.044481 0.143045 0.133168 0.203270 0.155706 0.056246 0.017545 0.160937
0.102087 0.098617 -0.116388 -0.187252 -0.021977 -0.126959 -0.062175 0.244942 0.212225 0.192079
0.064760 0.142620 -0.251725 0.142472 -0.196530 -0.135340 -0.117870 0.227342 0.171617 -0.188068
-0.040554 -0.018784 -0.074445 -0.220652 0.049842 -0.208730 -0.218706 -0.140149 0.101934 -0.151835
-0.018607 -0.149358 0.168986 0.101741 0.066830 -0.088179 0.011186 -0.055173 -0.121118 0.236363
-0.227352 -0.080815 0.065796 0.233309 0.163628 -0.213372 -0.064215 -0.127445 0.111535 0.074154
-0.027153 -0.225606 -0.134894 0.010758 0.160731 -0.141430 -0.019565 -0.004137 0.023525 0.211051
-0.004446 0.229291 -0.085739 -0.037518 -0.075848 -0.113008 -0.069422 0.086121 -0.019246 -0.111543
-0.216627 -0.117205 0.186605 0.174094 0.185939 0.146076 -0.090102 0.085427 0.200230 -0.246273
-0.023494 0.018001 -0.022107 0.026570 0.087181 -0.177780 -0.080057 0.174125 0.065832 0.104659
-0.004401 -0.236736 -0.004397 0.078069 0.236354 -0.181437 -0.051614 0.108763 0.205598 -0.006668
-0.065263 -0.197816 0.108842 -0.074574 0.060190 -0.225419 0.025818 -0.036905 -0.159997 0.216892
0.111398 0.146404 -0.170937 -0.056806 0.044578 -0.174791 0.027533 -0.229410 -0.072870 0.105764
0.243139 0.042554 -0.010541 -0.133011 0.163557 0.037426 -0.067492 -0.241035 0.013702 0.246985
-0.221341 -0.068151 -0.057853 0.057649 -0.210005 0.032860 -0.175631 0.225159 0.194658 0.172561
-0.135596 -0.134761 -0.125607 -0.112417 0.225544 -0.212654 0.167277 0.024673 -0.196716 -0.119398
0.189864 -0.175697 -0.136359 -0.110636 0.172396 0.023277 0.133905 -0.150807 -0.182196 -0.095991
0.194564 -0.104377 -0.027842 0.227107 0.066301 0.217785 -0.219220 -0.063526 -0.037412 0.071635
-0.194215 0.069444 -0.216481 -0.211259 -0.162678 0.252410 -0.048277 -0.248479 0.200858 0.150602
-0.098857 0.123625 0.226161 -0.130545 0.085077 -0.208049 0.144434 -0.156032 -0.210727 -0.205529
-0.250769 0.185604 0.252183 0.196176 -0.047050 0.098669 0.094500 -0.089862 -0.019685 -0.161763
0.236828 -0.125729 -0.042364 -0.141894 -0.001434 0.150266 -0.143298 -0.044915 -0.125775 0.191480
0.189682 -0.064647 0.207180 -0.037721 0.243223 0.114728 -0.080890 -0.083644 -0.142666 0.242830
0.229557 -0.136420 -0.077423 0.113740 0.167749 0.188912 0.050167 0.174407 0.237988 0.221284
-0.123659 -0.017660 -0.251494 -0.005287 0.250457 -0.162165 0.111580 -0.252331 0.170060 0.016701
-0.089672 -0.217065 -0.250754 -0.182693 0.209428 0.215695 0.027750 -0.094061 -0.072547 0.080677
-0.196318 -0.235176 0.135094 0.090819 0.036328 0.053795 -0.236712 -0.160988 0.086710 -0.189235
0.009719 -0.194234 0.060123 -0.115026 0.128041 0.045981 0.147205 -0.101635 -0.070300 -0.028148
-0.226109 0.197559 0.230692 0.092034 -0.245785 0.227040 0.011558 0.083317 0.160339 0.101409
-0.105143 -0.115832 -0.108312 0.077757 -0.136313 0.179681 0.103470 -0.179564 0.248955 -0.038951
0.236229 0.247169 -0.004796 0.189643 0.182960 -0.097227 -0.214708 -0.033365 0.108210 0.221097
0.011272 0.114692 0.057567 0.223012 -0.082180 -0.038509 0.144689 -0.208897 0.029495 0.076948
0.245759 0.163811 -0.085870 0.208190 0.201926 0.220512 0.173758 0.009215 -0.244338 -0.077419
0.210414 0.054178 0.003625 0.014856 -0.052362 -0.073997 -0.177794 0.028154 -0.153864 0.209273
-0.140593 -0.240331 0.242723 0.224782 -0.205105 -0.044717 0.225141 -0.127482 -0.251096 -0.148843
-0.234564 0.205353 0.090183 -0.240171 -0.167596 -0.182988 0.122818 -0.221728 0.076347 -0.072260
0.197472 -0.188951 -0.023414 0.031107 -0.111194 -0.077766 0.010715 0.083129 0.074784 -0.240383
0.133545 -0.246437 -0.234680 0.245977 -0.159062 -0.180738 0.038308 -0.047462 0.228290 -0.087074
0.017604 -0.119388 -0.047439 -0.132427 0.133971 0.070461 0.009613 -0.187141 -0.116223 0.113194
