0.132925
0.040983
0.107427
-0.216330
0.139782
0.081253
0.174141
-0.155389
0.159898
0.197313
0.102926
0.085978
-0.157899
0.022337
-0.091685
0.194689
-0.122406
0.229774
0.096509
-0.145150
0.182655
0.013821
-0.145912
0.060623
-0.142827
0.196356
0.010026
-0.152271
0.028070
0.183427
0.189772
-0.072768
0.169455
-0.146187
0.117214
-0.070551
0.212384
0.192376
-0.100294
0.096998
0.150291
0.123496
-0.057679
-0.180542
0.116455
0.116896
0.064932
0.050555
-0.141829
0.133328
0.179327
-0.017766
0.070482
0.153410
-0.220391
0.012669
-0.071499
-0.086989
-0.221015
0.174886
-0.017847
-0.003063
-0.105986
0.082222
-0.178358
0.165248
-0.178630
-0.157367
-0.152176
0.170360
0.041087
-0.098785
-0.022896
-0.012236
-0.132807
-0.013017
0.130062
-0.139878
-0.015204
0.123855
0.008183
0.078974
-0.065262
-0.054189
-0.149165
-0.087892
-0.083383
-0.185787
-0.226054
0.109291
0.162245
0.031329
-0.145590
-0.158548
0.058393
0.042970
0.032528
0.007265
-0.048088
0.057887
0.130255
-0.057446
0.063317
0.268875
0.256763
0.197799
-0.016448
0.266927
0.248852
0.167593
0.048650
0.069509
0.138956
-0.004062
-0.082646
-0.080421
0.075252
-0.189843
-0.118333
-0.124490
-0.100277
-0.083302
-0.100978
0.065604
0.035606
-0.137667
-0.157416
0.095420
