0.117501
-0.041147
-0.072204
-0.225281
0.191583
0.176736
0.048432
-0.085822
0.154938
-0.251416
0.027208
0.021276
0.191895
0.143653
-0.265663
0.151669
0.222210
-0.148747
0.185351
-0.019337
0.096120
-0.191407
0.125428
-0.159926
-0.207391
-0.205850
-0.096103
-0.287720
-0.139214
-0.154085
0.186889
0.092123
-0.188354
0.215680
0.156957
-0.041178
0.080653
0.010874
0.077625
0.215500
0.172440
0.000400
0.195144
0.277958
-0.227685
-0.247442
0.131857
-0.259286
-0.225376
0.005850
-0.019743
-0.183801
-0.026693
0.192104
-0.323768
-0.232464
0.017345
0.214018
0.228538
-0.080077
0.165571
0.196143
-0.246048
-0.007420
0.160757
-0.104262
-0.074771
-0.064563
0.166906
-0.120296
0.253358
0.141135
0.213916
0.001209
0.141905
-0.270372
-0.139000
-0.171457
0.137108
0.152152
0.194044
0.012139
0.138897
0.163164
-0.138761
-0.213649
-0.018487
-0.065004
0.118421
-0.253322
0.094125
0.200966
0.029348
0.146135
-0.184795
-0.293173
-0.165372
0.124532
-0.098611
-0.123457
0.236505
-0.245527
0.200480
0.167737
0.079707
-0.071935
0.013775
0.020497
-0.248197
0.073369
-0.086040
0.117519
-0.133302
-0.119300
-0.010117
-0.023707
-0.247619
0.126060
-0.229778
-0.235692
-0.122462
0.159503
-0.183080
-0.207269
-0.136776
0.100232
0.026679
-0.134817
-0.218443
0.202885
-0.127708
-0.247728
-0.218776
-0.075192
0.176731
-0.083094
-0.186377
0.224236
-0.091455
-0.030348
0.050321
-0.015933
-0.155943
-0.202098
-0.028042
-0.119806
-0.243643
0.150150
-0.162655
-0.144404
-0.125695
0.124613
0.159293
-0.083396
-0.190802
-0.002051
-0.018621
0.241740
0.216197
-0.063996
-0.020247
-0.091393
0.054673
-0.100567
-0.081885
0.029020
0.240144
-0.080580
-0.199102
-0.164900
0.053745
0.195174
-0.161903
0.068336
-0.169517
0.195471
-0.184266
0.011693
-0.213876
0.066766
0.235386
0.142881
-0.022107
-0.107434
-0.067469
-0.083641
-0.296436
-0.083309
0.081860
-0.277369
-0.144981
0.060119
-0.019695
-0.137110
0.072607
-0.273763
-0.146308
-0.176069
0.148711
-0.031081
0.037829
0.065244
0.078533
0.055693
-0.058873
-0.136051
-0.076864
0.156656
0.212889
0.210361
-0.209231
-0.231346
-0.191706
-0.155099
0.114521
0.150899
0.199514
-0.271722
-0.260821
0.127296
-0.091899
0.128125
-0.008828
0.171798
0.213775
0.069388
-0.198803
-0.122064
-0.102089
0.063960
0.192095
-0.158659
0.122066
-0.200109
-0.084277
-0.031954
-0.107075
0.099392
0.153211
-0.212102
-0.077677
0.069793
-0.080700
0.095397
-0.113093
-0.182188
-0.175812
0.077238
0.108372
0.104682
-0.140280
-0.151238
-0.143397
0.037484
0.018092
-0.174877
0.036745
0.186247
-0.197824
0.009936
-0.201024
-0.111556
-0.094122
0.260378
0.077008
0.072398
0.127599
-0.136591
-0.257616
0.040377
-0.224334
-0.085475
0.244372
-0.068206
-0.025371
0.229721
0.048686
0.177674
0.019361
-0.292702
0.022438
-0.269262
0.021725
0.177389
0.164356
-0.128081
-0.065776
-0.175742
0.176526
-0.138609
-0.210479
-0.277513
-0.216385
-0.006121
-0.133588
-0.058574
-0.079548
-0.271816
-0.103882
-0.092000
0.055075
-0.134964
0.191029
-0.072910
0.172712
0.134468
-0.133606
0.205953
-0.250535
-0.235041
-0.203665
0.062233
0.185298
0.014498
-0.178496
0.197865
-0.163402
0.010228
-0.104450
-0.177280
-0.129694
-0.144843
0.230959
0.182452
-0.057935
0.020762
0.162043
-0.170702
0.282946
0.054658
-0.064522
0.163455
0.088039
-0.040050
-0.049949
0.080625
0.134421
-0.241412
-0.045947
0.035988
-0.226278
-0.144675
0.274665
0.030728
0.205059
0.140793
0.075000
0.060248
0.108275
0.046905
-0.139781
0.207965
0.158000
0.184946
-0.060199
0.031567
0.012661
-0.093321
-0.108323
0.162389
0.173734
-0.258864
0.124024
-0.009818
0.012334
0.135637
0.144373
0.204735
-0.106922
0.023933
-0.184478
0.186204
0.198855
-0.252977
-0.224517
0.029422
-0.023615
0.169611
-0.095657
-0.119955
0.058430
0.041144
-0.303800
-0.174373
0.151735
-0.160408
-0.249086
0.130386
-0.231866
-0.056862
0.021301
-0.251192
0.157607
-0.066901
-0.099435
-0.180307
-0.166067
-0.253016
0.007842
0.087405
-0.014986
-0.112936
0.102114
-0.100077
-0.058815
0.045632
0.164538
-0.272292
-0.221012
-0.090297
0.207852
-0.234184
0.101526
0.136704
-0.277448
-0.145995
0.067248
-0.225333
0.129026
0.057304
-0.078868
0.040533
-0.167194
-0.160182
-0.156444
0.010770
-0.027914
-0.275931
-0.180598
0.218214
-0.222896
-0.158861
0.169392
-0.084802
-0.011572
0.182035
0.022397
-0.028417
-0.221649
-0.185462
-0.167298
0.085900
-0.149576
-0.175436
0.068118
0.055385
0.027259
-0.156264
-0.077481
-0.023142
0.076490
0.125691
0.047307
0.016971
0.211474
-0.147445
-0.197827
0.026938
0.052068
0.067618
0.183850
0.163904
0.012161
-0.277441
0.138842
0.021830
-0.120492
-0.023447
0.180699
-0.169987
-0.052279
-0.281670
0.090488
0.054461
0.225622
-0.197997
-0.059110
0.100766
-0.076200
0.139307
0.008891
0.171921
-0.030113
-0.294833
-0.065840
0.024920
0.106559
-0.066420
-0.276806
-0.009745
0.062069
0.159677
-0.190543
-0.213102
0.210841
0.172201
-0.071849
0.228512
-0.031629
0.171512
0.125614
-0.251702
0.060210
0.169216
-0.135268
0.086553
-0.115208
-0.051046
0.131190
-0.037786
-0.285419
0.061984
