0.084685 -0.018142 -0.053918 0.044316 0.058893 0.053547 0.103216 0.033062 0.047159 -0.077288 0.018673 0.069912 0.027044 -0.088991 0.078769 -0.081979 0.050054 -0.025211 -0.055522 0.011665 0.078211 -0.010928 -0.031400 -0.101997 -0.057093 0.035924 -0.024101 -0.020805 -0.116195 0.014391 0.004421 0.018828 -0.038679 -0.124850 0.065785 -0.023609 -0.129006 -0.129198 -0.112171 -0.002012 0.012228 0.001761 -0.025038 -0.069395 -0.047803 -0.070685 0.001630 0.056648 -0.018780 -0.064897 0.040076 -0.014888 0.082465 -0.088380 0.024016 0.044977 0.036249 -0.023755 0.003236 -0.047945 0.025080 -0.053595 -0.067173 0.039386 -0.033366 -0.070784 -0.120903 0.106366 -0.078090 -0.029705 -0.004254 0.010988 -0.023971 -0.080542 0.111986 -0.087033 -0.042649 0.049811 -0.043120 0.022928 -0.012529 -0.056561 -0.129323 0.048988 0.036578 0.027073 -0.006218 -0.036333 -0.028209 0.034226 -0.048754 0.017978 0.053516 0.054391 -0.024277 -0.092480 -0.031331 -0.056305 0.064591 0.050292 0.041719 -0.052590 -0.070496 -0.118922 -0.101495 -0.032616 0.064035 -0.081088 -0.045286 -0.032107 -0.075922 -0.075944 -0.033434 -0.010467 -0.018604 -0.064610 0.000004 0.051694 0.071081 -0.015229
0.025713 0.047734 -0.030287 0.011931 -0.074920 -0.012921 0.096810 -0.048244 0.013307 0.060434 0.092899 0.052608 -0.018898 0.033026 0.128885 -0.002836 -0.047875 -0.030491 0.072633 0.029701 0.074810 -0.088921 -0.109693 0.001858 0.042022 0.106666 0.063009 0.062394 -0.023477 -0.021076 -0.061910 -0.066793 -0.026898 0.053630 0.061114 0.068031 0.003973 -0.077219 0.045637 -0.046869 0.038877 0.024987 -0.010921 0.003662 -0.017018 -0.077789 -0.021727 -0.119097 0.010875 0.045629 -0.056815 0.036228 0.028717 0.007450 0.078447 0.035056 -0.037551 -0.024365 -0.118982 0.044777 -0.112413 0.099771 0.013853 0.077408 -0.077198 -0.108950 -0.040413 -0.029754 -0.075338 0.081827 0.020098 -0.057734 0.021547 -0.058160 0.036371 -0.061813 0.083320 -0.127013 0.044286 0.007155 -0.050419 -0.079233 0.061302 0.016235 -0.027460 0.022682 -0.026670 -0.004267 0.038366 -0.093632 -0.086166 -0.050759 0.121303 0.044288 -0.119400 -0.104486 -0.049820 0.061095 -0.019543 -0.091113 -0.040414 -0.098637 0.054150 -0.026053 -0.060615 0.047210 -0.021626 -0.077227 0.003803 -0.033852 0.092632 -0.015630 0.086710 0.000722 -0.116832 -0.070587 0.052894 -0.015754 -0.015969 -0.090408
0.056351 -0.064013 -0.099233 0.023248 -0.032059 -0.101054 -0.041390 -0.128732 0.022367 -0.076830 -0.032331 0.062758 -0.003609 -0.005411 0.058172 0.054892 -0.000845 0.027915 0.050186 -0.055725 0.010601 -0.072661 -0.008894 -0.108442 0.043296 0.036893 0.004186 -0.058236 -0.043295 0.062571 -0.045794 -0.028608 -0.090630 -0.106774 -0.025350 0.058454 0.053107 -0.019918 0.028330 -0.114684 0.028237 -0.081051 -0.067414 0.012642 -0.028017 -0.010741 0.079324 -0.054149 -0.050515 -0.076023 0.074052 0.008677 0.025681 0.012428 -0.076841 -0.083881 -0.043832 0.018907 0.030778 -0.123798 -0.089879 0.021105 0.035319 -0.070889 -0.001384 -0.018335 0.040645 -0.022569 0.030924 0.131572 -0.021227 -0.065367 -0.084956 -0.035461 0.013052 -0.029765 0.042317 0.110609 0.080631 -0.022857 -0.088654 -0.033208 -0.060368 -0.048282 0.020294 -0.009521 0.030547 0.011490 -0.027406 -0.115722 -0.006686 0.057808 0.003412 -0.029671 -0.061229 0.016799 -0.105499 0.053903 0.026402 -0.052966 -0.012621 -0.076607 0.006954 -0.108069 -0.058946 0.024466 -0.059686 0.035368 -0.057429 0.009446 0.021313 -0.123416 0.012486 0.058998 0.016671 -0.125125 0.042342 0.042736 -0.060392 0.042804
0.067716 0.021716 -0.059060 -0.084216 0.000290 0.039560 0.051055 0.063568 -0.044537 -0.076821 -0.061356 0.005425 0.076847 -0.087103 0.023557 -0.015051 -0.055553 -0.058323 0.032361 -0.081136 -0.046128 0.088695 0.080710 0.051372 0.083460 -0.046044 -0.089729 -0.028944 0.041566 0.009744 0.029919 0.008613 -0.030042 0.088625 -0.005348 0.084753 -0.000773 -0.033692 -0.072581 -0.060618 -0.013904 -0.008459 -0.013950 -0.079163 0.087822 -0.069037 -0.042089 0.047040 -0.071666 0.007349 0.040228 0.047400 -0.024876 0.001954 -0.041477 0.009400 0.026072 0.048187 -0.046981 0.063379 0.055539 -0.023300 -0.033161 -0.035147 -0.076934 0.048361 -0.021592 -0.010544 -0.067332 -0.071660 0.059216 -0.070591 0.076809 -0.087045 -0.012204 -0.011819 0.056430 -0.043310 0.079701 0.070086 -0.085428 -0.031301 0.027787 -0.034625 -0.039269 -0.082219 0.091670 -0.034141 -0.059687 0.052102 -0.085816 -0.037181 -0.065344 0.059252 0.088294 0.013219 0.019613 0.070394 -0.011426 0.029315 0.060990 -0.012028 -0.013945 -0.072306 -0.088019 0.007913 -0.040529 0.052852 0.092312 0.048538 -0.025291 -0.069191 -0.051702 0.078088 -0.066380 -0.058523 0.065417 -0.025189 -0.039613 0.005280
-0.080117 -0.054217 -0.017215 -0.042570 -0.059490 -0.017820 -0.079029 -0.055151 0.025347 -0.051942 0.011237 0.039540 0.080188 0.090173 -0.032849 -0.000250 -0.085777 -0.086593 0.080985 0.086057 0.063457 0.040972 0.054674 -0.049761 0.014567 0.019857 -0.032748 0.049874 -0.000599 -0.083232 -0.089140 -0.064441 0.020732 0.080099 -0.039392 0.027170 -0.065127 0.059679 0.041543 -0.086620 -0.068841 0.057870 0.020372 -0.011256 0.030041 0.013342 0.002862 -0.013876 0.043768 0.066371 -0.029311 0.014761 0.039052 0.049456 0.046515 -0.030716 -0.016410 -0.033636 -0.084124 -0.062438 0.090292 -0.087282 -0.026556 -0.059536 -0.004056 -0.031867 0.076927 0.045505 -0.007753 0.063175 -0.088977 0.051904 -0.072542 -0.050986 0.053326 -0.016071 -0.066489 0.067014 0.003324 -0.090172 -0.055916 0.056908 -0.031491 0.088307 0.072313 0.021693 -0.048253 0.030198 -0.089093 0.048684 0.035200 0.029835 -0.002402 0.027135 -0.077547 -0.067262 -0.024664 0.029007 0.057773 0.003008 0.030264 0.020310 -0.085836 -0.012391 -0.092223 0.054002 -0.078224 0.044460 -0.046603 -0.063354 0.090429 0.049320 0.068112 0.000777 0.062221 0.056431 -0.043807 0.074795 -0.023814 -0.024360
0.099805 0.017904 0.047255 0.034044 -0.001222 -0.017129 0.027678 -0.098780 -0.036473 0.045771 0.004167 0.063853 0.000165 -0.023030 -0.103950 0.054203 0.024439 -0.011461 -0.044676 0.039288 0.001886 0.079023 0.063763 -0.057474 0.036991 0.006489 0.009879 -0.079423 0.075449 -0.024068 -0.045130 -0.014719 0.052823 -0.120853 -0.043486 0.006226 -0.031307 0.012493 0.009991 0.037632 -0.011444 -0.003766 -0.047124 -0.116425 0.052666 0.064996 -0.029001 0.077459 -0.069995 0.032061 -0.055548 0.011587 0.009549 0.023007 -0.026192 0.018495 0.031795 0.047325 -0.015383 -0.064234 0.050396 0.056531 -0.022223 0.128821 0.069053 -0.059816 0.029993 -0.049078 -0.044815 0.062875 -0.001669 -0.062899 -0.046584 0.008756 -0.001582 -0.034863 0.008213 0.128799 -0.031989 0.064400 0.042635 0.114074 0.046702 0.055442 0.114069 0.054437 0.010252 -0.073037 0.049643 -0.020873 0.024719 0.028365 0.128051 0.039152 -0.089101 -0.099082 -0.034640 0.084577 0.069194 0.089831 0.028671 0.042791 -0.017378 -0.103191 -0.103389 -0.034445 0.072956 -0.078178 0.025401 0.035550 0.040256 -0.009256 0.092155 0.123207 -0.047030 0.032487 0.054692 -0.084180 0.048452 0.089658
0.006994 -0.040177 -0.015409 -0.096033 -0.057327 0.041529 0.048529 -0.015943 0.004540 -0.080079 -0.080382 -0.059977 0.011996 -0.087944 0.033028 -0.078503 -0.085944 -0.095225 -0.087415 0.080040 0.021640 -0.021684 0.059894 0.045816 0.043991 -0.037390 0.059632 0.012534 0.026719 0.030760 0.011956 -0.100035 0.067921 -0.032707 -0.028135 -0.014296 -0.034502 0.011047 0.007680 -0.124214 -0.057659 -0.004185 0.005533 -0.131907 -0.013875 -0.070526 0.099370 0.031222 -0.017306 0.002421 0.074943 0.035556 0.025650 -0.005529 0.003702 -0.129697 -0.107340 0.007879 -0.025909 -0.015790 -0.011519 -0.055075 -0.037784 0.058929 -0.082382 -0.128564 -0.003800 0.082045 0.051793 0.117063 -0.096319 0.019035 -0.093422 -0.067632 -0.007998 -0.042298 -0.016889 0.101722 0.038356 0.103331 -0.034656 -0.091799 0.034592 0.048652 0.092216 -0.007243 -0.127967 -0.134978 -0.094787 -0.112440 0.028796 -0.037914 -0.045091 0.091133 -0.126284 -0.000302 0.039836 0.073966 0.069298 -0.077008 0.022065 0.024467 -0.003468 -0.045121 -0.003390 -0.039687 -0.039009 -0.058323 0.084401 0.061484 0.016256 0.014214 -0.077688 0.012890 0.095436 -0.112757 0.037626 -0.043023 0.016090 -0.090790
-0.081509 -0.094309 -0.080032 -0.114215 0.028974 -0.119244 0.029367 -0.013113 0.066596 -0.058766 0.019730 -0.069836 0.004675 -0.014668 0.062421 -0.041524 0.023904 0.004037 -0.094280 0.039449 0.013555 0.021212 -0.056777 -0.030942 0.050799 -0.090976 -0.001478 -0.114450 -0.042584 0.066977 -0.065254 -0.092772 0.037035 -0.026200 -0.011044 0.032240 -0.047789 -0.060274 -0.049327 0.016661 0.025599 -0.056693 -0.087435 0.034827 -0.050411 0.007134 0.047729 0.079037 -0.118877 -0.129535 -0.031293 -0.053718 -0.052450 -0.055619 -0.044482 -0.007495 -0.081562 0.031375 0.008786 -0.020510 0.012818 -0.005403 -0.013359 0.060547 -0.093226 -0.045972 0.034204 0.066275 -0.101511 0.095385 -0.125596 -0.050260 0.041406 0.023062 0.103194 -0.056006 -0.095738 0.076883 0.018518 0.035906 -0.045185 -0.002959 -0.053338 0.046619 0.110738 0.126954 0.019369 -0.040157 0.022160 -0.088276 0.017824 0.087361 -0.085067 -0.047759 -0.045273 0.015572 -0.047660 -0.039154 -0.085747 -0.004025 0.035312 0.078065 -0.091477 -0.045830 0.012430 0.032961 -0.048446 -0.121126 -0.003081 0.023162 0.062485 -0.086611 0.012668 -0.086675 -0.043804 0.055842 0.008845 0.038828 -0.071609 -0.101842
0.048329 -0.087710 0.027044 0.016310 -0.120620 -0.081578 -0.071600 -0.124095 0.025199 -0.107654 0.019715 0.012633 -0.077956 -0.058757 -0.030294 0.023515 -0.010465 -0.035455 -0.080113 -0.060776 0.037199 -0.039163 -0.023763 -0.084849 -0.130119 -0.003568 -0.055179 -0.116625 0.018656 0.064632 -0.040356 -0.054231 -0.039574 -0.017185 -0.016420 -0.075158 0.040673 0.029206 0.010706 -0.059738 -0.092682 -0.089104 -0.030675 0.014913 0.044201 -0.018809 0.034052 0.073455 -0.111372 0.046340 -0.034416 -0.035332 0.006479 0.045026 -0.079971 0.013307 -0.020551 0.028705 -0.049412 -0.041622 0.018315 0.003197 -0.082046 -0.041192 -0.006562 -0.114346 0.022330 0.116604 0.060430 0.098870 -0.094676 0.036480 -0.072031 -0.011232 0.027004 0.053191 0.041762 0.093479 0.052580 -0.056031 0.030033 -0.070023 -0.081417 -0.024123 -0.023525 0.100903 -0.126357 -0.068823 -0.042300 -0.083721 -0.075525 -0.086813 -0.075437 0.097237 -0.040864 -0.077781 -0.085868 -0.005924 -0.066460 -0.016487 0.061647 -0.027704 -0.055062 -0.076968 -0.091843 0.001251 -0.075369 0.054095 -0.010768 -0.066561 -0.087609 -0.083426 -0.065229 -0.031669 -0.021231 -0.048613 0.070051 0.092779 0.036328 -0.080413
0.088521 -0.058444 0.075587 0.027037 -0.059929 0.023974 -0.076908 0.090150 0.063920 -0.041425 -0.081811 0.052228 0.077382 -0.087935 -0.032911 0.086647 0.020682 0.049124 0.033202 0.085272 -0.052238 -0.014654 0.058781 0.019155 0.008950 0.092738 0.022332 0.083316 -0.017295 0.032676 -0.014166 0.044566 0.010968 -0.050911 0.036941 -0.035450 -0.060274 -0.015014 -0.014144 -0.082664 -0.007729 -0.084912 0.030892 -0.059092 -0.061243 0.020034 -0.090047 -0.078406 0.072968 0.037516 0.017927 0.031255 0.006152 -0.042014 -0.068343 -0.034426 -0.039805 -0.011213 0.092211 0.065165 -0.024452 -0.083641 0.018238 0.046933 -0.089879 0.066199 -0.017232 0.017545 0.010439 0.048120 -0.073966 0.084045 -0.090316 0.045465 -0.006058 0.082577 -0.072198 -0.074080 0.076320 -0.039944 0.030732 0.038453 0.029602 -0.049946 0.017698 0.009303 0.078618 0.050468 0.082854 0.006045 0.075396 0.003581 -0.048715 -0.007047 0.003421 0.046378 -0.035166 0.038603 -0.088724 -0.017362 -0.001508 0.000899 -0.026349 0.014700 -0.020506 -0.026002 -0.008468 -0.027090 -0.005091 0.031694 0.002325 -0.071962 0.055029 0.021956 0.050781 0.057043 0.036964 -0.008668 -0.066171 -0.065356
0.028270 0.052619 0.065583 0.041404 -0.086910 -0.082172 -0.081482 -0.065482 0.106571 0.075413 -0.092842 -0.066012 0.024553 0.007873 -0.081668 -0.082841 0.016771 -0.076828 -0.044559 0.048574 0.054721 -0.071453 0.005591 -0.091611 -0.046208 0.059012 0.044963 0.001444 0.069031 0.025360 0.084018 0.089837 -0.045392 0.001265 -0.067835 -0.038475 0.085435 0.090050 -0.045908 0.029060 0.045010 0.024780 0.074852 0.025454 -0.018047 0.044949 0.066412 0.070237 0.060689 -0.037212 0.004361 -0.070076 -0.000511 -0.078806 -0.040467 -0.030484 0.014021 -0.012016 -0.097479 -0.080346 0.001964 -0.054620 -0.020928 -0.055902 0.064527 -0.014294 0.020649 -0.092174 0.064412 0.035375 0.076357 -0.064477 0.008374 -0.050775 -0.053763 -0.005916 -0.037323 -0.014645 -0.027225 -0.006953 -0.016362 -0.004701 0.014897 -0.054156 0.101712 0.094856 -0.015727 -0.084053 0.059719 0.012175 -0.008279 -0.011628 0.093009 -0.066400 -0.050298 -0.008615 -0.007869 0.050811 0.025347 0.058945 -0.044952 -0.076930 0.067908 0.045849 0.039560 -0.054743 0.032838 -0.091761 -0.017075 -0.076771 0.036815 -0.085307 0.054237 0.075696 0.030217 0.079828 0.071926 0.028668 -0.065192 0.022384
-0.090058 -0.027851 -0.071794 0.012627 -0.116729 -0.054027 0.101516 0.053190 0.073805 0.036310 -0.044050 0.028663 -0.038711 -0.069628 0.043719 -0.064510 0.092830 -0.002440 -0.014091 -0.082382 -0.029860 0.000480 0.000460 -0.080062 0.028571 -0.095587 0.057205 -0.088111 -0.002607 0.088475 -0.051110 -0.017226 0.084641 -0.042806 -0.053288 -0.027067 0.039614 0.048018 -0.103156 -0.039190 -0.045164 -0.079820 -0.066765 0.043324 -0.045037 0.032250 0.118119 -0.066215 0.019631 -0.020485 -0.069022 -0.060431 0.094943 -0.113435 -0.055678 -0.095386 -0.128720 -0.023533 0.035843 -0.007687 -0.014475 -0.065050 -0.047409 -0.028942 0.052387 0.026749 -0.074655 -0.009269 -0.013065 0.061135 -0.054787 -0.034687 0.041306 0.032584 0.128305 -0.043171 -0.005853 0.078679 -0.033446 0.098552 -0.090165 0.040725 -0.103108 -0.070842 -0.000071 -0.022908 -0.036045 -0.112209 -0.046850 -0.056724 -0.085589 -0.001227 0.052932 0.087673 -0.087786 -0.064733 0.048007 0.052550 -0.064158 0.026352 0.040760 -0.018976 0.014159 -0.025979 -0.016279 0.007747 -0.024241 -0.028924 0.041988 -0.029760 0.028213 -0.060639 -0.075819 0.031728 0.130949 -0.074008 -0.069241 0.083709 -0.075623 0.065153
0.008420 -0.008459 0.025191 0.035369 -0.110074 -0.123068 0.005753 -0.086770 -0.077297 0.028964 -0.001353 0.000085 -0.048152 0.024163 0.064137 -0.085523 -0.061648 -0.057477 0.012828 0.012065 0.109558 -0.020924 0.008868 -0.045731 -0.072163 -0.099120 0.059590 -0.034949 0.018459 0.065208 0.034616 -0.013790 0.070764 -0.128588 0.077476 0.009819 -0.083590 -0.027159 -0.053017 -0.079320 -0.048564 0.022639 0.029635 -0.096247 0.016597 0.056588 0.127235 -0.023344 -0.037436 -0.068830 -0.004320 0.067286 0.016532 0.000146 -0.100484 0.051696 -0.041453 0.056184 0.003169 0.046039 -0.076840 0.083660 -0.070971 -0.054087 -0.032351 -0.019182 -0.064477 0.129314 -0.022168 0.093024 -0.117082 -0.097132 -0.071136 -0.019324 0.096498 0.019541 -0.019697 0.131638 -0.061279 0.083187 -0.017181 -0.025981 0.027317 -0.016138 0.022198 0.001727 0.017966 -0.066543 0.028613 0.007967 0.022877 0.028537 -0.081484 0.042531 0.023552 -0.098563 -0.084908 -0.038485 -0.005988 0.066268 0.031024 0.039767 -0.111276 0.053147 0.035926 -0.056995 -0.045257 -0.018576 0.015894 0.016684 0.083391 -0.070569 -0.000274 -0.006828 -0.047569 -0.121487 -0.034776 -0.088718 0.029098 0.056997
-0.000633 -0.058761 -0.096225 0.023267 0.045901 -0.113538 0.006216 0.018099 0.058970 -0.026495 -0.022548 -0.084113 0.025365 0.041407 -0.043850 -0.068113 -0.009665 0.013108 -0.091104 0.092638 -0.035729 -0.094143 -0.054135 -0.037474 -0.022050 0.002052 0.053979 0.037386 -0.105783 0.054144 -0.010806 0.074060 0.079909 0.012966 0.078545 -0.002643 -0.001652 -0.006478 -0.000552 -0.114614 -0.122192 -0.121151 -0.051624 -0.129859 0.058476 0.025181 -0.021126 -0.076545 -0.025997 -0.093631 -0.060952 -0.108073 0.019709 -0.102639 0.016167 -0.002598 0.003512 -0.036988 -0.071671 -0.110928 -0.112908 -0.056163 -0.104412 -0.031967 0.004405 -0.049218 -0.093534 0.083265 -0.036354 -0.018012 -0.069377 -0.101707 -0.087925 0.011410 -0.021291 -0.028454 -0.026829 0.053685 0.033710 0.055044 0.028464 -0.103769 -0.077376 -0.040063 -0.009082 -0.032838 -0.035552 -0.092597 0.055098 -0.114530 -0.035878 0.042763 -0.066255 -0.034142 0.053145 -0.007796 -0.076465 0.014857 -0.078299 0.015547 -0.009091 -0.086138 0.032083 0.024661 -0.087069 -0.056777 0.043916 0.053160 -0.061449 0.082269 0.050009 0.011353 0.053865 0.008795 -0.033790 -0.037989 -0.011810 0.006662 -0.018815 -0.050161
0.050102 -0.020266 0.057509 -0.028934 0.045524 0.004631 -0.017649 -0.071227 -0.017541 -0.085553 -0.062179 -0.044415 0.028803 0.004602 0.046091 -0.044486 -0.027938 -0.090984 -0.082092 -0.012261 0.108106 0.003309 0.036566 -0.047609 -0.084497 0.000929 -0.025851 0.026913 -0.087982 -0.087820 -0.073213 -0.089959 0.038379 -0.047563 0.055671 0.020486 -0.034630 -0.018075 0.041390 -0.016338 -0.084298 0.011581 0.047981 -0.129396 0.001924 0.049225 0.056623 -0.096245 -0.085537 0.025132 -0.022533 -0.011160 -0.062142 -0.080551 0.012131 -0.083654 0.043327 0.130662 0.029075 -0.106913 0.040451 -0.075597 0.004460 0.082480 0.027817 -0.124696 0.021422 -0.004184 -0.088161 -0.014020 -0.025778 -0.097178 -0.066735 -0.033010 0.083668 -0.032875 -0.108140 0.004117 0.043674 0.090070 0.052975 -0.073032 0.040792 -0.057571 0.000813 -0.020911 -0.097589 0.038157 0.072598 -0.074608 -0.007081 0.042322 -0.024887 -0.040408 0.040637 0.009233 -0.030657 0.059000 0.060705 0.046317 0.127178 -0.053378 -0.081722 -0.030116 0.032796 -0.065970 0.053054 -0.039131 0.008023 -0.081076 0.086517 -0.019882 -0.010402 -0.051659 0.057432 -0.071286 0.084570 0.047065 0.006756 0.067570
0.057537 0.043086 -0.005119 -0.120859 -0.042539 -0.125198 0.013348 -0.112481 0.038516 0.023780 0.001516 -0.051447 -0.019291 -0.006528 -0.104990 -0.061662 -0.005776 -0.024322 -0.056022 0.085369 0.077810 -0.088537 0.015670 -0.101202 -0.006448 0.043234 -0.101759 -0.050852 -0.028881 -0.064247 0.021603 0.011958 0.048303 0.029288 -0.051686 0.045809 -0.090121 -0.033845 0.007248 0.005263 0.018344 -0.077877 0.047795 0.022131 -0.001227 0.085657 -0.028386 0.046872 -0.039146 -0.005078 -0.037957 -0.031643 0.108665 0.008074 0.052033 -0.034764 -0.065630 0.090804 -0.042470 -0.104513 -0.061925 -0.058091 -0.097594 0.006173 -0.072670 -0.090833 -0.048460 0.123303 -0.104514 0.055756 -0.096974 -0.078341 -0.106550 0.012617 0.096438 0.000549 -0.041595 0.026911 -0.054601 0.078899 0.030775 -0.105097 -0.017199 0.014892 0.016874 0.125047 -0.102645 -0.134203 -0.004609 -0.008819 -0.088834 -0.082269 0.020849 0.104201 0.008678 -0.115147 -0.041245 0.060358 0.001293 -0.031897 0.075351 -0.008683 -0.104095 -0.069373 -0.127011 0.050277 0.009573 -0.022118 -0.046930 -0.010340 -0.076963 -0.017465 -0.050024 -0.100994 0.099494 -0.063741 0.018579 0.073181 0.054275 -0.014675
-0.016383 0.052561 -0.088504 -0.095831 -0.081293 -0.129724 0.025653 -0.100835 -0.014714 -0.063063 0.058881 0.056555 0.004193 0.003607 -0.012609 -0.091450 0.079597 -0.029695 -0.011368 -0.022073 0.097756 -0.043110 -0.076739 0.034379 -0.008372 -0.030221 -0.033285 -0.118549 -0.108652 0.075289 -0.014462 -0.087400 0.013866 -0.091614 0.065178 -0.081418 -0.001759 0.035220 -0.025085 -0.100100 0.006260 -0.004433 -0.088557 0.008765 0.029482 -0.050950 0.072277 0.085792 -0.085050 -0.081245 -0.006475 -0.016347 0.062777 -0.004879 0.042527 -0.100250 -0.075788 0.034512 0.015495 -0.073405 -0.067196 -0.083568 -0.117763 0.053492 -0.081926 -0.088950 0.041519 0.004427 -0.105983 0.008426 -0.001656 -0.086520 0.030012 -0.079351 -0.034628 0.056876 -0.039622 0.022581 -0.036584 0.030770 -0.023660 -0.055634 0.043671 -0.017348 0.091783 0.102645 -0.104391 -0.107711 -0.069785 -0.074939 -0.054515 -0.046578 0.041315 -0.032373 0.002052 -0.036088 -0.024667 0.039520 0.021824 -0.067996 -0.023133 -0.021679 -0.017612 -0.061500 -0.125557 0.014943 0.035282 0.044927 -0.071621 -0.022753 0.051693 -0.076445 -0.069283 0.068581 -0.009442 -0.019061 -0.042762 -0.061711 -0.095009 -0.064543
-0.004999 -0.056843 -0.018540 0.009809 -0.074056 -0.067757 -0.065414 -0.106881 0.034339 -0.003487 -0.054127 -0.028706 -0.010572 0.083946 0.152840 0.065853 0.016702 0.017008 0.074996 -0.007095 0.042176 0.027079 0.041616 -0.013380 0.044723 -0.046085 -0.001537 0.017813 -0.028553 -0.056047 -0.015053 -0.010597 0.062522 -0.018323 0.024062 0.055747 0.117591 -0.054318 -0.085583 0.014105 -0.046380 -0.004946 -0.046741 0.035684 -0.018209 0.009544 -0.011890 0.042059 0.006483 0.025329 0.057117 -0.035657 -0.000525 0.035717 0.081159 0.046668 0.045023 0.053162 0.023526 -0.025745 -0.020472 -0.101436 -0.081452 0.113386 -0.037073 -0.119938 0.059196 0.098128 -0.034628 0.062914 0.065436 0.008930 -0.066215 0.044746 -0.126918 0.056182 0.037997 -0.057772 -0.128640 0.103899 -0.100079 0.019342 -0.037821 0.051284 -0.026452 -0.002900 0.119005 -0.067433 0.018067 -0.013974 0.012392 0.067558 0.011624 -0.104367 -0.069310 -0.016442 -0.041090 0.017432 -0.053862 0.024157 0.030511 -0.033672 -0.035198 -0.028887 0.034249 0.092082 -0.031539 -0.125022 -0.049924 -0.085405 0.012202 0.099613 -0.035145 -0.078324 -0.025477 0.012607 -0.058476 0.026216 0.104962 0.009829
-0.065029 0.030964 -0.003399 -0.102813 -0.027811 -0.021004 0.037305 -0.128497 0.093625 -0.045193 -0.099162 -0.002708 -0.020610 -0.096756 -0.089234 0.029694 0.017951 -0.090751 -0.097154 -0.069676 -0.044006 0.023583 -0.014548 -0.048854 -0.051966 -0.074669 -0.008413 -0.091787 0.008782 -0.031279 0.034529 0.059074 0.067467 -0.038172 -0.069451 0.012383 -0.125645 0.023253 -0.113919 0.029544 -0.023261 0.026143 -0.109510 0.050377 -0.033066 -0.059656 0.017591 -0.042870 -0.092958 -0.038787 -0.071215 0.023106 0.079040 -0.032240 -0.086801 -0.078410 -0.053917 0.052064 0.023292 0.004673 -0.013093 0.058756 0.039909 0.004329 0.008303 0.042927 -0.113060 0.076278 -0.079926 0.080160 -0.031444 -0.070005 -0.088358 0.018449 -0.020244 -0.078397 -0.089670 0.063403 -0.070824 0.040943 -0.105379 -0.087976 -0.117358 0.015295 0.002750 0.083262 -0.025210 -0.029120 0.012611 -0.034237 -0.045751 -0.079840 -0.005275 0.038975 -0.033329 -0.051005 -0.066748 0.028639 -0.042973 -0.099991 0.091017 0.076523 -0.009024 0.032567 0.010950 0.048049 0.027608 -0.087881 0.066386 0.025057 -0.049914 -0.090253 0.087351 -0.051621 0.073146 -0.033199 -0.068833 0.014917 -0.087841 -0.085356
-0.092098 0.010567 -0.061545 0.016516 0.029760 -0.058378 0.067696 0.035847 -0.090721 0.058563 0.047862 -0.014004 0.004839 0.018415 0.019336 0.071139 0.089743 -0.078408 -0.075685 -0.087072 -0.086949 0.019085 -0.057212 -0.072069 -0.083136 -0.037835 0.057561 0.005747 -0.017394 0.016137 -0.081161 -0.035497 0.079865 0.042310 0.058998 -0.092497 -0.021714 -0.030136 -0.007811 0.048679 0.087246 -0.087463 -0.025361 0.005541 -0.042220 -0.057227 -0.008863 -0.068245 0.088679 0.043792 0.068490 0.046409 0.021605 0.056498 0.086918 0.040373 0.074017 0.082554 0.069694 0.013187 -0.058137 -0.091064 -0.063076 0.046956 -0.077853 -0.015831 0.025031 0.002784 0.035224 0.015957 -0.081175 0.027743 0.081414 0.038523 0.040935 0.017334 0.001685 -0.022536 -0.057111 0.006993 -0.027959 -0.063571 -0.088743 -0.067079 0.042546 -0.063611 0.071045 -0.047663 0.021351 -0.020260 0.008798 -0.047376 -0.051880 -0.071330 -0.085749 0.034810 0.027214 -0.024559 -0.074366 0.056002 0.023326 -0.069977 -0.062825 -0.040555 -0.053981 -0.028397 0.087126 -0.013129 -0.041478 -0.007384 -0.012231 -0.008157 -0.038146 0.069070 -0.033406 0.006470 0.076156 0.002534 -0.089172 -0.048722
-0.052087 0.005853 0.079449 -0.067986 -0.087470 -0.013210 0.083062 0.078897 0.006985 0.092388 0.044613 -0.013258 0.011766 0.075267 -0.036912 -0.090065 0.044339 -0.052994 -0.066460 -0.020921 0.052696 -0.068800 -0.083888 0.027612 0.015679 -0.073461 -0.055470 -0.059130 -0.042590 -0.030629 0.002334 0.081128 0.075742 0.011060 0.043577 0.079715 0.074074 -0.062737 0.024276 -0.043959 0.049415 -0.037577 0.064680 -0.033328 -0.024493 0.081452 -0.072122 0.075873 0.086872 0.033887 0.045711 0.059288 -0.043564 -0.010470 -0.042945 -0.025173 -0.013028 -0.008453 -0.021492 0.092602 0.040787 -0.016539 0.050022 -0.064473 0.038189 -0.046707 -0.052893 0.045584 -0.069958 -0.039281 -0.038572 0.050664 -0.082447 0.018410 0.007257 0.045000 0.058880 -0.078522 0.091444 -0.042309 -0.003053 -0.018915 -0.090409 0.047023 0.083291 -0.084242 -0.039227 0.060725 0.043384 -0.066227 -0.065106 -0.085945 -0.017577 0.014717 -0.088064 0.043390 0.008688 -0.062481 -0.072702 0.036298 -0.088462 0.021310 0.040107 -0.062647 0.037224 0.039977 -0.071904 -0.092219 0.078007 -0.082112 -0.040947 0.059844 0.045975 -0.054914 -0.087609 0.021823 -0.089071 -0.024001 0.034218 -0.065512
0.016984 0.045302 0.017870 -0.027140 0.023187 -0.083217 -0.029020 0.025264 -0.007837 0.056028 0.017976 -0.045410 -0.071508 0.052198 -0.033585 0.005564 0.031400 -0.081427 -0.091883 -0.038439 0.107343 0.066270 -0.004899 -0.002814 -0.096461 -0.130458 0.059547 -0.096498 0.058384 0.032886 0.027594 0.081508 -0.056820 0.000486 -0.041738 -0.011213 -0.010581 -0.001866 -0.074344 0.020471 -0.084701 0.009056 0.053084 -0.051368 0.082886 0.095915 0.007051 0.128895 -0.002177 -0.022012 0.050096 -0.065520 -0.053287 -0.036126 -0.092880 0.006054 0.001285 0.047887 -0.010429 0.031637 0.046073 -0.066725 -0.054693 0.071993 0.040521 -0.111582 -0.008320 0.012542 -0.085348 -0.107860 0.024252 -0.079089 -0.046043 -0.066052 0.117031 0.010473 -0.074430 0.041886 -0.028328 -0.042733 -0.037403 0.026701 -0.069528 -0.028974 0.073244 0.068785 0.023965 0.000395 -0.038798 -0.068083 -0.073915 -0.049092 0.124956 -0.073220 -0.123330 -0.082392 0.030106 -0.017581 0.015114 0.007465 0.082687 0.075542 -0.095806 0.010112 -0.081275 0.092394 0.026801 -0.129044 0.091010 0.011930 0.082831 -0.076981 0.046031 -0.125723 0.108567 0.055492 -0.073177 0.083658 0.066931 0.071737
0.058628 -0.083150 -0.066496 -0.044905 0.027318 0.021222 0.008481 -0.078803 -0.005934 -0.005787 -0.084000 -0.053256 -0.088397 -0.058149 -0.032387 0.064388 -0.046332 -0.080749 -0.055694 -0.024183 0.082127 0.025601 -0.015934 -0.080351 -0.098297 -0.086685 -0.085931 -0.051755 -0.081270 0.082444 -0.054700 -0.000144 -0.015979 -0.082899 -0.043190 -0.084291 -0.097048 -0.014976 0.052868 -0.113697 -0.090162 -0.000136 -0.112981 -0.048937 0.076207 -0.004990 -0.036634 0.088506 0.018092 -0.074556 0.028639 -0.062015 0.048372 -0.028530 -0.045670 0.121352 -0.015278 -0.022343 -0.075117 -0.054755 -0.104886 0.082350 -0.115914 0.066346 0.064057 -0.111093 0.046812 0.089153 -0.020318 0.026625 -0.103046 -0.100757 -0.102998 -0.077332 0.090491 0.011042 -0.020638 0.046092 -0.006515 0.025518 -0.085288 -0.102677 -0.104622 0.021556 -0.018932 0.085660 0.029858 -0.038983 0.001444 -0.106103 -0.089473 -0.068724 -0.080993 -0.030215 0.036543 -0.001494 0.011190 -0.007317 -0.068696 0.020958 0.052836 -0.053121 -0.110668 -0.018770 -0.103551 -0.010635 0.035510 -0.066266 0.046526 0.068842 0.037816 -0.019245 0.013159 0.074140 0.014529 -0.088622 0.081626 0.029656 -0.065737 -0.015622
-0.055137 -0.099194 0.075451 -0.016919 0.017404 -0.092457 0.072300 0.008826 -0.045106 -0.073033 -0.121458 -0.014294 0.002141 -0.093726 -0.014931 -0.104997 0.094822 -0.027343 -0.107685 -0.083651 -0.027897 -0.007179 0.054155 -0.062608 -0.023175 0.048760 -0.112391 -0.050378 -0.008945 0.060803 0.009029 0.035896 -0.020317 0.033675 -0.085642 -0.061511 -0.002125 -0.101449 -0.084504 -0.123692 0.044656 0.041020 0.010073 -0.062007 -0.012260 0.075999 0.081032 -0.058233 -0.100272 -0.005158 -0.097133 -0.033006 0.009667 0.000881 0.038163 0.048158 -0.005895 0.011143 -0.126017 0.053747 -0.091245 0.023668 0.043572 -0.052912 -0.080204 0.051525 0.005813 -0.023550 -0.003582 0.012793 0.001761 0.049383 -0.073676 -0.033643 0.059064 -0.111421 -0.002104 0.101572 0.022550 0.019779 -0.089577 -0.048610 -0.084080 0.048013 0.093086 -0.028255 -0.078514 -0.039524 0.004988 0.007756 -0.026377 -0.040808 -0.087450 0.026549 -0.099545 0.025457 -0.024084 -0.030847 -0.064302 0.010869 0.131596 0.012000 -0.087052 -0.088986 -0.056858 0.038862 -0.091599 -0.062712 0.053701 0.071138 -0.034478 -0.009731 -0.084013 -0.039138 0.042428 -0.018798 0.095483 -0.084817 -0.051492 -0.015953
0.036736 0.061810 -0.035579 -0.072513 -0.014626 -0.099993 0.036955 -0.129318 0.093399 0.010863 0.050436 -0.095486 -0.005502 -0.040923 0.009189 0.065913 0.059918 -0.006723 -0.036791 -0.013492 0.039393 -0.016600 -0.002397 -0.034990 -0.037452 -0.109017 0.066279 -0.034197 0.039063 0.027089 -0.011504 0.013204 0.057222 -0.011793 0.017100 0.078066 -0.083417 0.033760 -0.124510 -0.042796 -0.038214 -0.117424 -0.033074 0.039031 0.088256 0.034522 0.065681 -0.013341 -0.072812 -0.107922 -0.003349 0.060472 0.052043 -0.090457 0.025484 -0.062808 -0.075042 -0.018105 -0.103025 -0.037511 -0.039393 0.074345 0.012736 -0.087152 -0.056238 -0.017741 0.016936 0.115060 0.057059 0.067152 -0.033908 -0.108519 0.043267 0.045205 0.090970 -0.071541 -0.016356 0.018362 0.018290 -0.043469 -0.104562 -0.118498 0.033643 -0.014937 0.042329 0.096913 0.041672 -0.097199 -0.088864 -0.014091 -0.028014 -0.028553 0.011726 0.023323 -0.074214 0.044676 -0.019448 -0.066299 -0.060043 0.010367 0.044712 0.082026 -0.037651 -0.002363 -0.027528 -0.061391 0.049625 -0.009256 0.064449 0.072219 -0.051299 0.018506 -0.038245 0.004013 0.123896 0.009397 -0.005294 0.021643 -0.034605 -0.008690
-0.083652 -0.079367 -0.066012 0.059374 0.014977 0.081509 0.044311 -0.079202 -0.015009 -0.030354 0.001802 0.027706 0.027240 -0.054190 -0.087657 0.050849 -0.028118 -0.074256 0.057156 -0.033093 -0.064852 0.079467 -0.091928 0.031155 -0.050180 0.073482 0.066810 0.074242 0.078378 0.001827 0.087043 -0.076012 0.032290 -0.033989 0.004883 0.089225 -0.068125 0.071366 -0.038784 -0.087779 0.082134 0.056939 0.037987 0.019522 0.018834 -0.047223 -0.079339 -0.058051 0.057611 0.001707 0.073913 0.048965 0.028578 -0.059547 -0.090748 -0.055496 0.003754 -0.049420 -0.076857 -0.032068 0.057153 0.067812 0.077973 -0.054165 0.019839 0.067559 0.075697 -0.017813 0.021852 -0.066359 0.032073 -0.025471 -0.049989 0.046452 -0.037103 -0.006610 0.064922 0.057808 0.038336 -0.008077 -0.003472 0.016178 -0.038581 0.016296 0.041585 -0.043149 -0.090223 -0.055998 0.073468 0.028354 0.050458 -0.001025 -0.072537 0.066475 0.082725 -0.029272 0.048984 0.039147 -0.090213 -0.018573 -0.074378 -0.041129 0.056569 -0.080145 -0.038003 0.024969 -0.060893 0.065763 0.076367 0.069359 -0.088940 -0.072509 -0.060980 -0.028109 -0.025425 -0.049539 -0.078316 -0.013001 -0.003647 0.077331
0.123118 -0.037709 0.038717 0.043147 -0.082235 -0.053848 -0.060379 -0.000218 0.012242 0.054225 0.012498 0.121195 0.062696 -0.012376 0.036110 0.086326 -0.068855 -0.023170 -0.053583 -0.004947 -0.032423 0.028198 0.042666 -0.042020 -0.042451 -0.009629 0.057024 0.034359 -0.050314 -0.038829 0.117779 -0.074999 -0.051734 -0.021164 0.014784 0.000218 0.113407 -0.033226 0.009620 0.000382 -0.103857 -0.053536 -0.076629 0.011996 0.104790 -0.053245 -0.048173 0.070464 0.060237 -0.091687 0.070224 -0.015671 0.111080 -0.082331 0.008497 0.080554 0.043567 -0.017626 -0.046558 0.037336 -0.056868 0.046450 0.053294 0.090538 -0.055887 -0.114534 0.020594 0.014866 0.033264 -0.102119 0.050676 0.017774 0.089860 0.087412 -0.000641 0.068777 0.006177 0.010848 -0.010197 0.014593 0.089694 -0.068537 0.015846 -0.025447 0.072842 -0.081875 -0.014551 0.025879 0.023666 -0.075976 -0.047477 -0.036389 0.020023 0.025093 -0.064140 -0.068325 0.042191 0.111287 -0.023458 -0.027946 -0.015782 -0.019810 0.052968 -0.091223 0.025555 -0.043396 0.044774 -0.073849 0.122090 -0.028532 0.033535 -0.085624 0.028497 0.004200 -0.067633 0.038274 -0.067870 -0.027332 0.065113 0.010506
0.044987 0.033605 -0.010056 -0.055265 0.041065 -0.092362 0.039076 -0.096925 -0.058669 -0.113967 -0.022207 0.039529 0.074262 0.073128 0.033907 0.025707 -0.070577 -0.090854 0.084502 -0.045642 0.101032 0.034680 -0.022153 0.011269 0.033077 -0.124098 -0.115122 -0.067546 0.035129 -0.056342 -0.027912 -0.055039 0.022147 -0.083038 -0.091672 0.093950 -0.092886 0.013386 -0.090149 0.001145 0.008368 0.030143 0.014777 -0.049246 0.088890 -0.010785 0.081802 0.047484 -0.069161 0.002536 0.001822 0.047812 0.038816 -0.106737 -0.031465 -0.048461 -0.099219 -0.013414 -0.106005 -0.079269 -0.096215 0.057481 -0.061001 -0.039447 0.016833 0.041237 -0.062710 0.005977 -0.027105 -0.036776 0.042370 0.000867 -0.025933 0.087378 0.027211 -0.103645 0.069003 0.068352 0.043110 -0.044826 -0.002527 -0.017240 -0.007730 0.011178 -0.015253 0.121626 -0.125866 -0.086043 -0.015804 -0.045664 0.000092 -0.063571 -0.062875 0.020096 0.004628 -0.109857 0.052168 0.044970 -0.055701 -0.048632 -0.046759 -0.014408 -0.030507 -0.094847 -0.025117 -0.056401 -0.042990 -0.105136 -0.004482 -0.004267 0.083362 0.029812 -0.028780 -0.108642 -0.037972 -0.043182 -0.072422 0.012937 0.038815 -0.077184
0.023350 -0.014172 0.073711 -0.072702 0.039018 -0.063129 0.006075 -0.008268 0.006790 -0.053921 0.038208 -0.050775 0.047011 -0.078208 -0.043646 0.034233 -0.035177 -0.079796 -0.002840 -0.101178 0.117727 0.035398 -0.040654 -0.073522 -0.061254 0.048440 -0.063999 -0.000157 0.021660 -0.039728 -0.109113 -0.036085 0.047783 0.003344 0.061729 -0.051609 -0.034525 0.019223 0.053960 0.018304 -0.052755 -0.022834 0.009041 -0.106528 0.082392 0.009809 0.001275 0.034952 -0.076059 -0.059334 0.015239 -0.110119 -0.063446 -0.127192 -0.079464 0.015578 -0.077391 0.092277 0.049735 0.005178 0.018462 0.031322 0.038658 0.081458 -0.109987 -0.055418 -0.005064 -0.025868 -0.039630 0.086378 -0.025963 0.023171 0.035236 0.069634 -0.047902 -0.077765 -0.038649 0.048795 -0.040681 0.080290 -0.031923 -0.038617 0.038737 0.026554 0.118583 0.124586 -0.033808 -0.096710 0.046922 -0.047348 0.055011 -0.054796 -0.007633 0.031701 0.038361 -0.064107 -0.111625 -0.026213 -0.102394 0.064874 -0.049175 -0.074751 -0.094321 -0.053247 -0.012304 0.017502 0.034260 -0.106349 0.101650 0.078115 -0.005258 -0.022455 0.053075 -0.000055 0.087494 -0.014473 -0.061072 -0.021282 0.084244 0.049064
-0.021947 -0.044968 0.014635 0.028888 -0.105762 0.051474 0.094622 0.001033 -0.023478 -0.089588 0.037185 0.014087 0.089858 -0.048726 -0.082997 -0.131430 -0.044523 -0.049210 -0.116816 0.055957 0.124619 0.011477 0.041908 0.009846 -0.005802 -0.032846 -0.003678 -0.100675 -0.014234 0.008427 0.009065 -0.101003 0.073005 -0.113007 -0.059682 0.085904 -0.123990 0.053424 -0.035456 -0.097739 -0.051433 -0.039487 -0.005418 -0.023308 0.095670 0.043331 -0.011901 0.002907 -0.084657 -0.110053 -0.066320 -0.028526 0.045187 -0.024155 -0.002515 -0.103830 -0.103940 0.099209 -0.113623 0.008717 -0.022990 0.039097 -0.079059 0.014130 0.053937 -0.112305 -0.013209 0.050930 -0.110612 0.067900 0.050572 -0.085278 -0.051767 0.076471 0.012172 -0.026870 -0.067391 -0.003431 -0.032620 0.078928 -0.084571 0.010066 -0.051538 0.027105 -0.020019 0.111030 -0.063486 -0.094791 -0.053710 -0.109293 0.048598 -0.075138 0.031315 0.032211 -0.012016 -0.102446 0.045500 0.063301 -0.100482 -0.019654 0.045159 -0.060047 -0.036734 0.011925 0.007456 0.057189 0.081161 -0.119666 0.055904 -0.084687 -0.090641 -0.040172 -0.053024 -0.050417 0.020249 -0.030478 0.091788 -0.015080 -0.096068 -0.100243
-0.041158 -0.041134 -0.028282 -0.078335 -0.043007 -0.049116 0.060934 -0.041153 0.029040 -0.092000 0.040794 -0.071998 -0.022559 0.009534 -0.018752 0.026339 0.048788 0.063675 -0.010020 0.046548 0.087867 0.026725 0.001531 -0.008294 -0.116966 0.027163 -0.018060 0.059630 0.048801 0.008485 -0.051607 0.045051 -0.023343 -0.069913 -0.059087 -0.006399 0.037203 0.046114 -0.013540 -0.002645 -0.084471 -0.105094 0.057569 -0.090030 -0.004620 -0.099792 0.083650 0.019701 -0.064421 -0.046831 -0.010897 -0.051184 -0.049622 -0.061986 -0.122551 0.058501 -0.093397 0.041125 0.032939 0.006192 -0.092746 -0.079808 -0.038569 -0.035220 -0.012075 -0.006493 -0.037415 0.036735 -0.061878 0.034804 0.030109 -0.043564 -0.119620 0.022930 0.036871 -0.063359 0.015862 -0.033219 -0.036930 0.121576 -0.065252 -0.009348 -0.041957 0.002597 -0.018931 0.104567 0.034975 0.044359 -0.021212 -0.009268 -0.011465 -0.040725 0.026604 -0.022465 0.053204 0.035964 -0.069298 -0.067179 0.071191 0.014497 0.149584 0.071909 -0.082042 -0.020493 0.036908 -0.064932 -0.041734 0.033946 0.119727 -0.015250 -0.038435 0.039697 -0.042903 -0.017677 -0.019628 0.044464 0.041830 0.095730 0.002140 -0.004785
-0.077554 0.009290 -0.007524 -0.016380 0.062296 -0.015283 0.012416 -0.059014 0.014711 -0.040952 -0.041250 -0.002886 -0.022271 0.071416 -0.042520 -0.030181 -0.083805 0.009324 -0.042899 0.037636 -0.027500 -0.075608 0.056773 -0.006705 -0.027378 -0.094246 0.042924 0.059980 -0.073219 0.048583 0.027957 0.060717 -0.017758 -0.092572 -0.033482 0.043797 -0.123112 0.032548 -0.002175 0.007434 -0.036203 -0.068059 -0.100966 -0.017716 0.026401 0.019102 0.058305 0.041250 0.064876 -0.122075 0.026967 -0.017922 0.065853 0.004731 -0.054661 -0.038150 -0.043172 0.082984 -0.090274 0.028817 -0.117208 -0.051377 -0.004087 -0.035325 -0.042398 0.006055 -0.128533 -0.023309 0.014661 -0.011231 -0.066916 -0.080759 0.028574 -0.052456 0.111899 -0.013766 -0.020412 0.023833 -0.076445 0.116601 -0.002448 -0.080043 0.002408 0.019743 0.125566 0.075394 -0.117140 -0.017724 -0.076081 -0.048014 0.080782 -0.013778 0.064163 0.028879 -0.085857 0.051242 -0.005595 0.038864 -0.083349 -0.055705 0.069967 -0.065277 -0.087923 -0.033686 0.020315 -0.074599 -0.069793 -0.111815 -0.051016 0.061354 0.036217 -0.119095 0.069860 0.069438 0.092432 -0.055269 -0.017307 0.048628 -0.072436 0.065385
0.033967 0.011309 -0.084592 -0.047336 -0.093789 -0.063876 0.056729 0.034596 -0.083507 0.028968 0.007652 0.012492 0.047413 0.030191 -0.014826 0.040260 0.050816 0.058471 -0.109562 0.041734 -0.035928 0.037918 0.026982 0.034559 0.012043 -0.114806 -0.077594 0.042825 0.045179 0.054316 0.051806 0.022436 0.020426 -0.001268 0.074290 -0.050611 -0.039201 0.053772 -0.073576 -0.023284 0.011532 0.019109 -0.085846 0.020754 -0.020734 0.048131 -0.044040 -0.084791 -0.057444 -0.115436 -0.086113 -0.093184 0.074219 -0.078014 -0.092741 0.038065 -0.014614 0.047425 -0.002958 0.045721 -0.107451 -0.077955 0.048866 -0.032064 -0.089696 0.044956 0.015559 0.111606 0.031071 0.043789 -0.101151 -0.046051 -0.029826 -0.019400 0.098617 0.073544 -0.087865 0.086945 -0.062278 -0.038989 -0.043533 0.021098 -0.091729 -0.049633 0.113627 0.005366 -0.095180 -0.105392 0.056643 0.038990 0.021803 0.002918 -0.007302 -0.010145 0.024243 0.054656 -0.080226 0.070045 -0.071018 -0.028851 0.053944 0.034501 -0.015432 0.038510 -0.083610 -0.054434 0.081623 -0.123173 0.095648 0.020478 0.062665 -0.035945 -0.032651 0.073888 0.111124 0.007158 0.008986 0.065601 0.030029 0.025208
0.076333 0.042413 0.009023 -0.027697 0.029470 -0.042887 0.037035 -0.006076 0.009286 -0.024285 -0.033498 -0.023636 0.051128 -0.026395 0.113816 -0.008069 0.014145 -0.001272 0.036133 -0.036913 0.049522 -0.086855 -0.048895 -0.018111 0.046999 -0.048593 -0.004019 0.086022 0.060570 -0.053308 0.036427 -0.044866 -0.047642 0.025492 -0.008918 0.086661 0.044532 0.088655 0.044822 0.095653 -0.075365 0.037609 -0.028516 -0.049491 0.011594 -0.045132 -0.022554 -0.060206 0.046320 -0.096051 0.059547 -0.019277 0.131505 -0.018074 0.073878 0.008879 -0.052348 0.042938 -0.023674 -0.035377 -0.033514 0.060382 0.037341 0.095584 -0.058952 -0.057369 0.075388 0.012596 0.062149 0.003347 -0.013968 -0.049256 0.028979 0.014681 -0.070451 0.027021 0.104125 -0.043488 -0.098903 -0.052487 -0.115102 -0.095083 -0.023710 0.070278 0.125650 0.109462 -0.050597 0.061572 0.031649 -0.072959 -0.009659 -0.081925 0.087620 -0.008588 0.011860 0.017251 0.037687 -0.078348 -0.053333 0.008297 0.124200 -0.056562 -0.012967 -0.031616 -0.052988 -0.006465 -0.048606 -0.130435 0.031167 0.058109 -0.084503 0.050019 0.071121 -0.007653 -0.077931 -0.030953 0.075506 0.040578 -0.017238 0.014572
-0.046662 -0.035172 0.096026 0.023475 0.013053 -0.070353 0.101987 -0.079940 -0.012330 -0.117117 0.036414 -0.020003 -0.037422 -0.006025 0.001811 0.058137 0.053441 -0.089762 0.011176 0.024288 -0.021703 -0.113793 -0.062720 -0.035062 0.015605 -0.100243 -0.047796 -0.094859 -0.040019 -0.008933 -0.049907 -0.101474 -0.007739 -0.069470 -0.014959 -0.032909 0.009473 -0.030918 -0.068756 -0.108180 -0.091063 -0.107981 -0.049637 0.046636 0.025871 0.058488 0.084936 0.025668 -0.018123 0.054191 -0.046936 -0.073970 0.073374 -0.021851 -0.016906 0.043058 -0.090342 -0.024973 -0.032296 -0.041077 0.064625 -0.016945 -0.075070 0.069328 0.065915 -0.130286 0.012993 0.030114 -0.052143 0.041758 -0.001924 -0.017995 0.004138 0.068392 0.049456 -0.093868 -0.011950 0.130315 0.068380 -0.031589 0.044928 0.058844 -0.023681 0.049155 0.097310 0.013119 0.055789 0.046243 0.069352 0.018841 0.084172 -0.035694 0.041692 0.047940 -0.014418 -0.115175 -0.027664 0.032375 -0.083775 0.065499 -0.017143 -0.058345 -0.025510 0.020116 -0.012989 0.090456 0.003115 -0.062809 0.001544 -0.010400 -0.064347 0.002679 0.022269 0.027183 0.123927 -0.009005 0.015025 -0.004191 -0.003969 0.012832
-0.079770 0.067747 0.000387 -0.013780 -0.029618 0.074310 -0.015843 0.003577 0.002598 0.039850 0.019771 0.012943 0.026702 -0.050671 -0.079215 0.085119 0.018929 0.001612 0.043112 0.072179 -0.007587 -0.088513 0.082897 0.062159 -0.077660 -0.043125 -0.053978 -0.065374 -0.057581 -0.075113 0.037412 -0.015157 -0.048390 0.031347 -0.086069 -0.076453 0.087241 0.020215 0.088979 0.026819 0.031407 -0.025832 0.090720 0.016562 0.028343 -0.077750 -0.050629 -0.000333 0.066907 -0.075960 0.042172 -0.030398 0.049289 -0.050359 -0.083319 0.072193 -0.084083 -0.023424 -0.014261 0.077573 0.052145 -0.010999 -0.011676 0.027436 -0.027444 0.079495 0.019990 -0.008647 -0.033241 0.032198 -0.053427 -0.046200 0.055946 0.001915 0.080572 0.051841 0.001546 -0.038078 -0.067779 -0.017841 0.061796 -0.010153 0.085307 -0.002609 -0.052029 -0.085070 0.015504 0.064516 -0.022741 0.031671 0.025452 0.089401 0.024195 0.082500 -0.032074 -0.083692 0.048714 0.047429 -0.019229 -0.035677 -0.035719 0.014669 0.011430 0.086836 -0.079954 -0.044120 -0.011503 -0.038575 0.031575 -0.034320 -0.070093 -0.086583 -0.003903 -0.015685 -0.032885 0.020097 0.040226 0.030524 0.092215 0.020518
0.085594 0.027835 -0.024912 -0.082418 0.080803 -0.043370 -0.023813 0.043208 -0.073680 -0.066393 0.026150 -0.043670 -0.022651 -0.033818 -0.007149 0.015243 0.063777 -0.079859 -0.008829 0.045872 0.002847 -0.046312 -0.061910 -0.000792 -0.033037 -0.080860 0.047205 -0.075971 -0.063668 0.056424 0.039872 0.036828 0.055586 -0.042072 0.088448 -0.011215 -0.007307 -0.055505 0.086581 0.041990 -0.070347 0.069356 0.076643 0.032055 -0.063429 -0.067139 -0.007661 0.007890 -0.069699 0.084539 0.067003 -0.092774 -0.087469 -0.011214 0.002325 0.008472 0.065088 0.042904 -0.087819 -0.060573 0.072930 -0.056824 0.058921 -0.018060 -0.066161 -0.006102 0.085594 -0.009413 0.043993 -0.030218 -0.010179 0.020123 -0.037379 0.060282 -0.001854 -0.003417 0.008618 0.036776 -0.034302 -0.053198 -0.079860 0.071823 -0.026383 0.071892 -0.010465 0.036351 -0.016400 0.000453 -0.034555 0.020991 0.073790 -0.068427 0.075959 0.029932 -0.074053 -0.020359 -0.046962 0.039294 -0.017163 0.084264 0.066168 -0.092712 0.027903 0.040574 0.042011 0.072677 -0.065666 -0.052218 -0.040752 0.019901 -0.035407 0.057822 0.068710 0.088850 -0.079957 0.025511 0.002632 0.074601 -0.002946 0.022045
0.115566 -0.017811 0.007570 0.036750 -0.023151 -0.007538 -0.060021 -0.001193 0.061459 -0.000895 -0.052305 0.041615 0.085029 -0.056964 0.022557 -0.069640 0.095966 -0.055595 0.011637 -0.051602 -0.000461 -0.107360 -0.047374 -0.096243 0.038143 -0.020189 -0.005265 -0.006896 -0.094782 0.039151 0.015790 0.028160 -0.081719 -0.041472 -0.032546 0.097809 -0.121156 -0.024937 -0.051860 -0.060035 -0.065971 0.048777 -0.076830 -0.126592 -0.004020 0.024775 -0.005392 0.060860 0.008841 0.035585 -0.087464 -0.142513 0.070688 0.043916 0.046836 0.014148 -0.065513 -0.016173 -0.050020 0.050502 -0.028836 0.082090 -0.096244 0.122260 0.022506 -0.086646 -0.123568 -0.017926 0.039629 0.021540 0.046747 -0.030529 -0.051346 -0.090282 0.101898 -0.051518 0.091263 -0.035516 0.081015 0.017253 -0.102558 0.059968 -0.115829 0.091547 0.021295 -0.000964 0.034248 0.055263 -0.030705 -0.072192 -0.054273 0.061395 -0.030106 0.042824 -0.037799 -0.123161 -0.009229 -0.011021 -0.034877 -0.010754 0.051211 0.020305 -0.071367 -0.102882 -0.010429 0.011261 -0.071088 -0.084481 0.028276 0.033265 0.018996 -0.120613 -0.091460 -0.024122 0.001222 -0.007106 0.042860 0.021089 0.058804 -0.019868
-0.028292 -0.040535 -0.047703 -0.048645 0.053406 0.007463 0.005856 -0.099333 -0.024629 -0.101010 -0.028915 0.055183 -0.028512 -0.046631 -0.088034 0.025158 -0.066647 0.009824 -0.085964 0.011108 -0.050408 0.025926 0.032771 -0.053534 -0.071369 -0.087517 -0.084949 0.005178 -0.049063 -0.001893 0.026561 0.007497 -0.000100 -0.046421 -0.058612 0.059765 -0.027371 0.008268 -0.054759 -0.128708 -0.007176 0.006975 -0.079668 -0.046211 -0.007364 -0.029639 0.017310 0.002697 -0.003802 -0.020484 -0.018989 -0.036557 -0.047096 -0.087088 -0.042022 0.128262 0.051428 -0.071964 -0.026418 -0.105370 0.032610 0.095613 0.018314 -0.091567 -0.004877 -0.037222 -0.107633 0.074616 -0.073550 0.050856 -0.053215 -0.115911 0.025061 -0.071605 0.095034 -0.005711 0.108739 0.120406 0.026076 0.110111 -0.014333 -0.013790 -0.081703 -0.010023 0.031240 0.002681 -0.064640 -0.031113 -0.083788 0.034371 0.054596 -0.021784 -0.095124 -0.076003 0.049759 -0.041441 0.041307 0.053652 0.031034 -0.131621 -0.045234 0.022168 -0.066534 -0.089805 -0.114668 0.056480 0.057785 -0.011366 0.072834 -0.095118 0.085454 -0.089812 0.097456 -0.007714 0.093526 -0.049834 0.057005 -0.049426 0.058289 0.059132
0.035292 -0.006161 -0.042894 -0.104780 0.010122 0.029642 0.084737 -0.023399 -0.055430 -0.052848 -0.027661 -0.021591 0.000385 0.072089 -0.039919 -0.067305 -0.046850 -0.093258 0.012431 0.085732 0.096591 -0.109029 -0.036343 -0.025789 0.038442 -0.114534 -0.090477 -0.006035 0.030521 0.055065 -0.039126 -0.087345 -0.030852 -0.110807 -0.091506 0.027441 -0.036280 -0.009898 -0.086328 -0.007129 0.046653 -0.022961 -0.029203 0.079473 -0.006161 -0.065010 0.031690 -0.000128 -0.059533 -0.024321 -0.047644 -0.088149 -0.044841 -0.042606 0.001562 -0.084675 0.014210 0.082296 0.045462 -0.109290 -0.013261 -0.021227 0.007723 0.014558 -0.004531 -0.069515 -0.016158 -0.015879 -0.042958 0.046943 -0.119482 -0.119779 0.022062 -0.047993 0.120165 -0.075656 0.022108 0.076659 0.054288 0.017975 -0.014757 0.054948 -0.085833 -0.012388 0.011848 0.002824 0.045464 -0.017619 0.085972 -0.043674 -0.062853 0.088994 -0.101607 0.043490 -0.090725 0.029233 -0.035542 0.054269 -0.087785 -0.103244 0.024462 -0.028777 -0.066401 -0.081667 -0.033419 0.013220 -0.002390 0.009328 -0.064353 -0.068808 0.035596 -0.048376 0.046263 -0.018950 0.115784 -0.038831 -0.056449 0.050192 0.036187 0.026174
-0.022337 -0.010482 0.040546 0.018283 -0.003180 -0.020174 0.021299 0.013340 -0.004571 -0.023239 -0.088646 0.077650 -0.046942 0.050916 0.028241 0.026027 0.045267 -0.103697 0.122333 -0.098584 0.093799 -0.055605 0.064336 -0.081921 0.029439 -0.119651 0.032690 -0.035277 -0.046735 -0.017489 0.048813 0.021401 -0.045568 -0.015549 -0.018409 0.053058 -0.113747 -0.055583 -0.118867 -0.034031 -0.103809 -0.128709 0.012166 0.034826 0.077782 0.041726 0.036404 -0.051813 -0.095023 -0.102424 -0.004196 0.054584 0.105846 0.000666 -0.046214 0.044416 -0.100674 -0.057477 -0.024931 0.027144 -0.081664 0.000062 -0.094534 -0.085102 0.009772 0.029565 0.025063 0.066626 0.002031 0.033608 0.037519 -0.066950 0.003475 -0.039158 0.052929 -0.002526 0.057749 0.114176 0.012818 -0.050099 0.016915 0.049783 -0.063223 -0.011809 -0.018798 0.031927 0.032864 -0.086577 0.032725 0.032211 0.070496 0.039355 0.065446 -0.063363 -0.093437 -0.119890 0.013321 0.045681 0.060830 -0.012504 0.112075 0.042333 -0.053142 -0.004212 -0.022634 -0.081587 -0.014969 0.038404 0.124787 -0.019157 -0.033691 0.047600 -0.046485 -0.097418 -0.001410 -0.122063 0.011846 0.010740 -0.076707 -0.037956
0.037431 -0.001274 0.047942 0.011855 0.007893 -0.036495 0.027548 0.071554 0.017782 0.029380 0.024863 0.004770 -0.081276 0.022346 0.046642 0.038037 0.026186 0.024159 0.058886 0.056241 0.038113 -0.065086 0.046167 -0.017273 0.033302 -0.076314 -0.083588 0.041110 0.085473 0.008643 -0.080602 0.019210 -0.035179 -0.065946 -0.082073 0.014835 0.078210 -0.088960 -0.005612 0.065201 0.085639 0.054862 -0.006517 -0.034311 0.051476 -0.047095 -0.000484 0.068271 0.028715 -0.044628 0.052352 0.008640 -0.009044 0.064205 -0.082553 0.027723 -0.048434 0.046765 -0.019593 -0.051122 0.059897 -0.025922 -0.029309 -0.041950 -0.078312 -0.029830 -0.078655 0.073018 -0.057625 0.060939 -0.053325 -0.022736 0.089233 0.050687 0.005967 -0.084198 0.028701 0.007132 0.001128 -0.015655 0.087951 0.066639 -0.016511 -0.059830 -0.083696 -0.089808 0.016747 -0.084838 0.020553 0.052141 0.042479 -0.010929 0.001815 0.036605 0.082289 0.067717 -0.026895 0.026122 -0.055660 -0.008223 -0.004496 0.074178 -0.066899 -0.000202 0.091124 0.014824 0.020571 0.088910 -0.005520 0.071485 0.005524 -0.091975 -0.044071 -0.012504 0.080147 -0.005504 0.078188 0.042691 -0.086538 -0.077753
0.006834 -0.094052 0.158844 -0.027043 0.035785 -0.002784 -0.056469 0.042071 0.093360 -0.069617 -0.052726 0.106520 0.028622 0.014922 0.013454 0.024773 -0.128193 -0.135459 0.072511 -0.078993 0.091199 0.010680 -0.066455 -0.053019 -0.018975 -0.000260 0.060477 -0.070963 0.012417 -0.049746 0.063516 0.019492 -0.032932 -0.008554 -0.074484 -0.044924 -0.050069 0.019042 -0.018923 0.104345 -0.036768 -0.005497 0.079986 0.003033 0.090934 -0.023218 -0.004889 -0.007958 -0.001074 -0.090042 0.075414 -0.095090 0.057550 -0.042597 -0.054011 0.105557 0.019321 0.061046 -0.047315 0.078200 -0.115676 -0.107518 -0.022950 0.088340 -0.098310 -0.126952 -0.063070 -0.012280 -0.025397 -0.096554 -0.021128 0.004904 -0.129659 0.001482 0.064165 0.018492 0.026790 -0.084380 0.009037 0.069056 -0.013156 -0.018705 -0.006097 -0.058653 -0.028071 0.039519 0.110827 0.082902 0.053814 0.056031 -0.088959 0.068476 -0.018353 -0.119797 -0.128158 0.015882 -0.042545 0.086880 0.087662 -0.016389 0.042509 0.001974 0.083624 -0.004372 -0.021772 0.024269 -0.047767 -0.068024 0.051976 0.033750 0.038398 -0.027432 0.017340 0.018897 0.086067 0.032120 -0.015641 0.086176 -0.055639 -0.082936
0.009460 0.058126 -0.019700 -0.083909 -0.094838 -0.075381 0.010466 -0.090980 0.044135 -0.115997 -0.062959 -0.017888 -0.015447 0.015484 0.056475 -0.111419 0.008174 0.042438 0.007280 -0.055495 -0.038192 -0.035154 -0.051357 -0.065920 0.002038 -0.077177 -0.064324 -0.015744 -0.095089 0.115544 0.013080 -0.038635 -0.007541 0.010374 -0.042664 0.045709 -0.082224 -0.018256 -0.017564 -0.097197 -0.089891 -0.090459 0.028129 -0.000422 -0.012144 -0.006370 0.123566 -0.089808 0.035369 0.039683 0.029648 -0.021831 0.056669 -0.102682 0.014668 -0.054707 0.003497 0.029397 -0.018303 -0.113832 0.058460 -0.069184 -0.112855 -0.018737 -0.019600 -0.068217 0.015415 0.007075 -0.062827 0.111666 -0.001871 -0.098778 -0.029011 -0.023703 0.097232 0.059301 -0.014033 0.056101 0.023444 0.013837 0.007379 -0.001964 -0.021873 -0.046008 0.031446 0.021475 0.026186 -0.010685 0.031376 -0.085528 -0.003605 -0.030457 0.072531 0.035326 -0.046084 -0.114296 -0.028296 0.082937 -0.041886 -0.051886 -0.003668 -0.053234 0.046847 -0.109857 -0.089642 -0.077486 0.059663 0.007543 0.036282 -0.093010 0.011508 -0.014767 -0.054548 -0.008004 0.063595 -0.115472 -0.027793 0.000304 -0.068857 -0.076992
-0.097015 0.011587 0.045837 0.020059 0.001214 -0.048256 -0.028327 -0.032420 0.034577 -0.077657 -0.108554 -0.093366 0.030587 0.031655 0.047108 0.067333 0.024015 -0.040800 0.125190 0.012132 0.039011 0.058508 -0.103314 -0.053168 0.015207 -0.001141 0.065622 -0.000893 0.033435 0.031625 -0.102421 0.072915 -0.051805 -0.009201 0.052431 -0.053968 -0.098985 -0.027782 0.004025 -0.038114 0.044505 -0.070805 0.035518 -0.094430 0.051265 0.063083 0.061758 0.027112 0.056698 0.040545 0.029861 -0.026467 0.053090 0.000976 0.034652 -0.088475 -0.078419 0.042081 -0.048113 -0.003826 0.045806 -0.008786 -0.039673 -0.001619 0.060847 -0.120106 0.000250 0.101420 -0.077589 -0.031574 0.013350 -0.064766 -0.084094 -0.027777 0.002606 -0.081141 0.018112 0.020426 0.021189 0.052718 0.020535 0.010300 -0.002250 -0.077063 -0.019834 0.000681 0.004422 -0.015606 -0.010201 -0.090142 -0.076081 -0.004773 -0.102908 0.062217 0.041599 -0.002540 -0.074892 -0.012026 0.056106 -0.075907 -0.048086 -0.018123 0.020988 0.012183 -0.029402 -0.077119 -0.000181 -0.105479 0.003366 0.003621 -0.025255 -0.066800 -0.065765 -0.098494 0.061899 -0.129466 -0.051746 0.051581 0.007781 -0.013497
0.035321 0.048015 0.070313 0.054373 -0.041874 0.043828 0.032369 -0.042383 0.074379 0.014813 0.051284 -0.087010 -0.068655 -0.081189 0.054632 -0.046249 0.090717 -0.001944 0.017908 0.077048 -0.023514 0.040300 -0.082746 0.023503 -0.127241 -0.060656 -0.072162 -0.071878 -0.099637 0.086364 -0.128177 -0.033631 0.017206 -0.126084 -0.021776 0.080981 0.046333 -0.026891 -0.052385 -0.095664 0.045489 -0.098774 -0.051060 0.117083 -0.045873 -0.055643 -0.018799 0.010950 -0.010563 -0.100351 -0.041455 -0.031190 0.016967 0.051359 0.019077 -0.089314 0.007951 -0.021021 0.083812 -0.115305 0.061267 -0.085752 0.026273 -0.026787 -0.102235 0.045441 0.011004 0.096807 -0.057214 0.066087 0.029003 -0.058591 -0.064845 -0.006159 0.025612 -0.068982 -0.065601 0.108229 -0.049789 0.096313 -0.036981 -0.033449 0.046070 -0.041300 0.117036 0.104637 0.045033 -0.139659 -0.057253 0.042768 0.003991 -0.088522 0.073086 0.055882 -0.119650 -0.028328 -0.055181 0.078544 0.063458 0.067906 0.072666 0.056061 -0.117455 -0.064528 -0.052192 -0.045238 0.072706 0.014510 -0.061221 -0.049617 -0.024276 0.035651 -0.070325 0.043291 0.023274 0.003599 -0.046012 0.035377 -0.014086 0.059952
-0.023651 -0.012942 0.043347 -0.017395 -0.089028 -0.112461 0.047269 -0.111429 -0.063864 -0.094556 0.025442 0.049740 -0.006313 -0.014056 0.069760 -0.075243 -0.046436 -0.007096 -0.015718 0.072150 -0.027185 -0.105581 -0.103242 0.009906 -0.101667 -0.063169 -0.063278 -0.073297 -0.051326 0.000675 0.012084 0.032700 0.008163 -0.127644 -0.008995 -0.067540 -0.056417 -0.003463 -0.107748 -0.034180 -0.083388 0.035836 -0.059215 -0.075130 0.047980 -0.051161 0.059629 0.036100 -0.006871 0.015602 0.000618 0.029868 0.080496 -0.013418 -0.048244 -0.018306 0.002336 0.131701 -0.133495 -0.077216 -0.044077 -0.004008 -0.034790 0.098734 -0.101888 -0.082925 -0.020195 -0.034547 0.021172 0.021890 -0.072549 0.018926 0.025747 0.035184 -0.029727 -0.066447 0.009502 0.006638 0.061583 0.107235 -0.113964 0.023763 -0.048717 0.022648 0.059961 -0.018086 0.058802 -0.062513 0.002265 0.009682 0.027397 -0.016271 0.045054 -0.045105 0.006224 -0.122181 -0.096785 0.079637 0.005263 -0.019745 -0.026062 -0.118297 -0.033168 -0.072725 0.004181 0.052900 -0.016163 -0.082660 0.051431 -0.019049 0.062075 -0.103932 0.037753 -0.086842 0.014479 -0.042943 -0.021103 0.012003 -0.019995 0.031704
0.013867 -0.034638 -0.018243 0.045001 0.040446 -0.007792 0.112560 -0.121484 0.003099 -0.004201 -0.006299 -0.080425 -0.020337 0.060934 0.018262 -0.058522 -0.071415 0.028139 -0.069154 -0.082499 0.035028 -0.057943 -0.064487 -0.019268 -0.014435 -0.081425 0.030978 0.004727 0.022460 -0.001707 -0.008970 0.046239 -0.041016 0.035119 -0.029998 -0.008115 0.036188 -0.118956 -0.092461 -0.033102 0.025817 0.007200 -0.018238 -0.063784 0.050522 -0.018241 0.108342 0.006754 -0.119078 -0.033681 0.091278 -0.091891 0.067295 -0.066973 0.008570 -0.000106 -0.004160 0.038949 -0.000471 -0.091262 -0.040026 0.070431 0.048913 0.050523 0.043422 -0.123358 -0.026185 0.091891 -0.037124 0.033582 0.041567 -0.048029 0.051537 0.034615 -0.013516 -0.084446 0.013807 -0.046734 0.016244 -0.062470 -0.060316 -0.054699 -0.009070 0.019588 -0.006741 0.079898 -0.033743 -0.043244 -0.028594 -0.013320 0.012865 -0.080816 -0.033720 -0.066962 -0.009810 -0.060070 -0.083358 0.048627 -0.093092 0.004941 0.129137 -0.002119 -0.052148 -0.027358 -0.037070 0.017949 0.024392 -0.010283 0.109748 0.062200 0.067315 -0.060760 0.048043 -0.047284 0.106650 -0.095319 -0.028904 0.057500 -0.055234 -0.115952
0.015134 0.024760 -0.075357 -0.038891 -0.008209 -0.071815 0.046172 0.053652 -0.051647 -0.011495 -0.112817 -0.014616 0.057787 -0.066811 0.026132 -0.096971 0.026341 -0.043545 -0.079074 -0.069951 -0.011454 0.049753 -0.055009 -0.018748 -0.020133 -0.111590 -0.102869 -0.026809 0.007913 0.082375 -0.081799 -0.041287 -0.046565 -0.030251 -0.000170 0.052756 -0.027405 0.045114 -0.065525 -0.052867 -0.104720 0.002251 0.019327 0.058479 0.042967 -0.019696 0.078864 -0.081734 -0.112028 -0.122046 -0.049898 0.008053 -0.030677 -0.038302 0.029253 -0.044450 -0.083542 0.011082 -0.054884 -0.032620 -0.031473 -0.000488 -0.127137 0.050985 -0.105692 0.035632 -0.023162 -0.019831 -0.111650 0.028658 0.051745 -0.095203 0.037360 -0.091488 0.057882 -0.078564 0.045892 0.037253 -0.055746 0.016228 -0.049665 -0.107650 -0.117244 0.032929 0.040812 0.056302 -0.070771 -0.020025 -0.098616 -0.112478 -0.063505 -0.071113 -0.065508 0.084174 0.053253 0.010777 0.044246 -0.068714 0.043769 -0.004713 -0.028592 0.098561 -0.052678 0.048684 -0.022801 0.009183 0.048680 0.005467 -0.029834 0.077232 -0.086048 0.037477 0.063254 -0.103430 0.101830 0.017675 -0.012395 -0.044110 0.021631 0.005763
0.095036 0.053084 0.005548 -0.012214 0.004126 0.010564 0.084782 0.007377 0.052454 0.028342 0.112393 -0.074035 0.061478 -0.031440 -0.013194 0.045619 0.013855 0.069504 0.126970 -0.024614 0.050194 -0.055504 0.013686 -0.105428 0.075956 0.099194 -0.005705 0.011017 -0.052584 0.049397 -0.067635 -0.033252 0.038982 -0.094912 0.019260 0.093211 0.079298 0.007465 -0.043453 0.084622 -0.036489 0.041706 0.030074 0.032098 0.063254 0.062914 0.101056 0.027169 0.054144 -0.043269 -0.051386 -0.011665 0.131208 0.004217 0.077729 0.014608 -0.097047 0.015097 -0.023336 -0.091259 0.065151 0.037278 -0.014819 0.026233 -0.103647 -0.095974 0.110206 0.130272 -0.074996 0.098316 0.057360 -0.112866 -0.062173 0.059784 -0.096456 -0.059288 0.051425 -0.039294 -0.036510 0.052546 -0.116384 0.048691 -0.051924 0.051282 0.013719 0.091827 -0.018409 0.043396 -0.095932 -0.048612 -0.047128 0.078152 0.106736 -0.073371 -0.129661 -0.014699 -0.025567 0.079826 0.039383 -0.127046 0.099432 -0.115954 -0.027762 0.000145 0.128754 -0.058788 0.063584 0.051004 0.043658 0.063484 -0.056810 0.118530 -0.047551 -0.037294 0.017443 -0.040147 -0.029014 0.066744 0.108096 -0.012179
-0.023366 -0.001190 0.104276 -0.112947 -0.073209 -0.110545 -0.017019 0.045106 -0.054205 -0.065668 0.001361 0.035915 -0.002196 -0.059594 0.070302 -0.047255 0.005954 -0.095446 0.054061 0.034265 -0.008131 0.055661 -0.034577 -0.014294 -0.118123 -0.086458 -0.094330 -0.010907 -0.014578 0.044778 0.033540 -0.021165 -0.022434 -0.127734 -0.014290 0.088971 -0.101148 0.047073 -0.084584 -0.025060 -0.111464 -0.122148 -0.107136 -0.038391 0.020990 -0.086596 0.050170 -0.056612 -0.001421 -0.073787 -0.057086 -0.091581 0.001757 -0.049145 -0.073664 -0.051052 -0.013435 0.077300 0.047343 -0.128394 -0.088788 -0.073908 -0.128677 -0.006520 -0.014366 -0.037228 -0.079641 0.073570 -0.049868 -0.025438 -0.066769 -0.074357 -0.006279 0.071199 0.002558 -0.036695 -0.017492 0.133135 0.051661 0.098413 -0.040877 -0.056328 -0.106305 -0.066496 -0.045622 0.073930 0.056918 -0.017824 -0.106259 -0.107735 -0.046288 0.021295 0.076953 -0.019084 -0.068376 -0.048777 -0.123397 0.079770 -0.058011 -0.040997 0.104380 0.006052 -0.014053 -0.029687 -0.030212 0.024614 0.012288 -0.088057 -0.029375 -0.090319 -0.085360 -0.049241 -0.039974 -0.012342 0.011796 0.032403 0.009878 0.006084 -0.070239 -0.027950
-0.087201 -0.025040 -0.065494 -0.092605 0.060449 0.073978 -0.009289 -0.040978 0.088373 -0.002205 0.001893 0.079878 -0.025088 0.001383 -0.080024 -0.029522 -0.068496 0.078388 0.091079 -0.076998 0.006708 0.036111 -0.015391 -0.044702 0.064747 -0.089403 0.036145 0.036953 0.051448 -0.077135 0.069255 0.066913 -0.050142 -0.037773 -0.014367 0.014049 -0.086205 0.061717 -0.044237 -0.089483 -0.005260 0.067697 -0.016815 -0.061163 -0.080213 -0.013963 -0.025451 -0.017858 -0.061158 -0.009580 -0.074452 0.029361 0.068355 -0.028850 0.040468 -0.081801 -0.067116 0.089293 0.011006 -0.055840 -0.000211 0.034706 0.079708 -0.031677 -0.056911 -0.022176 0.032768 -0.004192 -0.075930 0.006128 0.008596 -0.085171 0.081851 0.018370 0.045048 -0.009648 0.060204 0.020685 0.089038 0.014295 -0.029550 -0.012389 0.047887 0.042235 -0.063550 -0.084740 0.000562 -0.061166 -0.005974 0.009825 0.090281 0.071249 -0.061183 0.076516 0.007079 -0.063006 -0.041630 -0.045264 -0.089650 0.078418 -0.074960 0.015104 -0.090089 -0.025394 -0.021176 -0.055199 0.049185 0.043470 -0.072022 0.000447 -0.008983 -0.090560 -0.048599 -0.055903 -0.031812 -0.033338 0.073541 -0.073238 -0.087026 -0.024086
-0.015470 0.052041 -0.072266 -0.080629 0.075849 -0.070230 0.073851 -0.000481 0.061967 0.066725 -0.015528 -0.071185 -0.083347 -0.023686 0.053875 0.012673 0.041941 -0.077023 0.055044 -0.053699 0.066692 0.030954 -0.088631 -0.048251 0.031388 0.036208 -0.083069 0.006991 -0.021391 0.071904 0.081717 0.036510 -0.046033 -0.022422 0.074744 -0.006348 -0.010782 0.048168 -0.068866 -0.064645 -0.050582 0.011539 0.038267 0.000110 -0.048435 0.072892 0.046795 0.004988 -0.039136 -0.056961 -0.054773 0.069319 0.085536 -0.006821 0.034567 -0.010696 -0.058628 -0.064999 0.033770 0.031759 0.080381 0.075134 -0.006500 -0.052104 -0.019576 0.091379 -0.079690 0.011848 0.044932 0.036954 0.092394 0.005622 -0.070296 0.080777 0.066578 0.044090 -0.033228 -0.026696 0.036281 0.079876 -0.070825 0.033462 0.067580 -0.027481 -0.002206 0.054224 0.025229 0.010081 0.029392 0.021541 0.004755 -0.067542 -0.022844 -0.076913 0.062770 0.016419 0.073497 0.076565 -0.078726 0.028979 0.009691 0.013066 -0.050389 -0.021080 -0.087841 0.009707 0.026221 0.032108 -0.001978 -0.000143 0.013287 0.029996 0.041764 -0.026628 -0.081924 0.069473 -0.000566 0.022507 -0.006953 -0.006561
-0.008120 -0.077996 -0.011204 -0.091360 0.056690 -0.027295 -0.055124 -0.104037 0.051363 -0.047759 -0.080160 -0.003111 0.029166 -0.036651 -0.064933 -0.131248 0.037284 -0.097029 0.032524 -0.072995 0.043727 -0.106146 -0.030422 -0.066114 0.016390 -0.037620 0.022677 0.044224 -0.105946 -0.087684 -0.067922 -0.024775 0.072844 -0.002513 0.028186 0.025823 -0.040966 0.000383 0.050273 -0.013783 0.029501 -0.045081 -0.010993 0.054453 0.033447 0.061643 0.141965 0.006428 0.060237 -0.009991 0.032978 0.015023 0.132456 -0.039067 -0.024536 -0.081476 -0.067226 0.100094 0.132906 -0.009575 0.002509 -0.077987 -0.111461 -0.087207 -0.071052 0.046205 0.034181 0.088717 -0.024001 0.136802 -0.057910 0.018762 0.024018 0.069391 -0.036550 0.063416 -0.016470 -0.021444 0.069423 0.081589 -0.108991 0.002302 -0.055512 0.032940 0.017291 -0.031164 0.025713 0.063604 0.089849 0.047983 0.018329 0.050255 0.038806 -0.022958 0.011657 0.028951 -0.043192 0.127695 0.079607 0.008719 0.035062 0.007921 -0.018412 0.053129 -0.109329 0.001974 -0.090370 -0.000937 -0.043871 -0.082533 0.001304 0.015632 -0.023077 -0.008505 0.093457 -0.114650 0.013850 -0.015059 0.007527 0.071573
0.063965 -0.108515 -0.084899 0.004509 0.010622 -0.107818 -0.010358 -0.027438 0.005847 -0.106272 0.044249 -0.024966 -0.071644 -0.041494 -0.023600 -0.098899 -0.087546 0.017126 0.072011 -0.004673 0.106648 -0.112484 0.007848 -0.059959 -0.099042 -0.011735 -0.068874 0.000122 -0.010638 0.067096 0.039598 0.022322 0.019829 -0.120826 0.056869 0.013795 0.038751 -0.035098 0.048919 0.012013 0.027404 -0.021358 -0.075790 0.015008 0.034687 0.063065 0.046985 0.036938 -0.110171 0.017086 0.000104 -0.008175 0.045450 0.033705 -0.029824 -0.013050 -0.031785 0.001100 0.089312 -0.072870 -0.020320 0.102660 0.042897 0.052681 -0.094176 -0.065022 -0.129551 0.068813 -0.029031 0.126034 -0.032766 -0.074758 -0.003876 -0.054831 0.017148 0.027175 -0.022082 -0.030037 0.094829 -0.047442 -0.111547 0.013751 0.044296 0.038884 -0.016283 0.010661 -0.096527 0.019240 -0.058840 -0.004306 0.033738 -0.088862 -0.082685 -0.045541 0.004188 -0.104160 -0.029670 -0.052186 -0.002409 -0.038909 -0.015502 0.051139 -0.034432 -0.102560 0.018557 -0.081416 0.072532 0.009266 0.022815 0.025607 -0.017909 -0.000447 -0.008586 -0.103641 0.027580 -0.053082 0.097332 -0.009364 -0.050417 0.031376
-0.114693 -0.110440 -0.038102 -0.029940 0.058399 0.050375 0.012637 0.043591 -0.017334 0.054488 -0.114688 0.068650 0.073710 0.078436 -0.087713 -0.031372 0.063559 -0.003638 -0.033625 0.060803 0.118940 0.025059 -0.033684 -0.042146 0.035158 -0.029990 0.024073 0.032215 0.063540 0.058556 -0.071033 0.056597 0.087625 -0.074268 0.050048 0.098018 -0.047969 0.024824 -0.066506 0.035088 -0.009861 -0.019668 -0.063822 0.115121 0.099793 -0.076873 -0.059058 0.025703 0.025624 -0.099922 0.082290 -0.024293 0.004653 -0.051932 0.003776 -0.036532 -0.037088 -0.035093 0.085395 -0.117722 -0.068066 -0.026168 0.000146 0.005644 0.054586 -0.070719 -0.005404 0.028987 -0.032609 0.059254 -0.042752 -0.110080 -0.066277 0.061139 0.069417 0.077821 0.025647 0.084939 -0.062976 0.045933 0.013714 -0.054972 -0.012053 -0.011548 -0.071615 0.031116 -0.042794 -0.048568 -0.015952 -0.035943 0.081703 -0.017349 -0.027323 -0.055199 0.045450 0.055149 0.003883 -0.044662 0.087296 -0.009911 0.105124 -0.004668 0.039045 -0.035511 -0.111768 0.030632 -0.046759 -0.069353 -0.087609 0.040921 -0.002392 -0.103156 -0.020542 0.028965 0.096845 -0.071236 0.051631 -0.081585 -0.055479 -0.022948
-0.022967 -0.033856 -0.006838 -0.099552 -0.048497 -0.118333 -0.048374 -0.055664 -0.038920 -0.122389 -0.080726 0.056985 -0.075295 -0.063220 0.036696 -0.087782 0.024161 -0.062971 0.096478 0.061174 0.116313 -0.081382 0.036155 -0.112321 -0.085461 -0.026877 0.025662 0.022236 -0.049965 0.026279 -0.082772 0.050634 -0.085546 0.019908 -0.055579 0.051037 0.042709 -0.028736 -0.094114 0.051928 -0.012927 0.050860 -0.012482 -0.071493 0.094263 -0.066733 0.115526 0.025681 -0.086925 0.076040 0.076305 -0.069306 0.020455 -0.033827 -0.095808 0.053238 -0.016793 0.082707 -0.104778 -0.118983 -0.082175 0.058037 -0.022856 -0.068613 -0.096717 -0.010746 0.027721 0.125246 -0.006220 0.041127 -0.019075 -0.069196 -0.002435 -0.011158 -0.051470 -0.100933 0.138046 0.087219 0.014319 -0.015994 0.032753 0.057589 -0.048634 0.018565 0.023925 -0.048111 0.028895 0.028221 -0.041737 0.002684 0.084023 -0.101686 0.077546 0.058662 -0.072823 -0.014466 -0.081635 -0.070279 -0.013555 -0.052699 0.099787 0.010188 -0.010373 -0.013343 -0.036659 -0.036476 -0.094438 0.002464 0.093900 0.067558 -0.044300 0.051989 0.093435 -0.023578 0.028173 -0.064680 0.059295 0.041208 0.071025 -0.008038
0.062623 0.015057 -0.043389 -0.021224 0.090069 0.060047 0.008258 -0.063295 0.090404 0.022002 0.002517 0.009391 -0.032842 -0.064594 0.033331 0.087144 -0.057804 0.071810 -0.039113 -0.065340 -0.031068 0.027371 0.022510 0.023596 -0.009118 -0.005340 0.064625 -0.032422 0.036424 0.018269 0.059388 0.080430 0.083972 0.056347 0.019835 -0.078366 -0.076342 0.017254 0.011054 0.030842 0.045767 -0.058642 0.028597 0.004641 -0.072497 -0.019484 0.004798 -0.081462 0.074405 -0.009352 0.017560 -0.063607 -0.007597 -0.081673 -0.036364 0.051737 0.084852 0.018381 -0.005858 -0.014051 -0.054946 0.077526 -0.084883 0.042343 -0.081958 0.084146 -0.081411 0.012602 -0.084806 0.054115 -0.069242 -0.045676 0.092405 0.003948 0.002045 -0.002119 -0.076249 0.047546 -0.085674 0.052987 -0.069053 -0.022877 -0.046331 -0.073859 -0.051011 -0.084358 0.032508 0.083260 -0.026717 0.063245 0.042184 0.021833 -0.002682 0.068521 -0.027740 -0.022819 -0.086057 0.085658 0.004154 -0.075234 -0.002573 -0.084977 -0.069122 -0.063428 -0.063418 -0.058667 -0.082174 0.043228 0.091786 -0.054743 0.014761 -0.024590 0.042053 0.027635 0.050895 0.053115 -0.026206 0.013111 0.089336 -0.034522
0.059923 -0.067487 0.062898 0.050805 0.009304 0.048686 0.040222 -0.122167 -0.068872 -0.043140 -0.017785 0.006372 -0.063378 0.074692 0.055837 0.068561 -0.001711 -0.028538 0.103378 -0.037078 0.044942 -0.122750 -0.122847 -0.105410 -0.085488 0.114622 0.097823 -0.069283 0.084242 0.019225 0.128119 -0.092843 -0.065483 0.006518 -0.076333 -0.038305 0.060052 0.117889 0.031473 -0.010778 -0.057679 -0.036685 -0.014902 -0.104022 0.001361 -0.005294 0.106525 0.071853 -0.096713 0.038507 0.091058 -0.100210 0.132246 -0.107537 0.120879 0.085199 -0.104227 0.112540 0.011948 0.049684 -0.014815 0.009029 -0.056240 -0.021540 0.072308 0.009822 -0.038224 0.120676 0.029794 0.058189 0.112450 0.044335 0.039942 0.089021 0.077449 -0.062482 0.054825 0.004386 -0.110119 0.055993 0.039434 -0.065905 0.090252 0.006296 0.080760 -0.092138 0.036453 0.001165 0.043910 -0.092143 0.039051 0.020442 0.011709 -0.045600 -0.098518 -0.015297 -0.001735 0.046458 0.017625 -0.007891 0.067472 0.018948 0.005695 -0.099951 -0.030815 0.076921 0.046446 0.015769 0.095557 0.019230 0.039065 0.020058 0.090094 0.024181 0.064098 0.050160 -0.028957 0.046913 -0.009716 -0.016275
-0.021817 -0.008774 0.028710 0.034717 0.057528 -0.044611 0.078750 0.017300 -0.074694 0.002648 -0.078713 -0.038960 0.001359 0.038585 0.054283 0.044342 0.077759 0.029953 -0.038265 -0.008127 0.055133 0.012530 -0.056545 -0.043825 -0.000908 -0.065438 -0.023091 -0.027060 -0.060086 0.071383 -0.017391 0.016604 -0.035238 -0.083156 0.084454 -0.038002 -0.032675 -0.097874 -0.051795 0.038077 -0.075947 -0.115767 0.030736 -0.041289 -0.031917 -0.057891 -0.005876 -0.067030 0.025869 -0.037318 0.031637 0.018605 0.009483 0.010082 -0.073286 0.004779 0.028413 0.055475 -0.078553 -0.095695 0.068304 -0.055341 0.051115 -0.062437 -0.082680 0.024707 -0.097095 0.124438 -0.042145 -0.033081 -0.085060 -0.030888 -0.006536 0.063646 0.021320 0.025194 0.125484 0.052701 -0.012091 -0.061792 -0.026800 0.034440 -0.006330 0.012959 0.003672 -0.030393 0.018269 -0.105878 -0.013840 0.025570 -0.070330 0.010088 0.025107 0.101880 -0.044026 0.051328 0.057338 -0.065984 0.054450 -0.097436 0.028588 -0.012737 -0.126755 -0.051693 -0.088251 0.075885 -0.013997 -0.088156 0.075900 0.034773 0.068153 -0.012061 0.077166 0.013827 0.122594 0.028307 0.075042 -0.054876 0.021335 -0.080334
-0.085657 -0.106747 0.062127 0.036196 0.004550 -0.126718 -0.018977 -0.085396 0.093948 0.005123 -0.059270 0.017222 0.016793 0.068217 -0.075049 0.013064 -0.076277 0.011789 0.066302 -0.020933 -0.021349 0.026481 0.059258 -0.087841 -0.051472 0.006791 0.044772 -0.086197 -0.017469 -0.025798 0.052475 0.020444 -0.022580 -0.078054 -0.091039 0.021361 -0.006544 -0.099191 0.023359 -0.129978 -0.083641 -0.028690 -0.037156 -0.020098 0.007626 -0.043350 0.092989 0.033700 0.058677 -0.048914 -0.081552 -0.108461 0.058342 0.034267 0.049349 -0.044004 0.044556 -0.036323 -0.041798 -0.036218 -0.115789 0.019702 0.047340 0.031410 0.039477 -0.036226 -0.010272 0.083332 0.005649 -0.011996 -0.055895 -0.031341 -0.026825 -0.051442 -0.004660 0.012786 -0.073694 0.118335 -0.065211 -0.009648 0.043924 -0.024463 0.042326 -0.059657 0.081610 0.012961 0.040822 -0.094045 -0.015301 -0.056685 -0.078104 0.048031 -0.091308 0.114456 -0.072788 -0.061841 -0.062560 -0.024103 -0.092962 0.025617 0.039492 0.051699 -0.049925 -0.059414 0.051940 0.019785 -0.028936 0.008496 0.019833 0.074277 -0.067170 0.024973 -0.036525 -0.049214 -0.018031 0.013361 0.035455 0.064824 -0.085540 0.049640
-0.023517 0.057434 -0.071248 -0.100317 -0.032456 -0.007271 0.005406 -0.012564 0.011253 -0.040489 0.011594 0.071966 -0.008351 -0.067455 0.030074 -0.059415 -0.025641 -0.074982 0.042349 -0.072523 -0.001638 -0.078218 -0.071735 -0.049682 0.023840 -0.054220 -0.050026 0.043689 -0.093957 0.014669 -0.102591 0.042787 -0.084777 0.025137 -0.043844 0.084247 -0.051166 -0.017569 0.048223 -0.128910 -0.019889 -0.085138 -0.086355 0.056711 -0.032236 -0.048664 -0.017164 -0.024338 -0.106849 -0.100484 -0.076041 -0.060678 -0.075579 -0.119897 -0.078250 -0.062805 0.024241 0.035469 0.004758 0.041964 -0.088753 0.087167 0.037409 -0.032646 0.018721 0.046824 -0.072377 0.112820 -0.047138 -0.023680 0.043892 0.045287 -0.112132 -0.065723 -0.021237 0.002510 -0.090035 0.143562 -0.076346 0.105538 -0.028358 0.024074 0.031990 0.091288 0.009195 0.099286 -0.082873 -0.058502 0.081056 -0.000781 -0.088442 -0.033544 -0.042577 0.029174 -0.105853 -0.030945 -0.083073 -0.108451 0.006798 -0.074586 0.025850 -0.067623 0.028312 -0.110504 0.017134 0.003567 -0.018267 0.054838 -0.046908 0.062710 -0.091479 -0.002252 -0.076949 0.003189 0.103269 -0.068203 -0.020492 0.014326 0.009353 -0.023973
0.010905 -0.091585 0.025594 -0.063209 0.022705 -0.073955 0.098031 -0.123717 -0.054870 0.020478 0.071028 -0.062628 0.063496 -0.073496 0.029891 0.001280 -0.121046 0.061561 -0.030773 -0.055357 0.050068 -0.086903 -0.049182 -0.102834 -0.101745 0.083783 0.059712 -0.087244 -0.082955 0.083099 0.044290 0.010902 -0.060364 0.039595 0.092582 -0.036882 -0.100519 -0.041846 -0.044094 0.039556 -0.101195 0.022727 -0.043336 -0.035285 -0.018280 -0.076175 0.080712 -0.028386 -0.074157 0.097413 -0.020632 -0.024257 0.090550 0.027392 0.030685 -0.050037 0.007672 0.040942 -0.103923 -0.034290 -0.071494 -0.079109 -0.054983 0.085102 -0.095852 -0.097034 -0.013588 0.019570 -0.051526 -0.007141 -0.053026 0.014094 0.041646 0.011498 -0.036130 -0.056283 0.073971 0.060286 -0.010665 0.115033 -0.032882 0.025520 -0.096707 -0.060087 0.030118 -0.009366 0.081257 -0.058594 -0.014432 -0.117895 0.091617 0.068915 -0.008802 -0.064801 -0.118184 -0.083507 -0.050551 0.087415 0.042430 0.019641 0.093784 0.038313 0.013118 -0.118550 -0.008752 -0.078924 0.000249 -0.041343 0.071073 -0.019013 0.052677 0.052987 0.089126 -0.025607 0.068984 0.054329 0.001027 0.044916 0.096271 -0.110949
-0.093758 0.051398 -0.071901 0.020663 0.024633 -0.051269 -0.006240 -0.057463 0.043105 -0.047393 -0.089267 0.028348 0.045513 -0.089361 -0.005154 0.020930 -0.040695 -0.000790 -0.042516 0.051517 -0.029970 0.056107 0.029212 -0.104755 -0.026473 0.050036 0.002836 0.016837 -0.088780 -0.065243 -0.093046 -0.012101 0.039748 0.022984 -0.067178 0.000713 -0.109759 0.016830 -0.118385 -0.016079 -0.111237 -0.110564 -0.122171 0.000392 0.054380 -0.060921 -0.021947 0.062733 0.060290 -0.035686 -0.054043 -0.102562 0.080556 0.044549 0.052213 -0.001446 0.015527 -0.013395 -0.101063 -0.087964 0.043202 -0.055684 0.001186 0.094074 -0.002549 -0.082795 0.029427 0.126610 0.044509 -0.029322 -0.110722 -0.046529 -0.106622 -0.009724 0.086391 0.048462 0.161933 -0.017247 0.015385 0.065050 0.010684 -0.062146 -0.034487 0.011665 0.125848 -0.006505 -0.011539 -0.077539 -0.081685 0.008200 -0.037508 -0.077785 0.035497 -0.033917 -0.039511 -0.067586 -0.075250 0.000329 -0.040745 -0.017071 0.098825 0.055347 0.010320 0.054584 0.027151 -0.042084 0.075442 -0.066870 0.058780 0.016551 -0.022375 -0.074037 0.070973 -0.095507 0.071272 0.026491 -0.057158 -0.048046 -0.055276 0.014690
-0.062601 -0.021292 -0.088878 -0.109857 -0.014331 0.019816 0.099641 -0.091558 0.059353 -0.008677 -0.005475 0.029512 -0.071499 0.046334 -0.009095 -0.105196 -0.042349 -0.060875 -0.043733 -0.022102 0.023880 -0.004271 0.076358 -0.073395 -0.102387 0.024377 -0.049851 -0.054937 -0.027500 0.042003 -0.036047 -0.050995 -0.076745 -0.068353 -0.077231 -0.063062 0.048718 -0.071747 -0.010314 -0.091769 0.033313 -0.063418 -0.045483 -0.125689 0.089600 0.028104 0.033831 -0.043138 -0.003311 -0.111671 0.013842 0.059991 0.087905 -0.127007 -0.048081 -0.121094 -0.089836 0.051746 -0.042409 -0.038919 -0.048995 0.001958 -0.043321 0.055536 -0.000440 -0.094032 -0.011663 0.023083 0.007707 0.116042 -0.121601 -0.039445 -0.074084 -0.004303 0.043130 -0.092352 -0.014658 0.106845 -0.023145 0.094784 -0.051065 -0.010719 -0.040197 0.015407 -0.012719 -0.052892 -0.091983 -0.083304 -0.031929 0.062175 -0.045357 0.056553 0.053581 0.039045 -0.066317 0.040565 -0.048967 0.071458 -0.092651 -0.086921 -0.038572 0.083171 -0.120346 -0.080623 -0.073855 -0.063402 0.039343 -0.093402 0.009179 0.045172 0.035660 -0.017209 -0.061684 -0.039074 0.074394 -0.048191 0.013691 0.074592 -0.007457 -0.037401
0.157685 -0.115025 0.096870 0.047893 0.068870 0.020798 0.133240 -0.029330 -0.114074 0.088500 0.056293 0.002670 -0.009658 -0.003656 -0.002471 0.044391 -0.079355 -0.076154 0.120486 -0.002432 -0.016921 -0.044505 0.000853 0.004765 -0.004166 0.014469 -0.047215 -0.039938 -0.027348 0.036621 -0.006700 -0.102555 -0.054850 -0.073776 -0.044414 -0.066450 -0.046920 -0.029684 0.050629 -0.126995 0.048515 0.129683 0.049907 -0.099356 0.024152 -0.022742 0.129515 -0.058234 -0.062385 0.017775 -0.016762 -0.057669 0.138745 -0.031401 -0.057180 -0.016187 -0.053351 0.106974 0.108617 -0.075483 0.023168 0.072190 -0.119215 -0.075541 -0.004672 -0.105099 -0.035644 0.122160 0.054343 0.029027 0.009294 -0.028471 0.040325 0.089019 0.067693 -0.094505 0.098915 -0.072405 -0.049978 0.081405 -0.007880 -0.096639 -0.122983 0.021437 -0.023027 0.022611 0.052900 -0.080888 -0.052512 -0.012952 0.048487 -0.013490 0.107874 -0.049116 0.013550 -0.016720 0.059985 0.076078 -0.002497 0.047334 -0.045766 -0.112744 0.033014 -0.086309 0.076343 -0.006585 -0.059549 0.042835 0.088299 -0.046878 -0.062227 0.090580 0.082742 -0.093344 -0.009066 -0.062623 -0.057669 0.085768 0.041884 -0.039007
0.073241 0.036626 0.066399 -0.082242 -0.015086 -0.039297 0.006227 -0.029388 -0.019989 -0.010058 -0.079852 -0.048720 -0.087489 -0.020212 -0.039300 0.070084 0.049181 0.053965 0.023298 -0.000915 0.081320 0.023828 0.017967 -0.106120 0.009483 -0.029328 0.028715 -0.118608 0.063526 0.089802 -0.042528 -0.067342 0.078661 -0.062490 0.090243 -0.058010 -0.031573 0.021760 0.025572 0.021685 0.042566 -0.117338 -0.068354 -0.063930 0.106592 0.072684 -0.037437 -0.079947 0.039233 0.050387 -0.057752 -0.075217 0.085837 -0.115239 0.044226 0.015257 -0.019687 0.003381 -0.052584 -0.060509 -0.018459 0.035374 -0.019014 -0.075954 0.010997 -0.042821 0.028272 0.022564 -0.081868 -0.031649 -0.123525 -0.107130 0.049757 -0.082019 -0.015502 -0.105855 0.001399 0.029839 0.101213 0.095637 -0.054705 -0.026156 -0.067589 -0.039502 0.088935 -0.057714 -0.115607 -0.080037 -0.007178 -0.013168 -0.048918 -0.053528 0.015703 -0.047895 -0.010502 0.012103 -0.053945 -0.016765 -0.089714 -0.027445 -0.047247 -0.072032 0.010620 -0.124950 -0.096023 -0.087112 -0.059003 -0.029110 0.114911 0.036947 0.030338 -0.003906 -0.011917 0.038730 0.059554 -0.125720 -0.035877 -0.000481 -0.015027 -0.016729
0.065299 -0.086716 -0.029240 -0.017866 0.037613 0.037204 -0.062763 -0.013934 -0.074065 -0.039774 0.084612 -0.006002 -0.030704 -0.062768 -0.087280 0.048723 0.017176 -0.018192 -0.080544 0.042978 -0.087342 0.074803 -0.025752 -0.061525 0.087507 0.020755 0.039164 0.016232 0.074332 -0.068120 0.081246 -0.085347 0.090573 0.036550 0.061036 0.050348 -0.044388 -0.022499 0.004466 -0.073280 0.029722 -0.019027 0.040642 0.078558 0.031611 0.054868 -0.068970 0.080272 -0.023987 -0.047058 -0.081300 -0.003279 0.001699 -0.042453 -0.070151 -0.029600 0.025678 0.081031 -0.022065 0.019547 -0.008987 -0.083468 -0.078392 0.078515 -0.017888 0.002583 0.000125 0.022551 -0.090297 -0.010731 0.011510 0.059608 -0.079261 0.009352 -0.041777 0.075156 0.042500 0.077044 -0.027287 0.047645 0.067814 -0.065975 -0.008292 0.014420 -0.001892 -0.038185 -0.070290 0.032514 0.025519 -0.000100 -0.012376 0.042592 0.077909 -0.054306 0.091371 -0.062560 0.024801 0.049952 0.014421 0.069359 -0.017800 0.074113 -0.046682 0.029093 -0.004919 0.040031 -0.046211 -0.069717 -0.056991 -0.012353 -0.045646 0.051423 0.086760 -0.025224 -0.063652 -0.087333 -0.008943 0.008479 -0.080177 0.020779
0.031983 0.025933 -0.079490 -0.047142 -0.043060 -0.024776 -0.092669 -0.004209 0.052218 -0.036610 0.061684 -0.054092 0.087405 0.038803 -0.068727 -0.055816 -0.002075 0.011868 -0.010623 0.035128 0.032471 0.046188 -0.029043 0.002070 0.073789 -0.022095 0.025254 0.005119 -0.040848 -0.050382 0.033144 -0.085257 0.062141 0.016393 -0.057349 0.004466 -0.022757 0.050866 0.004544 0.076986 0.054761 0.009492 0.028759 -0.071943 -0.025837 0.075996 -0.072206 -0.005162 0.089578 -0.078580 -0.026344 0.040409 0.054442 -0.066775 -0.021712 0.029163 0.058679 -0.052232 -0.005348 -0.039187 -0.021624 0.043980 -0.088014 -0.028501 0.052317 0.033303 0.043559 -0.017159 0.047895 -0.012866 -0.035363 0.000916 -0.074365 0.033811 0.001480 0.006810 -0.049697 0.047958 -0.088290 0.077126 -0.032661 -0.060096 -0.006122 -0.079888 -0.079309 0.083356 0.028559 0.047608 -0.044541 0.042175 0.013431 0.085883 0.008353 -0.056662 -0.015458 0.037114 -0.081792 0.080708 0.041044 -0.088686 -0.045635 -0.051559 0.078974 0.092266 -0.030953 0.056664 0.000174 0.072871 -0.085557 0.089832 0.028514 0.071365 0.000206 -0.064447 -0.011449 -0.068924 0.019925 0.032562 0.001136 0.043989
0.072777 -0.025433 0.015481 -0.011880 -0.037249 -0.105391 0.112298 0.001342 -0.098588 -0.059253 -0.105684 -0.054815 -0.013030 0.081561 -0.100372 0.037296 -0.037053 0.061711 0.027691 0.066403 -0.049659 -0.002606 0.099972 -0.047106 0.009603 -0.096179 -0.026932 0.044726 -0.021128 -0.001091 -0.046884 -0.072391 0.009980 -0.068015 0.090517 -0.072835 -0.094007 -0.005539 -0.010940 -0.127913 -0.038774 0.078961 0.027739 -0.035217 0.013680 0.002996 0.084338 0.053862 0.005537 -0.125214 -0.053047 -0.128247 0.122043 -0.008389 -0.107419 -0.107852 -0.035133 0.130250 -0.020327 -0.030305 -0.011438 -0.067193 0.013086 -0.012476 0.043970 -0.114331 -0.065306 0.141036 -0.056645 0.123628 -0.034158 -0.006027 0.052416 0.017897 0.093702 -0.043008 -0.009205 -0.048237 0.098378 -0.007183 -0.005539 -0.058346 -0.106281 0.014018 0.019376 -0.011393 -0.078606 0.078475 0.026159 0.055484 0.090787 0.088943 0.046336 0.042726 -0.065195 0.054417 -0.012570 0.013313 0.050567 -0.055303 0.129912 0.008894 -0.099875 0.049892 0.044468 0.076195 -0.050042 -0.071030 0.076559 0.025082 0.007962 -0.100163 -0.059459 0.037946 0.026032 -0.084159 -0.020620 0.066749 0.084373 0.029069
-0.073667 0.040344 0.068186 -0.041536 0.035896 0.007502 0.008865 0.026986 0.018312 0.011926 -0.042479 -0.058003 0.065701 -0.075475 0.022717 -0.061522 -0.037627 0.036606 0.038139 0.080782 -0.034398 -0.018157 -0.032083 -0.080415 0.015434 -0.019276 -0.107964 -0.124897 0.052556 0.102952 0.010272 0.036945 -0.073093 0.040139 0.064473 0.027379 0.054403 0.017395 -0.031942 -0.002286 -0.008832 -0.017064 -0.060664 -0.013503 0.131461 0.047074 0.001973 0.037261 0.008414 -0.119347 0.045378 0.044319 0.117921 0.011183 -0.117158 0.027788 -0.026341 0.063031 0.015289 -0.044715 -0.067243 -0.018761 0.002474 0.028107 -0.102647 -0.067766 -0.014715 0.118956 -0.030082 0.045762 0.006684 -0.097252 -0.129266 0.042668 0.049984 0.002053 0.085554 0.066783 0.076562 -0.050715 -0.067744 -0.005122 -0.007390 0.077139 0.001284 -0.041976 -0.086213 0.024134 -0.092285 0.002964 0.032471 0.063109 -0.012138 -0.047450 -0.008438 0.029115 -0.051793 0.042663 0.069483 0.044794 0.102771 0.050585 -0.068998 -0.010263 -0.003960 -0.016304 -0.045063 -0.085631 -0.077528 -0.053210 0.047033 -0.080067 0.000724 -0.091033 0.108532 -0.105528 0.035709 -0.062201 -0.091284 -0.087369
0.022914 -0.033835 0.076510 -0.076117 0.062689 -0.092752 0.096343 0.034102 0.056489 -0.018161 -0.020752 0.050410 -0.046447 -0.066592 0.038994 0.043949 0.050839 0.049983 -0.095211 0.082818 0.028212 -0.086488 0.073005 -0.038296 -0.065591 -0.124668 -0.006141 -0.068908 -0.076113 0.005619 0.027323 0.001727 0.011927 -0.015698 0.037108 -0.017018 -0.098843 -0.022984 -0.115913 -0.124428 -0.117716 0.038790 0.041708 -0.013043 -0.005029 -0.076147 0.062434 0.096238 -0.030392 -0.128592 -0.091798 -0.030605 0.052696 -0.009915 -0.004426 0.053171 -0.038557 0.045885 -0.098027 -0.113271 0.013776 -0.014642 -0.042725 0.082836 -0.071886 -0.100529 -0.108180 0.078983 0.056260 -0.067668 -0.025763 -0.047846 0.029554 -0.033494 0.093692 0.107724 0.002728 -0.031164 -0.033768 0.115701 0.021130 -0.053735 -0.109511 -0.011677 -0.049406 -0.026375 -0.098239 -0.067258 0.069592 -0.078796 -0.009108 -0.052881 0.031508 0.051631 -0.017989 -0.085181 -0.073058 -0.028951 0.043063 -0.082561 0.028505 0.063784 -0.016639 -0.073791 -0.126388 0.062133 -0.023159 -0.085073 0.041842 0.086627 0.065140 -0.106060 -0.002034 -0.090423 0.034339 0.045759 0.016126 0.026045 -0.006600 0.001219
-0.007908 -0.017338 -0.028088 0.019917 0.031497 -0.125726 0.057622 -0.059841 -0.020629 -0.053564 -0.089669 -0.070236 -0.020614 -0.028862 0.031676 -0.058901 0.079694 -0.017480 0.032817 -0.027345 0.104787 -0.061184 0.003378 -0.011222 0.049591 -0.021500 -0.024734 -0.025199 0.035055 0.020571 0.009728 0.053587 -0.051942 -0.100356 0.061010 0.055921 -0.079681 -0.069850 -0.003621 0.015155 -0.043378 0.022307 -0.126203 -0.066600 0.115617 -0.085682 -0.020768 -0.023583 -0.099599 0.094283 0.107350 -0.099839 0.091646 -0.069106 -0.106898 -0.007014 0.045748 0.092495 0.004865 0.006897 -0.103393 -0.075754 -0.031833 -0.066525 0.043223 -0.068867 0.000397 -0.014086 -0.103633 0.117979 0.031114 -0.007711 -0.059293 0.089718 -0.035513 -0.061145 0.027641 0.102147 0.050209 0.005817 0.004177 -0.097557 -0.016103 -0.019526 0.008571 -0.037475 0.004032 -0.033474 -0.040086 -0.042650 0.021977 -0.005881 -0.044360 -0.014313 -0.117362 -0.077525 -0.001967 -0.046437 -0.090708 -0.095067 -0.023703 -0.068015 -0.128998 -0.042455 0.030176 0.010536 0.004807 -0.036857 -0.000635 -0.029571 -0.032823 -0.058759 -0.006125 0.065462 0.107074 -0.047102 -0.071277 0.053585 -0.076525 0.053448
-0.058436 -0.074802 0.030273 0.010370 0.089126 0.003082 0.010932 -0.025143 0.035607 -0.001056 -0.088601 0.081353 0.009115 0.043023 -0.090582 -0.052606 0.092468 0.034444 0.064339 -0.015780 -0.015430 -0.009173 -0.067181 0.048292 -0.066549 -0.012890 -0.071592 0.078682 0.061386 0.091021 0.067448 -0.049956 0.069338 -0.038378 0.036772 0.085589 0.088686 0.024884 0.076759 0.049859 0.065892 0.013942 0.039963 0.040686 -0.085707 0.081807 0.063028 0.078379 -0.045465 0.008003 0.063008 -0.014987 -0.008910 -0.084063 0.020080 0.058443 -0.076801 0.010349 0.090273 0.007666 0.069838 0.059742 0.035794 -0.092126 -0.015031 -0.003769 -0.041387 0.058194 0.063214 0.078251 0.028104 -0.038813 0.081800 0.069930 0.009272 0.089466 0.039677 0.040595 -0.090117 -0.079273 0.048254 -0.020560 0.033163 0.079642 0.065621 0.018799 -0.086029 -0.050481 -0.056009 -0.036433 -0.080664 0.079669 -0.072875 -0.060554 0.040701 0.006520 -0.073023 -0.056603 0.059897 -0.090280 0.069674 0.007905 0.069839 0.079249 -0.030521 -0.034798 -0.009477 0.039657 0.050965 0.044389 0.055441 0.091950 0.013779 -0.054244 0.012100 -0.088011 -0.028208 -0.024435 -0.025351 -0.048630
0.026962 0.009577 0.089150 0.024793 -0.078548 -0.106737 0.146002 -0.103851 -0.112772 -0.081759 0.026323 0.016480 0.047219 0.010552 -0.066026 -0.097197 0.022282 0.031916 0.055508 0.025631 -0.005705 -0.083398 -0.004897 -0.074665 -0.040307 0.021823 0.083406 -0.044416 0.076791 -0.090136 -0.040746 -0.042481 -0.036822 -0.031780 0.030885 0.020646 -0.006643 0.023513 -0.085281 -0.027251 0.053415 0.106848 -0.097963 -0.107311 -0.013802 -0.099393 0.114502 -0.112387 -0.065722 -0.045443 0.057909 -0.035970 0.098813 -0.055331 0.049909 0.116202 0.035771 0.090525 0.067638 -0.011132 -0.117838 -0.011838 0.039755 -0.004316 -0.073802 -0.051462 -0.007101 0.073418 0.107646 -0.049479 0.061210 -0.014691 -0.102664 0.018614 -0.025928 0.057279 0.068828 -0.016134 -0.006230 -0.008111 -0.004758 -0.019528 -0.022489 -0.091554 0.083727 0.070990 0.087826 0.080473 -0.087870 -0.004418 0.036845 0.035178 0.102605 -0.018084 -0.065892 -0.056001 -0.047507 0.123029 -0.044619 0.007055 -0.027740 -0.007222 -0.014510 0.047849 -0.050837 -0.039555 -0.041805 -0.000869 0.045497 0.046428 0.025228 -0.027333 -0.037064 -0.138143 -0.028847 -0.066931 0.046034 0.055212 0.059554 -0.090240
-0.059480 -0.100634 -0.073886 0.010469 -0.124807 -0.019143 0.049146 -0.121730 -0.051632 -0.020442 -0.085493 -0.052674 0.073220 -0.044517 0.035750 -0.055523 -0.007614 -0.021951 0.042984 0.034279 -0.004956 -0.040922 -0.084383 0.035835 0.029761 -0.099126 -0.064813 0.051770 -0.054718 0.105817 0.053823 -0.032683 -0.067204 0.010414 0.085162 -0.012942 -0.024814 0.033746 0.024304 -0.032781 -0.092298 0.001860 -0.089775 -0.069084 -0.010843 0.096570 0.057158 -0.069707 -0.050305 0.008932 -0.015200 -0.083672 -0.002169 0.036211 0.018918 0.113301 -0.016689 -0.003877 0.034690 0.051422 -0.047976 0.078759 -0.076772 -0.061716 0.036785 0.030979 -0.060130 0.012272 0.071076 0.103401 0.013976 0.028004 0.043191 -0.084967 -0.022436 -0.068856 0.141494 -0.029488 0.102827 0.043192 -0.114944 -0.039737 -0.109880 -0.069057 0.082600 0.076445 -0.048616 -0.117587 -0.014915 -0.056554 -0.075146 -0.083262 0.073420 0.054492 0.048768 -0.077881 0.033337 0.062593 -0.089282 -0.122241 0.082397 -0.002942 -0.027702 -0.054283 0.018376 0.032192 -0.086955 0.035570 0.038430 0.051350 0.043038 -0.102826 -0.059758 -0.106013 0.048660 0.049711 0.051004 0.032769 0.065270 -0.117273
0.076018 -0.098624 0.067478 -0.016542 -0.111752 0.039667 0.021843 -0.091960 -0.022403 -0.039470 -0.042694 -0.059107 -0.050580 -0.101784 0.066766 -0.111856 -0.076888 -0.073586 0.074253 0.070510 0.084658 -0.104380 0.044961 -0.082465 -0.040161 -0.003285 0.038291 -0.094600 -0.076440 0.118056 -0.122018 -0.061764 -0.088114 -0.062767 -0.065861 -0.035072 -0.023923 -0.102417 -0.089406 0.053875 -0.017209 -0.038772 -0.055588 -0.095877 -0.002704 -0.032733 0.074494 0.092957 -0.047301 0.004625 -0.082607 0.005684 0.042291 -0.085221 -0.009705 -0.045935 -0.120866 -0.035170 0.067651 -0.049698 -0.073235 -0.015314 0.012776 0.043361 0.034830 0.034926 -0.018188 0.025892 0.027548 0.023137 0.004803 -0.022517 -0.082076 0.023953 0.007927 -0.046444 -0.063089 0.084729 0.020097 -0.056169 -0.091914 -0.069457 -0.108959 0.062598 0.088715 0.058703 -0.087550 -0.071792 0.082000 0.024118 0.015400 -0.049524 -0.040204 -0.019598 -0.092691 0.009177 -0.024793 0.019333 -0.042463 0.000893 -0.036276 0.044802 -0.081014 0.052470 0.005032 -0.061632 0.040874 -0.073712 0.108756 0.054262 -0.084617 -0.094311 0.076690 0.032464 0.121745 0.023933 -0.075325 -0.076780 -0.027895 -0.076746
-0.001110 0.015178 0.017645 -0.049081 -0.103295 0.035862 0.051856 -0.086414 -0.005194 0.016942 -0.039627 -0.030859 -0.029790 0.008764 -0.061601 0.056004 0.023277 -0.032695 0.058862 -0.053992 0.066031 0.002540 -0.009632 0.012532 -0.032646 -0.095523 -0.051097 0.057039 -0.050421 0.024655 0.013706 0.075531 -0.004052 -0.045400 -0.063547 0.074908 0.037370 -0.111977 -0.116555 -0.078274 0.005913 -0.122435 0.012160 0.095394 0.005268 -0.075913 0.010254 -0.084766 -0.095828 -0.049845 0.036647 -0.042457 -0.012110 -0.104001 0.026007 0.020393 -0.086494 -0.060443 -0.038722 -0.077770 -0.084994 0.061748 -0.120486 -0.036568 -0.028386 -0.002134 -0.118665 0.000263 -0.071936 -0.046004 -0.007876 -0.009321 0.015430 0.019274 -0.006674 -0.041434 -0.037717 0.155581 0.049232 0.106703 -0.127452 -0.111538 0.003505 -0.011157 0.093505 0.023331 -0.104256 -0.129261 0.064200 -0.088993 0.063728 0.034292 -0.006864 0.049553 0.031784 -0.036303 -0.098301 0.044866 0.028775 0.065050 0.046891 0.062135 -0.117586 -0.117376 -0.007094 0.036604 -0.070833 0.000371 0.107912 0.036998 0.058808 -0.109361 0.062244 -0.102243 0.029012 0.051577 0.075659 0.046332 -0.017484 -0.111373
0.053517 0.062361 0.044000 0.053593 -0.048525 -0.116541 0.130221 -0.037113 -0.067721 -0.123320 0.118099 -0.061505 0.041903 -0.028429 0.036317 -0.078109 0.046255 0.018532 0.050015 0.031112 -0.050587 0.051882 -0.073712 0.059003 -0.075111 0.111992 -0.079009 -0.029483 -0.000889 -0.044734 0.042936 0.025941 0.053597 0.001177 0.012586 0.021600 0.025792 0.034879 0.055566 -0.011931 -0.049053 0.027534 0.032057 -0.127597 0.138968 0.013843 -0.028607 -0.083534 -0.000426 0.105555 0.004734 0.058654 0.102698 -0.079316 -0.018394 0.122388 0.008617 0.018186 -0.040889 -0.056028 0.030671 0.055913 -0.027894 -0.085406 0.052761 0.034365 -0.091628 0.108063 -0.092113 0.078763 0.029815 -0.069039 0.005946 -0.008493 -0.058229 -0.064720 0.097529 0.027073 0.060692 -0.051021 -0.125241 -0.101278 0.043800 -0.021175 0.088756 0.088118 0.086969 0.024309 0.035775 0.030234 -0.012317 -0.101339 -0.044135 -0.116627 -0.109788 -0.123405 0.042955 0.029925 -0.077543 0.020435 -0.031888 -0.083078 -0.053387 -0.021383 0.039364 0.011019 -0.078410 -0.064173 0.092225 0.083701 0.004936 -0.068568 -0.026206 -0.050019 -0.023068 0.022691 -0.052781 -0.058089 0.033715 -0.073521
0.017098 -0.062091 0.033851 -0.046411 0.000311 -0.033365 -0.024584 -0.090827 -0.087294 0.031449 -0.093005 -0.052862 0.055209 -0.074404 -0.011533 -0.112889 -0.017142 0.029521 0.049922 -0.075028 0.106134 -0.039098 -0.003559 -0.101124 -0.035687 -0.002641 -0.018947 -0.053507 0.033029 -0.008701 -0.113576 -0.097499 0.043164 -0.021277 -0.022885 0.084987 -0.106744 0.006985 -0.101149 -0.088820 -0.123944 0.051791 -0.051961 -0.003750 0.042600 0.084257 0.094248 -0.035404 0.051649 0.005799 0.090246 0.037822 0.114727 0.008074 -0.105287 0.008072 -0.066466 -0.029964 0.024966 -0.090839 -0.022952 -0.051236 0.006429 0.054966 -0.096801 0.029375 -0.067715 0.025362 -0.049057 0.026173 -0.095093 -0.071962 0.012967 0.003037 -0.013516 -0.023814 0.041977 -0.025248 -0.012041 -0.043162 0.006946 0.049081 -0.027902 -0.017067 0.112784 0.043091 -0.079737 -0.127911 -0.082522 -0.116733 -0.020455 -0.074101 0.072549 0.007925 0.038450 -0.058271 -0.097098 -0.076323 -0.007957 -0.067799 -0.011495 -0.060868 -0.002368 -0.015202 -0.111552 0.049270 0.091926 -0.031037 -0.004052 0.019062 0.091621 -0.023417 0.066509 -0.005727 -0.046688 0.000246 -0.066376 -0.083757 -0.029333 -0.109415
0.006821 -0.039122 -0.041139 0.017835 0.029056 0.046012 -0.000170 0.022339 -0.083436 0.010363 -0.056598 0.061105 -0.050327 0.017423 0.085627 0.071588 0.087806 -0.054994 -0.032842 0.022930 0.084639 -0.035533 -0.076907 -0.087299 -0.010968 0.024842 0.031908 0.056988 0.059748 0.096636 -0.115666 -0.090493 0.073152 -0.045697 0.031433 -0.036388 -0.029257 -0.004292 -0.104958 -0.012453 -0.043887 -0.049221 -0.088504 -0.061852 0.000368 0.027827 -0.049109 0.079907 -0.107672 0.007661 0.039843 0.058206 0.033971 -0.086317 0.008395 -0.050808 -0.050635 0.067680 0.063714 -0.082592 0.058525 -0.066244 -0.124327 0.048401 0.033836 0.020992 -0.109683 0.035729 0.009383 -0.026058 -0.024284 0.005117 0.002902 0.049613 0.067229 -0.044249 0.000952 0.042130 0.061684 -0.014822 -0.006540 0.025833 -0.057758 0.035317 0.013482 0.101511 -0.013407 -0.069592 -0.056053 -0.051945 -0.048048 -0.049642 -0.049113 0.104742 -0.104465 0.035200 -0.064497 -0.031216 0.067842 -0.084504 0.059914 0.086189 -0.066456 -0.004298 -0.090211 -0.037608 -0.090523 -0.088657 -0.010151 -0.072636 -0.034681 -0.059052 0.031226 0.048785 -0.006326 0.043069 -0.052334 0.005968 0.068410 -0.014261
0.156015 -0.022271 0.129277 0.000910 0.044060 -0.121196 0.006737 0.035543 0.028978 0.045605 0.028875 -0.010123 0.050486 0.029724 -0.074659 -0.107988 -0.029868 -0.081775 0.012979 -0.042237 0.052801 0.067302 0.034190 -0.070927 0.029633 -0.052753 0.013237 -0.014326 0.122022 -0.050423 0.014305 0.010317 0.036409 -0.070655 0.022122 0.003807 0.077166 -0.035617 -0.081598 0.052431 0.022783 0.074694 -0.034792 0.081119 0.116605 -0.017434 0.134088 -0.128114 -0.098858 0.009623 -0.035176 0.072008 0.010224 0.113070 0.030169 -0.011052 0.115465 -0.005149 -0.028335 -0.056276 0.029139 0.017580 0.017771 0.060652 -0.001736 -0.091270 -0.076916 -0.024307 0.056819 0.133031 -0.045867 0.017275 0.026813 0.018772 0.024294 0.001980 0.022476 -0.004179 0.030829 -0.047850 0.040324 -0.062082 0.041874 0.007752 -0.009106 0.116462 0.027725 -0.099180 0.006704 -0.023782 0.090237 0.045846 0.039049 -0.042789 -0.077156 0.043142 -0.060736 0.042296 -0.075984 -0.044427 -0.022578 -0.074421 -0.031144 -0.029338 -0.129183 -0.022033 0.068385 -0.016092 -0.083906 -0.039689 0.003233 0.036404 -0.031272 -0.078070 -0.013634 0.000376 0.042571 -0.022649 0.013059 0.067845
0.030837 -0.025957 0.083582 -0.117290 -0.089247 -0.074101 0.119723 0.043755 -0.095102 0.017007 0.059814 0.045543 0.032724 0.048418 -0.071366 -0.031525 -0.011996 0.044391 -0.092076 -0.066427 0.015217 0.004510 0.035823 -0.038691 -0.111575 -0.101783 -0.029354 -0.042663 -0.099512 0.088592 0.002216 -0.026032 0.084985 0.022980 -0.030558 0.088253 -0.056477 -0.068094 -0.037362 0.038753 -0.024009 -0.097294 -0.120410 -0.022045 -0.014951 0.027206 -0.019490 -0.008297 -0.012973 -0.092188 -0.032725 -0.072650 0.113290 -0.007981 -0.123367 0.027564 -0.062236 -0.014247 -0.024044 -0.034997 -0.116584 0.050814 0.003758 -0.056495 -0.062398 -0.001044 -0.022792 0.011679 -0.044041 -0.003906 -0.006290 -0.031459 -0.059506 0.001241 0.074643 0.007093 0.098596 0.058771 0.052102 0.094716 -0.020188 0.044199 -0.116548 -0.057608 0.022481 -0.035547 0.026007 -0.116138 0.034298 -0.054286 -0.014612 -0.089343 -0.075767 0.069602 0.018383 -0.006235 -0.067532 -0.053646 -0.081330 -0.092114 0.028502 0.073568 -0.028588 0.021223 0.036542 0.014149 0.021237 -0.092374 -0.002242 -0.009860 -0.083322 -0.020249 0.074903 -0.045685 0.076800 -0.005685 -0.038557 0.030032 0.029065 0.054701
-0.090819 -0.049238 -0.038387 -0.003388 0.048047 0.014719 -0.015241 0.029775 0.038276 0.075402 -0.011876 0.019690 0.050255 -0.042221 0.086411 0.024628 0.056739 0.012175 -0.083039 0.038155 -0.091505 -0.057039 0.086547 -0.032710 -0.044942 -0.082800 0.026432 -0.019152 0.056306 0.083740 -0.015989 0.050598 0.008921 0.016054 0.001777 -0.038246 0.078028 -0.076992 -0.025628 0.072421 -0.031555 -0.036349 0.067649 0.020891 -0.082004 -0.013344 0.069908 -0.023067 0.001407 0.015974 0.008227 0.022397 -0.020492 0.070559 0.036006 0.085955 -0.045299 0.071603 0.091399 -0.037584 0.074754 0.012567 0.085866 -0.045856 0.007834 -0.075858 0.043960 0.012094 -0.005592 0.072652 0.076609 -0.074392 0.060615 0.051503 0.009288 -0.075143 -0.016414 0.019022 -0.035917 0.091625 0.030534 -0.050421 0.069086 -0.059815 0.029739 0.030308 0.090194 -0.048030 -0.028984 -0.039718 -0.007276 -0.080397 0.020397 0.046726 0.001099 -0.003709 0.021462 0.036918 0.069480 0.059402 -0.084491 0.032785 -0.003274 -0.073690 0.003725 0.043960 -0.067549 0.068803 -0.033105 -0.007881 -0.072448 0.055603 0.007836 -0.018984 0.058024 -0.091534 0.070998 -0.083507 -0.007811 0.011965
0.005365 -0.052340 0.002347 0.025452 -0.007834 0.048732 0.064821 -0.013996 0.002569 -0.030487 -0.014070 0.068294 0.085807 0.056855 -0.034553 -0.008395 -0.034040 -0.076217 0.013236 0.070000 -0.067685 -0.040441 -0.004834 -0.021419 -0.022790 0.072440 0.003135 -0.023320 0.081236 -0.063997 0.032819 -0.084282 0.062104 0.045314 -0.081716 0.044420 0.054827 0.000440 0.030625 -0.024494 -0.051079 0.068549 0.008402 -0.040533 0.001485 0.012638 -0.092363 0.056880 -0.035480 0.091839 0.016207 0.067239 -0.080704 -0.019167 0.013021 -0.033190 -0.023733 -0.009798 0.015258 0.007090 -0.089636 0.003923 -0.028182 0.033734 0.004603 0.085917 -0.062216 0.013537 -0.086151 0.086074 -0.033104 0.022444 -0.042471 0.001307 -0.074860 -0.073292 -0.013678 0.060497 0.043311 0.072649 0.019823 -0.089370 0.053379 -0.010955 0.049872 -0.010655 0.005008 -0.072587 -0.008141 0.015215 -0.070503 0.052247 -0.085513 -0.024688 -0.034336 0.077467 0.022287 -0.078667 -0.041306 -0.045251 -0.002383 -0.056096 -0.002047 -0.015594 0.046925 -0.013909 0.063815 0.081323 0.043953 -0.086113 0.043096 -0.030987 0.081557 0.037857 0.022797 0.086703 -0.087334 0.042590 -0.009260 -0.059995
0.014186 -0.065419 0.073074 0.035909 0.027410 -0.082465 -0.012138 -0.082676 0.036687 -0.039689 0.021781 -0.039068 -0.030205 0.077752 -0.092412 -0.059410 0.020391 0.049035 -0.066059 -0.029003 -0.028623 -0.078796 0.022944 -0.000640 -0.117905 -0.039317 -0.032185 -0.005877 -0.012560 -0.066050 -0.104326 -0.036414 -0.033027 0.050428 -0.081484 0.005671 -0.005894 -0.098143 0.027298 0.001359 -0.102217 0.018179 0.074842 0.036771 0.099213 0.078583 0.042509 0.065953 -0.009085 -0.013004 -0.089175 0.002376 0.105819 -0.018776 0.007364 -0.009962 0.028176 0.098874 0.096170 -0.077077 -0.118025 -0.048292 0.005666 0.044471 -0.016120 -0.074464 -0.016115 -0.027474 -0.005501 0.070225 -0.116415 -0.112614 -0.098878 -0.000072 -0.043048 -0.032710 -0.003589 0.031466 0.049285 0.074971 -0.003926 -0.105286 0.049670 0.033993 0.028357 -0.026409 -0.089680 -0.017132 0.089598 -0.035552 0.005573 -0.038362 0.120611 0.036166 -0.016368 -0.013868 0.091027 0.096459 -0.051357 0.018438 -0.034765 -0.014866 -0.101976 -0.077581 -0.073820 -0.022139 0.022174 -0.107712 -0.060336 0.043687 0.037201 -0.077949 -0.009623 0.010297 -0.042240 0.037135 0.008952 0.060664 -0.081194 0.032789
-0.099070 0.041293 -0.052944 0.036425 -0.094235 0.005227 -0.053333 -0.003056 0.057301 -0.127202 -0.097815 0.009950 0.012443 -0.035789 0.073257 -0.116470 -0.021434 -0.014725 -0.079715 -0.023884 0.066789 -0.106867 0.005682 -0.106995 -0.065756 -0.072565 -0.077775 0.000073 -0.115682 -0.050503 -0.078348 0.070235 -0.054989 -0.032142 -0.071455 0.000628 0.036596 -0.003993 -0.069534 -0.064142 -0.006509 -0.019386 -0.007414 -0.052571 0.091879 0.084870 -0.000970 0.061858 0.013141 -0.123609 -0.017594 -0.034937 -0.033939 -0.065473 -0.062512 0.036810 0.040187 0.058089 0.078459 0.001899 -0.056580 -0.012225 -0.113102 -0.036663 0.056799 -0.019015 0.038084 0.063535 0.050474 0.124589 -0.096182 -0.099629 -0.097771 0.062738 -0.032700 0.026363 0.048722 0.060125 0.060862 0.018268 -0.048764 -0.049775 -0.016296 0.041269 -0.015527 0.111929 0.057993 -0.057887 0.051582 0.005614 0.072993 -0.015102 -0.013829 -0.060489 -0.037286 -0.060460 -0.087275 0.065483 0.075025 0.047344 -0.007888 0.071598 -0.085823 0.021651 -0.054149 0.076712 -0.084935 -0.030723 -0.036642 0.063422 -0.077622 -0.015213 -0.002766 -0.030403 -0.030698 -0.095743 0.025963 -0.010964 -0.092441 0.005708
