0.002661
-0.023953
-0.004480
-0.037688
-0.035310
-0.037679
0.007608
-0.037687
0.003743
-0.037256
-0.027942
-0.011384
-0.007165
-0.018538
0.002501
-0.035813
0.014377
-0.018939
-0.028040
-0.014287
0.030476
-0.022132
-0.010950
-0.027887
-0.037687
-0.037687
-0.026886
-0.036052
-0.024146
0.036208
-0.037688
-0.016144
0.000000
-0.037688
0.000000
-0.000965
-0.037688
-0.037687
-0.036079
-0.037687
-0.037687
-0.037667
-0.035690
-0.045394
0.041940
0.017199
0.036909
0.007767
-0.024558
-0.037678
0.011174
-0.020854
0.006080
-0.037687
-0.037687
-0.037679
-0.037686
0.017208
-0.024758
-0.037061
-0.023812
0.008231
-0.037686
0.000732
-0.023752
-0.037687
-0.037687
0.032407
-0.019474
0.047887
-0.037686
-0.037678
-0.037686
0.000000
0.033521
-0.019764
-0.001945
0.062078
0.023838
0.025291
-0.037687
-0.027114
-0.037681
-0.015026
0.029649
0.034121
-0.034392
-0.045931
-0.017665
-0.024516
0.000000
-0.016393
-0.010431
0.036356
-0.037738
-0.037685
-0.031451
0.003774
-0.022562
-0.022759
0.010417
0.021114
-0.037686
-0.037688
-0.037686
0.000000
-0.009461
-0.040429
0.016316
-0.002237
-0.009821
-0.037686
0.008721
-0.015620
0.042685
-0.037553
0.018742
0.007689
-0.001051
-0.027429
