0.184592 -0.101098 -0.128742 -0.027140 -0.002568 -0.176269 0.019294 -0.190287 -0.117817 0.151173 -0.112234 0.025743 0.007599 0.025049 -0.096815 -0.112560 0.094109 0.009837 -0.090308 0.182690 0.142422 0.133583 0.107558 -0.032697 0.177598 0.162270 0.099361 0.196795 -0.056288 -0.074259 -0.046253 -0.041611 0.021424 0.122284 -0.137964 -0.142186 -0.081284 0.101236 0.017353 0.078000 -0.128655 0.032953 -0.156863 0.136385 -0.112653 0.062994 0.082082 0.078317 -0.121001 0.012058 -0.025688 -0.190962 -0.028766 0.186227 -0.056527 -0.052481 0.087622 -0.061462 0.080107 0.062302 -0.051464 0.178462 -0.072695 0.040565 -0.138613 -0.144989 -0.070115 0.016172 -0.009767 0.005364 -0.140455 -0.146871 -0.169577 -0.167033 -0.015266 0.053176 0.070014 -0.026608 0.080645 -0.009078 0.128141 -0.161004 0.121274 -0.042898
-0.050474 0.171726 -0.119827 0.062361 0.121453 -0.160193 -0.006952 -0.127004 -0.085573 -0.097672 0.009146 0.076129 -0.095335 -0.075435 -0.126478 -0.190234 0.060512 0.105476 -0.010253 -0.017623 -0.017043 0.053475 0.017832 0.142630 0.065564 0.136088 0.027377 0.060521 0.027462 0.006442 0.067830 -0.073632 -0.015748 0.045802 -0.068924 0.025704 -0.094183 0.011915 -0.093834 -0.099373 0.121377 0.165700 0.199115 -0.120824 0.094256 -0.132335 0.162139 0.157859 0.024100 -0.054973 -0.030022 -0.069871 0.112635 0.048376 -0.166018 -0.106564 -0.003978 0.124244 -0.120343 -0.133116 0.140783 -0.049241 0.104683 -0.152393 -0.062845 0.008288 -0.112018 -0.124160 -0.158898 0.046882 -0.086585 0.084124 -0.200158 0.139537 0.069866 -0.119297 0.119521 -0.071672 -0.173593 0.179282 -0.043242 0.101966 0.020563 0.164839
-0.126398 0.066289 0.099066 -0.028751 0.011010 -0.180912 0.153338 0.036771 -0.040633 0.118471 -0.099089 -0.094573 0.191171 -0.201467 -0.017239 0.083548 0.110340 0.087378 0.140837 0.042975 -0.177211 -0.023994 0.058912 -0.062856 0.194407 -0.026344 -0.056566 0.093118 -0.128670 0.099521 -0.047878 0.105997 0.060988 0.009982 0.091550 -0.185642 0.165994 0.074994 0.197630 -0.099147 -0.080442 0.191080 -0.148988 -0.073372 -0.052268 -0.153829 -0.085827 -0.075038 -0.043463 -0.139178 -0.137118 -0.048683 0.052046 0.182254 0.024175 0.049871 0.008428 -0.125766 -0.105219 0.098900 -0.033554 0.123223 -0.134428 0.103841 -0.124333 0.006830 -0.057438 0.018555 0.028183 -0.109858 0.042116 0.047888 -0.051040 -0.146441 0.030817 -0.079301 -0.106582 -0.061462 0.145645 0.065802 0.154710 -0.201974 0.126635 0.037469
0.083370 0.016104 -0.023182 0.009898 0.064068 -0.099615 -0.093187 0.050437 0.099511 0.004549 -0.051316 0.177343 -0.070860 0.068489 -0.048694 0.100487 0.045029 -0.138235 -0.035625 0.191179 0.125690 -0.078107 -0.165937 -0.006981 -0.134283 -0.097714 0.013490 -0.019465 0.073165 -0.176787 -0.054158 -0.108107 -0.031110 0.016053 -0.129989 0.089586 -0.110741 0.060092 -0.025872 -0.077112 -0.058189 -0.089309 -0.158782 0.166388 -0.030385 -0.022526 0.125788 -0.065536 -0.099370 0.015536 -0.109288 -0.071435 0.130228 0.034634 0.179443 -0.099439 -0.103668 -0.019302 -0.016628 -0.083811 -0.164416 -0.093017 0.078264 0.069648 -0.137993 0.130080 -0.049837 0.030045 0.029881 -0.045393 0.078261 -0.129375 0.087959 -0.148543 -0.143491 0.063664 -0.006608 -0.049532 0.016235 0.043756 0.004361 -0.063138 -0.062816 -0.136583
-0.157104 0.157222 -0.017277 0.167812 -0.133526 -0.041347 -0.014410 0.044556 -0.054002 0.139502 -0.080500 0.033026 0.058075 0.121654 -0.016703 0.000227 -0.070299 -0.154259 -0.033204 0.125452 0.050298 0.102813 0.009119 -0.136436 0.127315 -0.086528 -0.160272 -0.146779 -0.040229 -0.080888 -0.112964 -0.036539 -0.098473 0.093553 0.035497 -0.130431 0.134608 0.108678 0.014582 0.148284 0.110681 -0.029408 -0.023601 0.015371 0.057624 -0.050618 -0.027632 0.027005 -0.105234 0.120900 -0.145687 0.087319 0.106464 0.045817 0.058434 0.113063 -0.135966 -0.109880 -0.019493 0.020397 -0.000581 -0.137360 0.111413 -0.024200 0.071910 0.109781 0.006638 -0.128303 0.043947 0.129888 -0.022939 -0.149639 -0.118869 -0.098496 0.114840 0.137899 -0.163329 -0.146459 0.078893 0.109904 -0.003846 -0.131482 -0.170612 0.051261
0.156202 0.054972 0.069294 0.036270 -0.155957 0.023857 -0.148720 -0.136200 -0.071708 0.167509 0.052294 -0.061736 -0.007039 0.186835 0.170857 0.027945 -0.086599 0.077215 -0.084973 -0.056918 0.047552 0.121757 0.109253 -0.029518 -0.011758 -0.093230 0.068424 -0.099177 -0.044051 -0.071395 0.115094 -0.164912 -0.141448 -0.116221 0.038951 -0.129885 -0.175711 -0.076997 0.175280 0.035182 -0.053155 -0.075465 -0.151162 0.039588 -0.101512 0.048591 0.039738 0.110494 -0.011393 0.004547 -0.007530 0.191936 0.171465 -0.125527 -0.189046 0.207662 -0.001180 0.096673 0.009403 -0.017213 0.127463 0.182377 -0.121469 0.045692 0.096628 -0.036717 -0.158786 0.045904 -0.045848 0.147807 -0.112947 -0.021004 0.075202 0.021835 -0.192515 -0.135059 0.175973 -0.047368 -0.052059 -0.047319 -0.051795 -0.029418 0.158497 -0.018604
-0.005324 -0.040922 -0.117813 0.078208 -0.120253 0.051046 0.096866 -0.046454 -0.089652 -0.080883 -0.152663 -0.085529 -0.077827 -0.140032 0.001302 -0.089086 -0.182592 0.182146 0.035861 0.047729 -0.158798 0.042105 -0.143903 0.008672 -0.042894 0.085797 -0.170682 -0.028981 -0.014252 -0.027978 0.064845 -0.085368 -0.018635 -0.178677 -0.110395 -0.063232 -0.087451 0.116300 0.148591 0.109963 -0.093969 0.006484 0.047316 -0.078193 0.081941 -0.012855 -0.021473 -0.106446 -0.148669 -0.190499 0.089793 0.119167 -0.033377 -0.059419 -0.186590 -0.128518 0.092046 -0.049442 -0.156085 0.076971 0.007250 -0.002100 0.026700 0.149662 0.162003 0.019629 0.061623 -0.185349 -0.020517 -0.023058 0.136329 0.041763 0.092180 0.166881 -0.111106 0.043089 0.001156 -0.159603 0.121660 -0.037011 0.156046 -0.087231 -0.014776 -0.061367
-0.166641 0.014560 -0.094511 0.061506 -0.028365 -0.067668 -0.080865 0.013218 0.102999 0.127583 -0.038828 -0.096433 -0.094275 0.132478 0.052052 0.028872 0.027731 0.112918 0.033851 0.152061 -0.088431 0.003429 -0.042876 -0.208661 -0.158758 0.024074 -0.063965 -0.066275 0.084130 -0.128821 -0.184101 -0.056534 0.052199 -0.117268 -0.117907 -0.095683 0.113409 -0.095490 -0.117765 0.138706 0.086536 -0.020943 -0.048440 0.196870 0.079457 0.087494 -0.019960 -0.004032 -0.131937 0.013232 0.067147 0.109863 0.107475 -0.204508 0.170464 -0.109294 -0.050834 -0.091138 0.035833 0.029527 -0.136452 -0.080493 -0.145506 0.080410 -0.056365 -0.016097 0.077386 -0.009062 -0.053837 -0.064915 0.010892 -0.104054 0.096198 0.111978 -0.006453 -0.015555 0.067203 -0.066930 -0.165683 0.069948 -0.065965 0.107378 -0.203615 -0.025967
-0.000726 -0.101537 0.098981 -0.170105 0.048334 0.019293 0.211894 -0.010402 -0.011874 0.167417 -0.064315 0.220419 -0.016297 -0.085314 0.012912 -0.113901 -0.135569 -0.027393 -0.081822 -0.164548 -0.055402 -0.147630 0.014523 -0.134627 0.147087 0.079261 0.103789 -0.197619 -0.193941 0.061214 0.068811 -0.092606 0.120418 0.143813 -0.042143 0.166607 -0.022591 -0.081249 -0.054073 -0.129009 -0.182934 -0.024393 -0.007991 -0.062737 -0.192264 -0.023434 0.125977 0.083072 -0.088691 -0.098775 -0.016802 0.086820 0.003851 0.147529 0.038177 0.032579 -0.071525 0.175174 -0.082464 0.132290 0.094372 -0.100364 0.036063 0.154266 -0.007258 -0.076717 0.074309 0.077251 -0.057247 0.116284 0.023457 -0.017035 -0.059714 -0.151274 -0.084190 0.134532 0.053619 0.024252 0.120093 -0.070449 -0.167234 -0.148401 0.089804 -0.163340
-0.145083 -0.045844 -0.047131 -0.167857 0.009309 0.062381 -0.048304 0.058894 0.120702 -0.012263 0.126983 0.010214 -0.168764 -0.068277 0.035839 -0.046611 0.110360 -0.057152 0.130463 0.097419 0.079672 -0.063319 -0.009952 0.008548 -0.104547 -0.163574 -0.013563 0.144369 0.129359 0.117344 -0.093381 0.136994 -0.107905 0.139999 -0.155827 0.111151 -0.071521 0.024475 0.149606 -0.077643 -0.082087 0.086087 0.162223 -0.058271 -0.041433 0.012850 0.037559 -0.107714 -0.078204 -0.124670 -0.039872 0.027906 -0.099175 0.006756 0.042931 -0.012040 -0.033140 -0.064568 0.039376 0.026114 0.084804 0.067290 0.035743 -0.032818 0.097487 0.043031 0.057911 -0.045685 0.189123 -0.118794 0.009786 -0.000177 -0.008626 -0.038688 0.031669 0.005052 0.146564 0.032821 -0.099371 0.156944 0.089351 0.041491 -0.115675 -0.123922
-0.014010 -0.054615 0.103343 -0.141705 0.082790 -0.024749 -0.067100 0.080412 0.145634 -0.135485 -0.165867 0.012854 -0.123993 0.180803 0.104579 0.069633 -0.001130 -0.139155 0.049155 -0.119332 -0.171310 -0.135024 -0.022755 0.177369 0.091610 0.179772 0.163316 0.102820 0.016144 -0.040241 0.128376 0.004229 0.066355 0.105394 -0.071583 -0.015364 -0.080896 0.105437 0.102966 0.053819 0.115641 0.016851 -0.089554 0.079721 -0.126428 0.064685 0.064699 0.067929 -0.047593 -0.160809 -0.127805 -0.014596 -0.163154 0.092812 -0.012938 0.012475 0.022384 0.089246 -0.034117 -0.082153 -0.174432 0.043089 0.158673 0.149686 -0.103879 -0.046338 0.124882 0.072902 0.028763 -0.084550 0.014169 -0.154623 -0.122915 -0.000823 0.041558 0.068090 0.110726 -0.075337 -0.161687 -0.036893 -0.175313 -0.164517 -0.103847 -0.039864
-0.069913 -0.003497 -0.152528 0.056471 0.076998 0.205488 0.143634 -0.042201 -0.104999 -0.024041 -0.016052 0.194512 0.015214 0.078322 -0.139609 -0.195470 0.010018 0.153635 -0.118052 0.094701 -0.125592 0.171231 0.109312 0.122771 -0.077523 -0.100515 0.080304 0.111557 0.046938 -0.123843 -0.050232 0.003120 -0.009721 -0.064473 0.170909 0.053551 0.006814 -0.054075 0.132334 -0.088648 -0.059365 0.113144 0.162147 0.126248 0.042279 -0.126559 0.100192 -0.083955 0.018680 -0.049616 0.008183 -0.063713 0.131521 -0.123076 0.100742 0.092903 0.059667 0.038737 -0.024170 -0.075760 0.113775 0.155254 -0.143100 -0.169637 -0.133850 -0.127150 -0.088890 -0.107109 0.037140 -0.006210 -0.094034 -0.123593 -0.082198 -0.065298 -0.122875 0.109486 -0.208894 -0.125236 -0.072918 -0.203715 0.052729 -0.163381 -0.115573 -0.066918
-0.042005 -0.129027 -0.034311 -0.019286 -0.074771 -0.140617 -0.041921 -0.169604 0.094140 0.079462 0.067204 0.027356 0.014238 0.061090 -0.063919 0.063917 0.098313 -0.074929 0.097834 -0.028008 0.083300 -0.055107 0.099441 -0.030339 -0.118788 0.129832 0.121198 0.004181 -0.159187 -0.167862 0.089588 0.005865 0.115215 -0.118743 0.007976 0.134588 0.122440 -0.104643 0.076971 -0.060387 0.081282 0.056135 -0.082101 -0.083002 0.057777 0.132427 -0.058430 -0.078553 0.054965 0.152970 -0.147830 -0.164857 -0.079718 -0.042444 0.020950 -0.158168 0.037326 0.003129 -0.171312 0.161844 0.145120 -0.144568 0.139442 0.089367 -0.146672 -0.099068 -0.160683 -0.084228 -0.094195 -0.136510 0.101225 0.154076 0.110987 0.081563 -0.002686 0.147484 0.023707 0.084669 -0.116638 -0.091829 0.055527 0.011998 -0.062584 0.089488
0.050749 -0.135278 -0.063173 -0.025174 -0.123394 0.085605 -0.115577 -0.033703 0.127164 -0.137280 0.055051 0.107242 -0.004223 -0.050695 -0.124721 -0.111642 -0.157735 0.047755 0.120183 -0.100596 -0.050602 0.041249 0.045239 -0.045762 0.070044 -0.075092 0.024790 0.011979 -0.158253 -0.108471 0.094304 -0.035135 0.119828 -0.112110 0.105737 -0.080278 -0.060306 -0.065721 -0.027986 -0.132586 -0.052685 -0.101046 0.008959 0.147822 -0.036017 0.120002 0.006321 0.090504 0.054932 -0.049410 -0.009978 0.101025 0.137161 0.154079 0.163834 0.135527 0.109283 -0.022493 0.120281 -0.158995 0.072173 0.142257 0.081852 -0.027886 0.081280 0.119097 0.070012 0.111234 -0.097447 -0.110155 -0.037777 -0.005177 0.051721 -0.110386 0.059125 0.029024 -0.010561 0.047446 0.060700 0.048739 -0.090926 -0.003536 -0.105345 -0.102139
0.018490 -0.038613 -0.118502 -0.057701 0.034385 -0.143318 -0.023390 -0.166564 -0.123776 -0.068340 -0.101969 0.021188 -0.104583 0.095616 0.097360 0.005184 -0.028298 0.034762 -0.046698 0.001199 0.081585 0.003558 0.072504 -0.197743 -0.059663 -0.196332 -0.147415 0.195547 0.076592 -0.193129 0.052083 0.120650 -0.026213 -0.103184 0.043791 -0.156631 -0.066013 -0.031316 -0.050701 -0.041829 -0.195006 0.065730 -0.125836 -0.005886 -0.099023 -0.083475 -0.000406 -0.093525 0.069893 -0.130915 0.048054 0.063340 0.188174 0.081448 0.006331 0.152074 -0.165610 0.100908 0.000518 -0.136337 0.068200 0.137663 0.130570 0.059899 0.043658 0.181859 0.098676 -0.093085 0.143761 0.044821 0.181418 0.136122 -0.133663 -0.113034 0.069607 -0.071049 0.029993 0.073490 0.095488 -0.009214 0.076257 -0.011573 -0.154702 0.130729
0.065918 0.125614 -0.155219 0.056307 0.086350 0.146742 -0.050329 -0.010722 0.185529 -0.153562 0.009697 -0.084598 -0.047298 0.196033 0.078679 -0.075612 0.036617 0.191395 -0.046515 -0.003327 -0.161129 0.172993 -0.153530 -0.060941 0.071070 -0.048536 -0.145516 -0.011468 0.058663 0.015786 0.062762 -0.087295 -0.187019 -0.034848 -0.119219 0.128055 -0.097469 -0.037577 0.071826 -0.139015 0.083506 -0.028099 0.025160 0.001016 -0.044824 -0.147256 -0.200796 0.021110 -0.086116 -0.122480 -0.091034 -0.071004 0.004792 0.105149 -0.133755 -0.059459 0.026542 0.115214 0.008847 -0.166837 -0.034771 -0.150977 -0.148151 -0.119927 0.023597 0.099789 -0.057398 -0.201489 0.131941 0.130878 0.043474 -0.039018 -0.085139 -0.103005 0.032989 -0.104309 -0.100281 -0.083098 0.047871 -0.113902 -0.113654 -0.086415 -0.104179 -0.084339
0.027634 0.116074 -0.010324 -0.042685 -0.140301 -0.098141 -0.012635 -0.136561 -0.169398 0.111848 -0.062097 0.064611 -0.122508 -0.119610 -0.035729 -0.156122 -0.090592 -0.107295 0.061542 -0.101506 -0.016623 -0.059552 -0.135825 -0.040816 0.146723 0.143242 0.088079 -0.172307 -0.017779 -0.106981 -0.096842 0.060383 0.095305 0.063525 0.072796 -0.062150 0.012886 0.139637 0.055275 -0.101758 -0.017975 -0.148212 0.064880 0.153206 0.097516 0.127929 0.060051 0.153567 -0.151296 0.134433 0.109561 -0.178016 0.033354 -0.053689 -0.121719 -0.011423 -0.110878 -0.109674 -0.207235 0.033994 -0.047978 0.030121 0.169029 -0.064039 0.001913 -0.075817 -0.158806 -0.066893 0.020546 -0.024628 -0.162106 0.120965 0.083633 0.086885 -0.063893 -0.095462 -0.035115 -0.116170 -0.019354 -0.197769 0.064704 -0.089953 -0.106300 0.027873
0.048988 0.084453 0.035804 0.110894 -0.168504 0.085750 0.099580 -0.106775 -0.051744 -0.139807 -0.011797 -0.099348 -0.169554 0.048081 0.102128 -0.168615 -0.002886 0.085425 0.101194 0.111666 -0.021801 0.214163 0.165276 -0.180109 0.164121 -0.050327 -0.205628 -0.032431 0.056902 0.088924 0.015168 -0.022775 -0.175053 0.149154 -0.092926 0.046557 -0.098185 0.170910 -0.080222 -0.130932 0.110262 0.074494 0.099181 -0.075564 0.043442 -0.120457 0.110533 -0.027661 -0.039720 0.053157 -0.061783 0.101422 0.085506 -0.014823 0.153546 0.110196 -0.202686 -0.127075 -0.063099 0.121004 0.008219 -0.087117 0.023426 0.039276 -0.092574 0.120373 0.067211 -0.128076 0.022806 -0.065271 -0.057727 0.021646 0.119651 -0.093312 -0.179219 -0.103035 0.054797 -0.154987 0.003346 -0.145487 -0.109045 -0.175125 -0.006536 -0.036685
-0.054281 -0.169898 -0.138782 0.056752 -0.087827 -0.110444 0.026298 0.034843 0.122934 -0.099482 0.180319 0.019194 0.168575 0.061212 -0.147542 -0.192264 0.076990 -0.073792 0.017250 -0.074107 0.061061 -0.042125 0.107255 0.026108 -0.000160 0.025743 -0.114552 -0.165648 -0.104205 0.202643 -0.088042 -0.125589 -0.097624 0.080474 0.106885 0.075034 -0.018165 0.010478 0.079876 0.059943 0.115680 -0.151588 -0.056922 0.038245 -0.051172 -0.129908 0.100522 -0.103319 0.016763 -0.031979 0.081391 0.105997 -0.006508 -0.113893 -0.048129 -0.010095 -0.112954 0.091377 0.082110 0.111305 -0.048046 0.020706 -0.148125 -0.080358 -0.000610 0.168353 0.171008 -0.033853 -0.115252 -0.172376 -0.118146 0.002776 0.152528 -0.078043 -0.202244 -0.171086 0.130545 -0.151673 -0.048805 -0.070731 0.054210 -0.053454 -0.067453 -0.086651
-0.092166 0.117570 -0.144657 -0.152205 0.075900 -0.128734 -0.158111 0.106401 -0.068461 0.163673 -0.049386 0.153042 -0.110310 0.037333 -0.165583 0.100826 -0.054336 -0.093553 0.059523 -0.168116 0.044377 0.125351 -0.047416 0.095151 0.005641 0.068964 -0.010875 0.155375 -0.007829 -0.152834 0.041952 0.077049 0.136629 -0.028555 -0.026272 0.118148 0.060435 -0.022562 -0.130213 -0.087850 0.046093 0.037701 0.004813 -0.041929 -0.098334 0.133509 0.042544 0.009998 -0.164260 -0.161251 0.016188 -0.078116 -0.090215 0.076887 0.026843 0.089866 0.056117 0.141633 0.169019 0.065760 0.078639 0.097118 -0.113493 -0.067448 0.165331 -0.029837 0.041464 -0.109253 -0.140016 -0.165874 -0.148652 -0.135816 0.155731 -0.022048 0.113933 -0.063991 -0.134011 -0.039318 -0.054492 0.034054 -0.114575 -0.076893 -0.147245 0.100908
-0.055459 -0.135872 -0.134314 0.121360 -0.188585 -0.149933 0.105553 -0.062684 0.041025 -0.099909 -0.203027 -0.132993 0.095535 0.006189 -0.115842 0.095874 0.088090 -0.040567 -0.156411 -0.091272 0.112078 0.035016 -0.050018 -0.175452 -0.109680 0.067253 0.050864 -0.004332 -0.184551 0.121918 0.115784 0.103450 -0.101679 -0.171717 0.164046 -0.063075 -0.133090 -0.172705 0.038780 -0.187200 0.090381 -0.020237 -0.188605 0.080848 0.030776 0.127435 -0.101775 -0.058852 0.082392 -0.039396 -0.151452 0.197852 0.063024 -0.119395 0.185384 -0.206447 -0.086012 0.076788 -0.127212 0.059230 0.063203 0.029508 0.083044 0.121681 0.052076 -0.055384 -0.100631 -0.082686 0.082661 0.089113 0.120226 -0.047922 -0.079938 0.182984 0.048792 -0.098047 -0.186654 0.087902 -0.011170 -0.120837 0.088263 -0.014128 0.033349 -0.094979
-0.116775 -0.194260 -0.012767 0.122973 0.115954 -0.006636 0.192551 -0.043808 0.004683 -0.119936 0.054721 -0.006468 0.039869 -0.125051 0.137590 0.206649 -0.117894 -0.084018 -0.043968 -0.007859 0.064695 0.114945 -0.081497 -0.072290 0.023417 -0.061701 0.186353 -0.123432 -0.066865 -0.089509 0.055718 -0.053971 0.150108 0.048196 -0.001460 0.006554 0.151010 0.106798 0.179265 -0.100263 0.139453 -0.039012 0.093804 0.001399 0.000786 0.076235 -0.077762 0.024580 0.133859 -0.026879 0.051810 -0.062574 -0.009937 0.164083 0.082596 0.070548 -0.119414 0.188956 -0.106331 0.109609 0.108037 0.153739 0.123396 -0.003984 0.010283 -0.115300 -0.143273 0.142164 0.138491 -0.051024 -0.165651 -0.085186 -0.165737 0.029812 -0.107165 -0.139545 0.129482 0.083101 -0.007469 0.090816 -0.162282 0.041300 0.101453 -0.138642
0.070164 -0.154893 -0.161930 -0.029291 -0.004912 -0.167674 0.013053 -0.035877 -0.015913 -0.050651 0.135847 0.165553 -0.059645 0.102384 0.133057 0.118675 -0.083432 0.087301 0.150837 0.117332 0.083723 -0.002325 -0.089045 0.064745 -0.111924 0.005169 -0.091843 -0.121482 0.105264 -0.112605 -0.027737 -0.026091 -0.127271 0.085919 -0.110914 -0.198552 0.047911 -0.178760 0.052447 -0.031678 0.191737 0.073771 0.070820 0.047270 0.109830 0.146206 -0.198206 -0.111723 0.154737 0.118699 0.034398 -0.174807 -0.097500 -0.070636 0.187484 0.082533 0.070909 0.013780 -0.090917 0.039810 -0.071581 -0.120205 0.029873 -0.051557 -0.142863 -0.163791 0.105446 0.127879 -0.017053 0.096917 0.122589 0.113342 0.039313 0.046496 0.146476 0.023141 0.094585 -0.021523 -0.158116 -0.121979 -0.090631 -0.123469 0.144070 -0.182933
-0.143475 0.063209 0.000925 -0.118778 0.107547 -0.096659 0.074611 -0.001086 -0.099101 0.061480 -0.089063 0.092104 0.057973 -0.140109 -0.007045 0.000168 0.119331 0.177062 0.120232 0.109366 0.101890 0.071637 0.152645 -0.023108 -0.124200 0.108557 -0.071235 0.028928 0.146842 0.161171 0.024846 0.149894 -0.119621 0.026565 -0.086622 -0.156681 0.145807 0.107813 0.094328 -0.067852 0.180640 -0.047698 0.125805 -0.023856 0.058449 0.019629 0.040994 -0.100405 -0.170406 -0.201964 -0.104939 0.042912 0.113256 -0.056520 -0.171273 -0.078995 -0.126825 0.091356 -0.119434 -0.064619 0.050925 0.063014 -0.127207 0.004691 -0.035404 -0.118367 -0.159908 -0.006009 0.142725 0.123255 -0.105221 -0.090714 0.127136 0.091383 0.002642 -0.100111 -0.018145 0.113488 -0.097376 0.141371 0.028461 0.101173 -0.140784 0.004664
-0.005119 -0.096896 -0.004043 -0.021980 -0.142544 0.091775 -0.008866 -0.180448 0.128146 0.134563 0.018454 -0.142794 0.031536 0.169315 -0.160488 -0.038366 -0.062399 -0.050843 -0.009099 0.094735 0.119116 -0.039047 0.142518 0.082511 0.030277 -0.027412 -0.201338 -0.078374 0.011341 0.013582 -0.138689 0.064009 0.110205 0.101823 0.148183 -0.123560 -0.091724 -0.073337 -0.130950 0.174886 -0.008072 0.147084 0.070617 0.013891 -0.125561 0.189016 -0.022949 -0.024531 0.072999 -0.016846 -0.157996 0.088227 -0.065644 -0.058134 -0.029345 0.141554 0.049044 0.068447 0.102078 0.062513 -0.061086 0.014989 0.114107 0.025304 0.138844 -0.036736 0.113519 0.123462 0.129957 -0.048551 0.109031 -0.010345 0.073708 0.059556 -0.043761 -0.135347 -0.061665 0.040240 -0.019804 0.051812 0.065612 -0.128389 -0.037384 0.037707
-0.174167 -0.153578 -0.176434 0.168027 -0.062064 -0.044203 -0.162948 0.051247 0.094645 0.001966 0.020756 0.206967 -0.088078 0.078990 -0.003153 0.055537 0.045949 -0.074108 0.045220 0.037916 -0.127252 0.120657 -0.064219 0.109977 -0.116509 -0.146210 -0.165780 -0.097935 0.197255 -0.057244 -0.089990 0.051717 -0.147650 0.036976 0.162647 -0.124636 -0.025374 0.140847 0.101672 -0.014868 0.083738 -0.101424 0.087134 0.159830 0.088625 -0.045223 -0.004105 -0.103921 -0.044434 0.042149 -0.143031 0.010560 -0.063736 0.083208 0.046303 0.079961 -0.198977 0.051063 0.116858 -0.087101 0.166824 0.083438 -0.104955 0.105608 0.139131 0.090163 -0.102555 -0.036524 -0.184474 0.039443 -0.094902 0.060222 -0.136540 -0.153857 -0.081745 -0.106166 -0.024091 -0.141891 -0.083874 0.020322 0.158606 -0.163318 0.019536 0.007720
0.053876 0.126856 -0.083491 -0.019386 0.047092 -0.073613 0.010144 -0.159565 -0.009847 0.137647 -0.030273 0.049797 0.165692 0.001183 -0.025984 0.102993 0.145259 0.007859 -0.047109 -0.099991 -0.155460 -0.154248 0.078175 -0.011861 0.180932 -0.063833 -0.031225 0.029737 0.116820 -0.090944 -0.153843 -0.030408 -0.180402 -0.049127 -0.052695 0.057052 0.075671 0.133904 0.116593 0.097506 -0.104744 0.128855 -0.001844 -0.004530 -0.151556 0.109426 0.013490 0.010157 0.025067 0.027318 0.108179 -0.034398 -0.069728 0.156270 0.003462 -0.077607 0.007228 -0.026353 -0.055813 -0.058593 0.069713 -0.022029 0.131985 -0.113890 -0.051691 -0.043394 0.039552 -0.106950 0.062057 0.040283 -0.160899 0.020599 0.063019 -0.036965 -0.037898 -0.002253 0.096722 -0.097085 -0.026866 0.005443 0.072226 -0.004330 -0.007018 0.068805
0.036860 0.109910 -0.043146 0.028713 0.094340 -0.027494 -0.141610 -0.064341 0.146810 -0.074806 -0.094391 0.075501 0.133277 0.124438 -0.071506 0.058532 0.117373 -0.095752 0.161285 0.119438 -0.122880 0.119721 0.139530 -0.055766 0.070517 0.144788 0.036413 0.136524 -0.160398 0.065300 -0.066067 -0.104128 -0.167638 0.009803 -0.066205 0.152878 0.156872 -0.025260 -0.078484 0.068899 -0.162970 -0.160945 -0.020536 0.104372 0.128940 -0.078418 0.014835 0.148948 0.042100 0.120982 0.167584 0.015826 -0.155375 -0.068517 -0.044709 0.061318 -0.094734 -0.032904 -0.042236 -0.049887 0.014358 0.034128 0.097665 -0.155227 -0.161581 0.146838 -0.118305 -0.124039 0.063112 -0.161878 0.068921 -0.064364 -0.042279 -0.148887 -0.158364 -0.092649 0.043126 0.109833 -0.057485 -0.023422 -0.137629 -0.169256 0.140271 -0.041615
0.134634 0.115359 -0.150273 -0.062613 -0.018699 -0.045401 0.110350 0.118395 0.082015 0.094534 -0.002296 -0.060303 0.088780 -0.025788 0.082734 -0.080212 -0.041862 0.063556 -0.110864 -0.047289 0.071270 0.166380 0.064961 -0.029539 -0.120165 0.077051 -0.052062 -0.072937 0.059457 -0.131182 0.144866 -0.129343 -0.089744 -0.057714 0.045126 0.139440 0.178218 -0.056865 0.174285 0.111408 -0.031474 0.009305 -0.006717 0.058339 -0.080655 -0.022101 0.124601 0.018197 0.056804 0.086326 0.044950 0.091469 -0.103698 -0.069091 0.095407 0.121726 0.098446 0.023602 -0.095333 -0.157755 -0.090736 0.194588 0.002198 -0.023070 0.081480 0.096046 -0.053504 -0.036870 0.028163 -0.032407 -0.045136 0.158021 0.124388 -0.158231 0.048192 -0.003236 0.002348 0.135663 -0.162831 0.063672 -0.025525 0.152154 -0.061962 -0.045181
0.129985 0.120467 -0.165308 -0.012255 0.139749 -0.079252 -0.061998 -0.171143 -0.137246 -0.043836 -0.002294 0.120558 0.085294 0.000665 0.133410 0.070004 -0.002618 -0.056525 -0.033906 -0.093530 0.118099 0.148482 0.013841 0.127986 0.137451 0.036458 -0.076870 -0.112615 0.183657 0.133099 -0.034692 0.085611 0.029259 -0.077482 0.075701 0.111417 -0.124397 0.152372 -0.145774 -0.035916 -0.148674 0.040977 -0.009181 0.132776 -0.157995 -0.106504 0.124810 -0.139590 -0.079780 0.098099 0.106137 -0.029194 -0.083907 0.053909 -0.046643 0.170671 -0.088685 -0.043071 0.142069 0.089519 -0.042328 -0.154182 0.091910 0.079457 0.115310 0.050439 0.057503 -0.041956 0.138987 -0.102621 -0.136385 -0.025346 -0.164911 -0.018832 0.118630 0.170794 0.007993 -0.127537 0.163045 -0.150277 0.074050 0.003914 0.129885 0.171055
-0.055185 -0.015843 -0.031946 -0.051699 -0.105917 0.132658 0.045981 0.119179 0.025601 -0.039204 0.057957 0.073228 0.031043 0.151870 -0.009796 0.018874 0.182939 -0.117462 -0.041009 0.061022 -0.044225 -0.072493 -0.129990 0.075713 -0.129364 0.063623 -0.038477 0.082422 0.098686 -0.163489 -0.071658 0.009286 -0.121658 0.067907 -0.055314 -0.006299 -0.071233 0.131673 0.064423 -0.004917 0.165597 -0.131959 0.000164 -0.052335 0.049810 0.000702 -0.067188 0.152961 -0.145423 -0.064566 -0.012267 -0.008799 0.107881 0.131831 0.037657 0.139095 0.129247 -0.000100 0.118979 -0.114906 0.023561 0.119115 -0.169050 0.088172 0.042644 -0.009822 0.038899 0.060695 -0.029878 0.164964 0.019254 -0.024215 0.113645 -0.154196 0.100883 0.082609 0.080201 -0.058981 0.093182 0.132146 -0.126333 -0.068096 -0.208240 0.035905
-0.101088 -0.144673 -0.196088 -0.172020 0.066146 -0.156866 -0.069699 -0.061532 -0.040429 -0.154959 0.127836 -0.079215 -0.077912 -0.022356 -0.147283 -0.181362 0.097839 -0.101254 -0.059149 0.100766 0.045199 0.188547 -0.137950 0.111558 -0.075902 -0.011498 0.025757 -0.107847 0.065514 0.128512 -0.187878 -0.028716 -0.184852 0.073173 -0.041761 -0.140591 0.151542 -0.139480 -0.032744 -0.032152 0.118198 -0.055276 -0.100915 0.116444 0.110500 0.146699 -0.168727 -0.136906 -0.124852 -0.069358 0.024994 -0.035663 -0.001037 -0.127461 0.207609 -0.102452 -0.024483 -0.136848 -0.186874 -0.087588 -0.157136 0.087333 -0.127090 -0.125655 -0.081097 0.113091 -0.157634 0.021562 -0.048977 -0.122687 -0.151922 -0.127981 0.057654 0.064720 -0.185702 -0.012395 -0.093506 0.157406 0.099218 0.090424 -0.031284 -0.199439 0.057232 -0.072296
0.073817 -0.000563 -0.073681 0.150292 -0.063757 -0.056782 -0.035590 0.063034 -0.157865 -0.130102 0.044930 -0.152229 -0.051367 -0.072301 0.142277 0.030023 0.006515 -0.153641 0.048857 -0.094096 -0.104696 0.147166 -0.090070 -0.063153 -0.047189 0.055417 -0.017338 0.109955 0.103845 0.022242 0.053417 -0.019513 0.121206 0.040383 -0.048392 0.050336 -0.046412 -0.164028 -0.156391 -0.083512 -0.055431 0.026649 -0.118930 -0.167331 -0.027651 0.014311 -0.036947 -0.132440 -0.140051 -0.170256 0.126810 -0.028758 -0.052931 0.071920 0.148652 0.045921 -0.035922 -0.096532 0.056833 -0.111933 -0.001509 -0.043393 -0.129180 -0.146140 0.005726 -0.063984 -0.114060 0.071657 0.122050 0.133566 0.046524 -0.117143 0.077882 0.045675 0.002626 0.150158 0.020638 0.028138 -0.017348 -0.072323 0.134094 -0.150982 -0.165707 -0.164281
0.083642 0.055177 0.068720 0.080124 -0.028123 0.002215 -0.057645 0.042915 -0.053896 0.010466 -0.084481 -0.148051 -0.002764 0.094118 -0.004223 -0.203872 0.071692 0.096573 0.091469 -0.060501 0.064664 -0.105519 0.021416 0.096263 0.032263 0.102022 0.099132 0.007764 -0.037620 -0.023022 0.062123 0.058820 -0.177035 0.042900 0.083463 -0.031371 -0.029010 -0.104556 -0.064017 0.070894 0.134512 0.069109 -0.074527 0.123035 0.090232 -0.061918 0.043640 -0.106688 -0.087747 0.009654 0.105394 -0.077555 0.123153 0.060515 -0.054030 0.207878 -0.147369 0.058406 0.123061 0.064960 -0.024619 0.112577 0.107638 0.111620 -0.133505 0.082906 -0.010524 -0.142752 -0.031576 0.039869 0.173433 -0.152179 0.083806 -0.036229 0.072772 0.062199 -0.000408 0.007722 -0.079974 0.108782 0.040354 -0.102296 -0.091674 -0.055206
0.062909 0.134061 -0.133444 0.106614 -0.160376 -0.089434 0.158361 0.170543 0.027623 -0.158013 -0.058100 0.082675 -0.008944 -0.111334 0.149424 0.062817 -0.029618 0.053125 0.150903 0.165828 0.022132 0.102353 -0.075455 -0.097860 -0.016747 0.160569 0.116461 0.153547 0.163124 -0.022786 -0.071985 -0.028862 -0.159942 0.110667 -0.028662 -0.085581 0.009431 0.138814 -0.150894 0.106455 -0.052450 0.125867 -0.070430 -0.134222 -0.152637 0.056251 -0.168905 -0.168604 0.093658 0.074638 0.068956 0.124512 -0.014890 -0.083237 0.162215 -0.110538 -0.137447 -0.154702 0.145578 0.060710 0.102156 0.162662 -0.116390 -0.121037 0.050038 -0.084126 -0.150970 -0.140148 0.137763 -0.107953 -0.098272 0.123413 0.064332 0.121778 -0.157646 -0.082979 -0.023844 -0.134746 -0.079314 0.055882 0.045532 -0.164360 -0.006456 -0.014953
0.008528 0.050150 0.058219 0.051280 -0.126623 -0.147448 0.100889 -0.068114 0.020247 -0.112881 -0.017193 0.052885 -0.148455 -0.151087 -0.021798 -0.112599 0.097767 0.036008 0.139144 -0.141688 0.068687 0.151920 -0.069887 -0.062602 0.083660 0.012117 0.135012 0.058745 0.043096 0.178414 -0.087621 0.179026 -0.045061 -0.032791 0.055123 -0.090599 0.018012 -0.064417 -0.096958 -0.113819 0.024327 -0.033182 -0.067325 -0.017646 0.098595 0.102383 0.065096 0.045330 0.109890 0.013736 0.024112 -0.144633 0.057073 -0.042201 -0.216495 -0.001593 -0.022360 0.095547 -0.148629 -0.086191 0.059043 0.036513 0.115916 0.078675 -0.089542 -0.132205 -0.148643 0.021146 0.053609 0.041423 -0.122205 -0.094226 -0.105443 0.071608 -0.087951 -0.136516 0.102364 -0.086795 -0.174941 0.169049 -0.123736 -0.009493 0.152568 0.079583
-0.148773 0.092990 -0.134113 0.099938 0.030462 -0.049219 0.069794 -0.169890 0.112094 0.147595 -0.117590 -0.084121 -0.166776 0.037476 -0.135135 -0.147925 0.133932 -0.124914 0.024706 0.102351 0.029346 -0.056938 0.065357 -0.011089 0.035767 0.020152 -0.150647 0.105771 -0.047150 0.056195 -0.081044 -0.112184 -0.097277 0.003554 -0.048589 0.037565 -0.197091 -0.093240 0.115971 -0.040386 -0.148953 0.084342 0.164446 -0.100520 -0.150306 -0.088539 0.113437 -0.014423 0.109538 -0.066156 -0.126948 0.058117 -0.088150 0.031503 -0.088791 0.180756 -0.097807 -0.002605 0.090464 0.038214 -0.164551 0.001839 -0.058425 0.086180 -0.095192 -0.119023 0.043304 0.112777 0.135024 0.174330 -0.065338 0.128261 -0.019301 0.083310 -0.044644 -0.066043 -0.094730 -0.043432 -0.205393 0.071955 -0.073895 0.019409 0.034062 -0.145336
0.049751 0.103262 0.030735 0.036643 0.102503 -0.049316 -0.061791 -0.020023 -0.042511 0.018994 0.055419 0.009022 0.070391 0.059745 -0.070875 0.071898 0.176156 0.071521 0.049215 -0.029190 -0.132715 0.041491 0.069021 0.103826 0.046057 -0.142153 0.039205 -0.060552 -0.100395 0.120642 0.040159 0.079078 0.078952 0.083786 -0.030658 0.091037 0.027174 -0.090465 -0.005286 0.026790 -0.067805 0.064265 -0.061787 -0.026356 -0.188387 0.112875 -0.164300 -0.133979 -0.111856 0.096932 -0.149024 -0.126420 -0.045339 0.002983 0.039045 -0.005039 -0.131783 -0.097673 -0.021393 -0.082038 -0.135630 0.014279 0.165559 0.125787 -0.072469 -0.116453 -0.141085 -0.049263 0.107623 0.100692 -0.100247 -0.177339 -0.124076 -0.041520 -0.025378 0.077788 0.103501 -0.020783 0.130128 -0.167170 0.075103 -0.196996 -0.157054 0.015073
-0.044756 0.049695 -0.074415 0.052913 -0.201586 -0.119590 -0.007710 -0.203046 -0.057794 -0.148960 0.190010 0.107274 -0.088857 -0.050084 -0.170960 -0.112575 -0.087690 -0.200260 0.019215 -0.028514 0.196796 0.131403 -0.167727 -0.003194 -0.150290 0.148724 0.074130 0.001711 0.063460 0.009941 -0.079487 -0.038159 0.113723 -0.042007 -0.139789 0.120577 -0.059809 0.007588 -0.032473 0.179178 -0.055163 0.194548 -0.031185 0.148783 0.031592 -0.017005 0.033915 0.099654 -0.125461 0.176029 0.043591 -0.182648 0.041821 -0.028248 -0.108961 -0.117519 -0.197371 -0.015597 -0.055414 -0.115834 -0.006598 -0.207769 -0.043654 -0.101378 0.055670 -0.012211 -0.153661 -0.016568 0.132813 0.034638 0.101863 -0.188014 0.003882 -0.162912 -0.068956 0.065906 0.141948 -0.169031 0.116237 0.063699 -0.070158 -0.110758 -0.206196 0.089862
0.018201 -0.129862 -0.013530 -0.139916 -0.034590 0.057117 0.165081 0.174727 0.004469 0.124783 -0.116882 0.039576 0.023572 0.164199 -0.008533 0.070135 0.052068 -0.081378 -0.125510 -0.062026 -0.131931 0.118013 0.103047 0.010844 0.075157 -0.129742 -0.139301 0.018263 0.078923 -0.044391 0.055229 -0.006426 -0.052466 0.082500 0.148812 -0.193459 -0.152464 -0.084685 0.167944 -0.115320 0.012493 0.085135 0.129165 0.208183 0.053385 -0.116295 -0.093625 -0.155235 0.164618 0.113835 0.034307 -0.048189 0.161273 0.008157 -0.038379 -0.112537 -0.171351 0.158512 0.028587 -0.120715 -0.049487 -0.161879 -0.029003 -0.136011 -0.090999 -0.045650 0.118242 0.064438 -0.009264 0.026288 -0.070027 0.068191 0.148567 -0.143350 -0.120939 -0.040645 -0.205393 -0.036138 -0.048175 -0.035392 -0.181583 0.192234 -0.051257 -0.058478
-0.163116 -0.150058 0.001862 0.155314 -0.072959 0.074035 -0.023618 0.026015 0.170167 0.143689 -0.050968 0.010530 0.113718 0.070138 0.150318 0.021682 0.204969 -0.177807 0.096861 -0.114952 -0.119756 -0.196906 0.012300 0.081698 -0.090870 -0.015355 0.127572 0.022235 0.201135 -0.016962 0.063907 0.066185 -0.113460 -0.115233 0.123688 -0.124806 0.101465 0.041432 -0.101719 0.094266 0.025345 -0.132717 -0.046135 -0.105050 -0.014692 0.164923 -0.159759 0.056219 -0.158656 0.108050 0.013398 0.127289 -0.125061 -0.190502 0.197773 0.147744 0.020287 0.019515 -0.130179 -0.125109 -0.107381 -0.081090 -0.102715 0.133601 -0.133321 0.094812 -0.050390 -0.202350 -0.064879 0.000827 -0.032843 -0.086641 0.026827 0.014741 0.107965 0.014891 -0.060369 0.149698 0.084334 0.121402 -0.049527 0.087045 -0.028885 -0.033877
-0.027425 0.041902 -0.022094 -0.069207 -0.150312 -0.129266 0.117171 0.038680 0.136742 0.124524 0.101707 -0.113382 0.087829 -0.004542 0.010413 0.097055 0.099840 -0.104125 -0.116750 0.161506 -0.056557 -0.150290 -0.047884 0.090968 -0.028969 -0.136273 0.032900 0.152220 0.055120 -0.097559 -0.181664 0.031427 -0.095247 -0.066115 -0.086897 0.045070 0.124370 -0.081733 -0.009492 0.070908 0.023407 0.144217 0.047678 -0.133013 -0.090360 0.065282 -0.036985 0.078553 -0.042128 -0.062602 -0.142952 0.015186 -0.103664 -0.066461 -0.049906 0.075740 -0.016091 0.113579 -0.097879 0.037931 0.165360 0.076676 0.125760 0.010590 -0.082492 0.135676 -0.143986 -0.163202 0.175230 0.116966 0.056236 0.012122 -0.114216 -0.011607 -0.113800 -0.091778 -0.197710 0.109591 -0.085457 -0.149951 -0.205536 0.082843 -0.067165 0.066317
0.157283 0.009899 -0.079033 -0.066195 0.042151 0.041841 -0.111958 -0.111273 -0.127792 -0.144051 0.135721 -0.146255 0.147906 -0.120552 -0.076174 0.040013 -0.149272 0.098311 -0.067335 -0.023376 0.055245 -0.086458 0.057744 0.130705 0.072801 -0.118346 0.057513 0.043107 -0.159281 0.039649 -0.007619 0.065726 -0.137313 -0.058683 0.085309 -0.065477 0.138362 0.068436 0.074347 -0.148991 -0.003514 -0.007149 -0.017790 -0.094153 0.001709 -0.150344 -0.053361 -0.006398 -0.007356 -0.070604 -0.006402 -0.006987 0.009364 0.174344 0.053040 0.061786 0.132993 0.007105 -0.136996 0.001298 0.107333 -0.092811 -0.065176 -0.032050 -0.087329 -0.129927 0.136833 -0.132689 -0.095887 -0.064423 -0.086489 0.158140 -0.131396 -0.152935 0.044031 -0.015280 0.127788 -0.129392 -0.063016 0.125439 0.007791 -0.041903 0.097334 -0.105953
-0.178826 -0.152916 0.106397 0.112912 0.136328 -0.167996 0.062665 -0.045285 0.147928 0.168271 -0.147610 0.156444 -0.020850 0.010318 -0.016604 0.083394 -0.003675 -0.089341 0.029090 0.049684 0.082828 -0.034026 0.130846 0.075192 0.130389 0.004545 -0.104402 -0.180263 0.106835 -0.032610 0.021505 0.057749 -0.060826 0.183601 -0.070391 0.165130 0.098500 0.065437 0.189564 0.057739 -0.029303 0.147407 -0.081262 0.197747 0.172532 -0.081919 -0.026313 -0.033081 -0.083741 -0.129180 -0.003229 0.001108 0.100117 -0.089828 -0.088155 0.135561 0.049189 -0.024979 -0.168299 -0.053506 0.012816 -0.030327 -0.144262 0.132063 0.093148 0.142151 -0.151654 -0.056126 -0.037186 -0.005494 -0.049087 0.084628 0.102788 -0.010568 -0.012505 -0.163012 -0.089302 -0.063424 0.089715 -0.199487 -0.055497 0.196910 0.099653 0.092888
0.148589 -0.190781 0.041287 -0.166321 -0.043953 -0.063935 -0.147725 -0.077005 -0.012026 0.041254 -0.158749 0.177541 0.020478 0.166310 -0.117087 -0.190336 0.089347 0.016561 0.158162 -0.014439 0.156360 -0.052572 0.096857 -0.180388 0.111650 -0.027914 -0.048090 0.093577 0.091206 0.121746 -0.073502 -0.131359 -0.039297 -0.091313 -0.162911 -0.032294 0.171752 -0.098026 -0.021200 0.003082 0.032063 0.125724 0.140475 -0.030070 -0.102999 0.064275 -0.136647 -0.124193 -0.020289 -0.071687 0.088104 -0.101270 -0.054416 0.084966 0.129478 -0.174740 0.056478 -0.090578 -0.016160 0.084248 -0.161783 0.064649 -0.012028 0.133544 0.086268 0.055408 -0.143420 -0.199102 0.147846 -0.050680 0.041355 -0.150477 0.092146 0.040345 -0.001269 -0.195530 -0.074641 -0.127997 0.075404 -0.205359 -0.025501 0.057674 -0.034688 -0.171693
0.100328 -0.178784 -0.127381 0.006880 -0.201392 -0.098751 0.137808 0.004483 -0.103978 0.064332 -0.112374 0.043792 -0.039311 0.201106 -0.131747 -0.085209 -0.131554 0.156359 -0.020688 0.055291 0.122292 0.163336 -0.094797 -0.194586 -0.010384 0.123225 -0.077873 -0.059450 0.077670 -0.074699 -0.082354 -0.061347 0.020498 0.084847 -0.028661 -0.008667 -0.060735 -0.133340 -0.141395 0.024465 0.094439 -0.122459 -0.056580 0.204420 0.046848 -0.080669 -0.156577 -0.141654 -0.014236 0.104104 -0.123682 0.058667 0.122991 0.109709 -0.098502 0.105568 -0.117964 0.134149 -0.198872 0.103881 -0.111112 0.025361 -0.005433 -0.020034 -0.084649 -0.045847 0.068335 0.015638 -0.021816 0.014875 -0.088401 -0.046734 0.078002 0.066317 0.138516 -0.121087 0.099100 -0.056096 -0.094830 -0.165780 0.056247 0.079640 0.003455 -0.048972
-0.117181 0.097845 0.011558 0.063316 -0.174917 -0.077955 -0.097446 -0.197323 -0.062468 0.058504 0.073744 0.016388 -0.062567 0.038770 -0.115381 -0.222902 0.132301 -0.021970 0.140084 0.121024 -0.203353 0.165330 0.080439 -0.025378 0.006141 0.192934 -0.201657 0.068150 0.088756 -0.029619 -0.114737 -0.033484 0.041920 -0.005321 -0.093850 0.050407 0.007469 -0.070603 -0.073958 0.115572 0.076221 0.051754 -0.000668 -0.011038 0.044613 -0.011104 -0.081518 -0.142857 0.073839 -0.137947 0.118897 0.171526 -0.095603 0.112687 -0.058910 -0.139752 -0.061897 0.206525 0.019002 0.018826 -0.177616 0.096781 -0.161706 -0.075423 -0.101664 -0.087202 -0.066737 -0.116821 0.006315 -0.150078 -0.092941 -0.100601 -0.131942 -0.087443 -0.136751 -0.147870 0.146160 0.021640 -0.097441 0.094386 0.058497 -0.147616 0.140207 -0.040950
-0.030497 0.023947 -0.028416 -0.175363 0.036033 -0.064517 -0.053445 -0.100243 0.096793 0.084554 0.146725 0.090625 0.046545 -0.116514 0.001771 0.065766 -0.052817 0.143490 -0.102441 0.064826 0.186767 0.001091 0.127242 -0.124457 0.146069 0.193944 0.100500 0.177328 -0.009085 0.044641 0.062594 -0.087058 -0.116580 -0.093029 -0.127926 -0.012216 0.168907 -0.172064 -0.041832 0.051139 0.044763 0.132935 0.151062 0.134650 -0.088387 0.122220 -0.073922 -0.064724 -0.078724 -0.129612 -0.078968 0.004931 0.017463 -0.180891 -0.109280 -0.069774 -0.000110 0.030410 -0.030376 -0.180075 -0.105274 -0.051274 0.168502 -0.073303 -0.017526 0.024916 0.065996 -0.042036 0.054906 0.062323 0.078783 -0.093991 -0.009566 0.096460 -0.147544 0.120292 -0.042428 0.129193 0.025102 -0.092871 -0.081219 0.058122 0.188539 -0.074870
-0.102596 0.110019 -0.106928 0.124315 0.075738 0.050440 0.173958 -0.110374 0.096307 -0.090192 -0.060321 -0.109468 0.015893 -0.034773 0.169017 -0.182336 0.049820 0.081506 0.096997 -0.027277 -0.067723 0.078392 -0.057058 0.085965 0.101241 0.113648 0.046018 -0.003304 0.025585 0.141066 0.137160 -0.036721 0.169186 0.045951 0.136488 -0.003491 0.062713 0.056749 0.028553 -0.152322 0.048904 0.057334 -0.036103 0.173098 0.117993 0.113923 0.027327 -0.008083 0.093862 -0.074027 -0.022821 0.004166 0.097752 0.018746 0.122347 0.025122 0.014446 0.023724 0.017426 -0.171571 0.088452 0.052029 0.163597 -0.070747 -0.080229 0.005430 0.115400 -0.016264 -0.028848 0.009241 0.089621 -0.015286 -0.162963 0.028658 -0.020456 -0.162135 0.118739 -0.036943 -0.178677 -0.170130 -0.046770 0.004308 0.104373 -0.144958
-0.060773 0.055767 -0.055980 0.028279 0.026945 0.015821 -0.070325 -0.032164 -0.087405 0.093907 0.055125 0.174984 -0.045847 0.118852 0.084807 0.010395 -0.067858 -0.027761 -0.093045 -0.014263 0.118573 -0.036103 -0.025127 0.032652 -0.016357 -0.016028 0.021440 0.110227 0.094826 -0.093445 -0.072632 0.165530 0.081098 0.064846 0.138926 -0.108270 -0.088909 -0.152352 -0.034487 -0.102876 -0.078697 0.128321 -0.099164 0.039628 -0.038135 0.013282 0.099303 -0.004777 -0.025852 0.189754 0.043848 -0.125151 -0.121463 -0.011913 -0.040730 0.091900 0.053248 0.130750 0.154170 0.098728 -0.066915 -0.171782 -0.150441 0.111285 0.085161 0.020268 0.075829 -0.029453 0.070357 -0.175586 -0.015643 0.117333 -0.092245 0.081732 -0.101454 0.156976 0.041185 -0.042433 -0.091294 -0.090577 -0.204827 0.084966 -0.118444 0.000936
0.042928 0.058924 0.111983 0.114340 0.055928 -0.035394 0.106531 0.006679 0.041140 0.166493 0.086011 0.103833 0.135764 0.142582 0.070310 0.132360 -0.078533 0.116900 -0.029757 0.035698 -0.109721 0.015848 0.079804 0.043164 0.059222 -0.102634 -0.080677 0.092219 0.050658 0.005637 -0.092857 0.003010 -0.008603 0.071361 0.061642 0.045297 -0.014366 -0.015464 0.066187 0.139939 -0.169054 -0.189008 0.059055 -0.105229 -0.096918 0.055205 -0.006852 0.064141 -0.055773 -0.091730 0.019039 -0.105906 -0.080652 0.049729 0.029085 0.139897 -0.054983 0.155385 -0.084008 -0.019731 0.000893 -0.048042 0.126808 -0.117940 0.091587 -0.039073 -0.100623 0.083111 0.099924 -0.011637 -0.145616 -0.151394 -0.151317 0.108914 -0.118033 0.154531 0.061593 -0.049025 -0.180241 -0.068457 0.090250 0.119819 -0.160678 -0.005414
0.078144 -0.154301 -0.204200 -0.128649 0.058956 -0.167949 0.125211 0.005187 0.158012 -0.029704 0.091813 -0.044847 0.166942 0.040058 0.153886 -0.135010 -0.102932 -0.039225 -0.154768 0.189083 -0.133381 -0.137108 -0.080091 -0.170956 -0.139519 0.128827 0.000165 -0.041343 0.001684 -0.016577 -0.181634 0.122947 0.009386 0.129835 -0.087015 -0.020830 0.062413 0.168202 0.200299 -0.097176 -0.070202 -0.014520 0.046666 0.180262 -0.198812 -0.051970 -0.116185 0.038050 -0.042684 0.003216 0.098245 -0.038675 -0.184574 0.123447 0.037421 -0.121492 -0.024502 -0.128088 0.027157 0.132775 -0.095291 0.163374 -0.068960 0.044960 0.133214 0.164731 -0.170127 -0.132785 -0.096353 0.057504 0.057884 -0.089690 0.080266 -0.131827 -0.207483 -0.100090 -0.008537 -0.015494 0.091371 0.100834 0.148416 0.073349 -0.012023 0.050833
0.192416 -0.176843 -0.133859 -0.006106 -0.032975 0.141273 0.083556 -0.079247 -0.025743 0.132540 -0.079439 0.172664 0.004413 -0.102916 0.128815 0.037043 0.048082 0.145338 0.091013 -0.085917 -0.153715 -0.005642 -0.132048 0.131077 0.167880 0.132597 -0.143076 -0.171261 -0.025510 -0.111965 0.116389 -0.186048 -0.059323 -0.028240 0.029480 0.063345 0.166353 0.062169 0.143359 0.011939 -0.136607 -0.104019 -0.145996 -0.089370 -0.163690 0.013501 0.124512 0.090051 -0.130017 -0.132070 -0.142410 -0.002311 -0.078126 -0.033548 -0.092397 0.020699 0.045975 -0.022098 -0.135564 -0.167336 -0.031263 0.011159 -0.125467 -0.054993 0.039204 0.159458 -0.106722 0.110244 0.069368 -0.032133 0.099529 -0.111921 -0.096165 0.033057 0.026713 -0.069068 -0.129414 -0.088288 -0.126818 0.126909 0.104250 0.081680 0.122018 -0.125196
0.028014 -0.080720 -0.125088 -0.048101 0.068180 -0.142922 -0.125299 -0.018909 -0.081884 0.169451 0.024123 -0.023480 0.101582 -0.022619 0.032945 -0.017990 -0.120722 -0.099881 0.157172 0.096783 0.078872 0.125162 -0.071299 -0.139257 -0.141793 -0.124151 -0.128385 0.106589 0.083612 -0.201314 0.042416 0.082080 0.066019 -0.030452 0.079532 -0.169941 -0.065598 0.116369 0.026839 -0.138006 0.061688 0.125456 0.108029 -0.024820 0.052412 0.168615 0.082463 -0.151990 0.011874 0.121799 0.135287 0.067797 0.195722 -0.071091 -0.152925 0.085344 -0.191151 0.171698 0.037907 -0.013102 -0.137041 -0.027025 0.122730 0.172451 -0.041210 -0.066225 -0.114818 -0.194566 -0.070003 -0.102391 -0.083527 -0.075887 0.057536 -0.008438 -0.131290 0.048521 0.060503 0.097133 0.023677 0.016353 0.155982 0.105719 0.122998 -0.149501
-0.057878 -0.036700 0.093617 -0.026302 -0.052010 -0.015402 -0.112521 0.106717 0.071994 0.064870 -0.015894 0.125120 0.021960 0.182519 -0.041476 -0.014958 0.042231 -0.044499 -0.096878 -0.067746 0.182486 0.032967 -0.090736 -0.129645 0.112691 -0.022141 0.073296 -0.019655 0.100284 -0.001087 -0.137188 0.033893 -0.057839 0.209140 0.140989 0.073550 0.120202 0.003802 0.179286 -0.078955 0.101132 -0.076155 0.090539 -0.126679 -0.167176 0.140886 -0.014252 0.135803 0.060736 0.055728 -0.133579 0.092636 0.190911 0.101656 -0.069960 0.093053 0.099258 -0.068302 0.093423 0.102759 -0.092073 0.087472 -0.066113 0.065691 -0.023622 0.145281 0.121425 -0.181018 0.083242 -0.106984 0.204095 -0.152933 -0.131398 0.043710 -0.195679 -0.031141 -0.048099 0.117274 -0.206248 -0.004842 0.205782 -0.053998 -0.155278 0.000620
0.088600 0.040189 0.016670 -0.055081 -0.092043 -0.107383 0.073559 0.122639 -0.113130 -0.002462 -0.041328 0.001961 -0.025528 -0.055333 -0.002721 -0.056161 0.170939 -0.094735 0.130084 0.170279 -0.111379 0.064583 -0.102989 -0.082855 -0.165640 0.114806 -0.132556 -0.089748 -0.113842 -0.074814 0.106916 -0.040154 -0.044427 0.017414 0.105417 -0.039721 0.068588 -0.136432 -0.083586 0.052530 -0.116363 -0.165280 -0.013816 -0.042253 -0.166902 -0.031952 0.102314 0.001699 -0.099714 -0.033703 0.092581 0.000266 0.096245 -0.028465 -0.135586 -0.060338 -0.041009 0.041559 0.005273 -0.055675 0.150466 -0.062438 0.000012 -0.049010 -0.032711 0.169435 -0.040003 -0.204381 -0.074360 -0.004772 0.071010 0.048787 0.128174 -0.035052 -0.118554 0.013056 -0.025224 -0.111353 0.050867 0.072997 -0.094276 -0.035791 0.069558 -0.069775
-0.076078 -0.164366 -0.121790 -0.121754 -0.087194 0.089098 -0.028608 -0.026351 0.186251 0.031477 -0.022520 0.093786 -0.093844 -0.023609 -0.103700 0.040611 -0.083588 -0.167433 -0.021377 0.069248 -0.054745 0.018329 0.049639 -0.074578 -0.146575 0.040028 0.085730 0.009696 -0.109908 -0.037139 0.066621 0.093410 0.112184 0.158701 0.043256 -0.110687 -0.106687 0.065031 -0.002343 -0.113429 -0.035017 -0.056310 0.012462 0.207935 -0.162316 0.159367 -0.081907 -0.148769 0.155173 0.103276 0.037305 -0.035101 0.033934 -0.163518 -0.086016 0.067848 -0.078749 0.072218 -0.042291 0.070590 0.125968 -0.189693 0.008332 0.111876 -0.092474 -0.106618 0.109987 0.029670 -0.088807 -0.113040 0.131005 0.114715 0.083470 -0.089342 -0.018662 -0.001546 0.187901 -0.132246 0.059734 -0.119474 0.092088 0.047376 -0.133895 0.010742
0.097139 -0.174677 0.084639 0.098902 0.074958 0.004644 0.137217 0.018539 -0.053594 -0.136057 -0.031198 -0.108617 0.097007 -0.032658 0.043117 0.097960 0.100768 -0.084865 0.208950 -0.133550 0.104320 0.098112 -0.118217 -0.189261 -0.043923 -0.020407 -0.157655 0.089688 -0.073496 -0.204235 -0.128704 -0.150892 -0.040102 -0.156028 0.111588 0.006091 -0.042755 -0.093117 -0.050654 -0.145602 0.107082 0.133467 -0.095259 0.040548 -0.190539 0.008570 -0.030315 0.145302 0.090301 -0.133598 -0.014279 0.017849 -0.044541 -0.164487 0.137503 -0.119991 -0.076948 0.048923 0.046512 -0.170389 -0.130922 0.136654 -0.079364 0.052830 -0.121601 0.019384 -0.041840 0.072469 -0.159527 0.035694 -0.013407 -0.033592 0.131789 0.011832 -0.219784 -0.010751 0.011998 0.119068 0.062791 0.068826 0.060246 0.054600 0.104829 -0.159158
-0.004934 0.104025 0.197471 -0.141452 -0.005289 -0.027118 -0.145275 0.140052 0.117971 0.142542 -0.101074 -0.066800 0.149757 -0.009672 -0.077732 0.079490 -0.063938 -0.090707 -0.229741 -0.070535 0.008096 0.084845 0.047501 -0.103186 0.002418 0.055587 -0.129290 0.006893 -0.114483 -0.050110 -0.179094 -0.021215 -0.162439 -0.058559 0.105782 0.009135 0.086119 0.079697 -0.073836 0.133676 0.080912 0.017233 -0.015144 -0.003192 0.121302 -0.023307 -0.185388 -0.055966 0.006022 0.172931 -0.031727 0.129936 -0.075747 -0.068936 -0.010943 0.162819 -0.046557 -0.087031 -0.143043 -0.175613 -0.037609 0.043455 0.086468 -0.187893 0.020562 0.038414 0.017336 0.114741 -0.061363 0.140905 0.167309 0.118021 -0.046752 0.067411 0.010750 -0.004993 0.160582 0.126324 0.050093 -0.162459 0.076432 -0.099078 0.100214 -0.110851
-0.160146 0.162291 0.019079 0.033285 0.040522 -0.027116 0.066404 0.047856 -0.137601 0.091043 -0.149616 -0.099472 0.171381 -0.021001 0.054867 0.045779 0.171467 0.083750 0.048420 -0.074963 -0.024591 0.102475 0.131373 0.006156 -0.008604 0.150552 0.003633 0.134977 -0.142247 0.067148 -0.018733 0.019099 0.069143 -0.113255 0.148351 -0.130549 -0.032273 0.128229 -0.065225 0.084560 -0.009138 0.114773 -0.028335 -0.054699 -0.050553 -0.063672 0.104848 0.169820 0.070360 0.140330 0.043229 0.024051 -0.096072 0.061757 0.070134 -0.094009 0.024157 0.066205 0.094148 -0.060464 0.007144 -0.150785 -0.037757 -0.190027 -0.132213 0.156696 0.052491 -0.040622 0.132923 -0.129623 -0.030640 -0.062157 0.112207 0.015139 0.061897 -0.013239 0.033426 -0.111893 0.170226 0.062947 0.047257 0.006476 0.093394 0.079500
0.185539 0.003218 -0.172773 0.117542 0.125509 0.160726 -0.107273 -0.100969 -0.036203 0.025009 -0.088213 0.013926 -0.113367 -0.134449 -0.148592 0.163145 0.123601 0.126739 -0.037296 -0.162469 0.073347 0.186157 -0.033312 -0.123854 0.189339 0.092730 0.059556 0.081933 0.000682 0.069545 0.136631 -0.142323 -0.158560 0.088291 0.133633 0.018198 -0.031419 -0.098489 0.114881 -0.039201 -0.109151 -0.006710 -0.123467 -0.081179 0.068428 -0.055049 -0.032517 0.040588 -0.042311 0.068458 -0.165307 -0.118066 -0.095310 0.195714 0.136577 0.109650 0.038968 0.123088 -0.072194 -0.161986 0.131095 0.206157 -0.136086 0.012660 -0.107249 0.149959 -0.163422 -0.094879 0.111602 0.100071 -0.118415 0.119778 -0.190540 -0.136684 0.143694 0.008303 -0.195171 0.132130 0.029324 -0.113700 0.082227 -0.050169 0.024425 -0.087156
0.129302 -0.162731 -0.074242 -0.113071 0.022111 0.054855 -0.145819 -0.163714 -0.113067 0.154678 0.157655 -0.140117 0.071683 -0.034020 -0.041513 -0.140497 0.130094 0.006887 0.137830 0.155140 -0.066329 0.117084 -0.062884 0.100104 -0.120304 -0.143654 0.096641 0.110456 -0.137531 0.138091 0.010044 -0.151565 0.151863 -0.012709 -0.036434 -0.002510 0.000985 -0.037971 -0.180830 -0.151343 -0.149591 0.120254 -0.154299 -0.142207 -0.156320 0.059916 -0.082014 -0.012626 0.063347 0.103737 -0.112494 0.051010 0.110808 0.161385 -0.044631 0.135001 -0.100227 0.183429 -0.002254 -0.153987 0.137906 -0.178692 0.106814 0.182272 0.161322 0.108158 0.076491 -0.064429 -0.097402 0.042919 -0.013104 -0.164816 -0.163251 -0.109503 0.096039 0.125389 0.089544 0.096644 0.134092 -0.171082 0.150832 0.138291 -0.067961 -0.091529
-0.162956 0.035025 0.010282 0.085149 0.050281 0.003705 -0.125181 0.108905 0.123229 -0.038324 -0.090656 0.101147 -0.152116 0.061473 -0.035625 0.109896 0.164093 -0.033789 -0.120598 -0.090277 -0.136117 -0.081464 0.111288 -0.071029 0.108916 -0.106975 -0.032737 0.038978 0.084538 0.088404 -0.002030 0.061396 -0.002309 0.091084 0.023500 0.031443 0.020275 0.065923 0.013447 -0.107236 -0.128071 0.156868 0.080319 0.031105 -0.030459 0.182670 0.132958 -0.154664 0.089933 0.054489 -0.081037 -0.108459 0.075624 -0.126582 0.072229 0.175008 -0.140579 -0.035936 -0.033190 -0.121095 0.150434 0.095883 -0.099901 0.045491 -0.165587 0.056322 -0.049358 0.098670 -0.133786 0.174793 0.022135 -0.153645 -0.030255 -0.092827 -0.123491 -0.159644 0.129786 -0.150434 -0.087146 -0.048096 0.052165 0.004813 0.071142 -0.180140
-0.000780 -0.112253 0.134064 -0.150408 -0.034467 0.112557 0.188399 0.055630 0.122989 0.013191 -0.067957 0.028750 0.055205 -0.121259 -0.027517 -0.016388 -0.096889 -0.091433 -0.087879 -0.076422 -0.139883 0.001593 0.073285 0.066304 -0.037356 0.004029 -0.013367 -0.188879 0.011027 0.197591 -0.095877 -0.134892 -0.095829 0.097720 -0.005995 -0.058515 0.122944 0.082696 0.030641 -0.179008 0.020390 0.110695 0.136477 -0.022415 -0.158890 0.101589 -0.207168 -0.113300 0.130378 -0.126626 -0.116069 -0.037718 -0.167484 -0.097529 -0.202649 0.127931 0.054503 -0.022766 0.041361 -0.084923 -0.056832 -0.106164 -0.021536 -0.040744 -0.163187 -0.134377 0.165057 -0.092618 0.032731 0.053405 0.007719 0.133698 -0.115171 0.055942 0.011446 0.099278 -0.062477 -0.052150 -0.071155 0.165130 -0.169379 -0.181640 -0.069214 0.041321
0.179764 -0.010785 0.106647 -0.053597 0.112532 0.129187 0.121485 -0.067710 -0.026932 0.044133 0.085045 -0.010634 -0.182608 -0.008684 0.063853 -0.119281 0.107998 -0.143742 -0.062947 0.040887 -0.189083 -0.074467 -0.101915 -0.020101 0.087333 -0.026987 0.180499 -0.047525 0.104597 -0.113236 0.002655 -0.081284 -0.024447 0.084017 -0.127745 -0.107840 0.098998 -0.025656 0.041725 0.079298 0.066250 0.147292 -0.010400 0.009263 0.063061 -0.156199 -0.043459 0.034214 -0.008722 0.111890 0.047298 0.092979 0.115764 -0.057707 -0.035568 -0.102851 0.003109 0.116585 0.132127 0.132104 -0.104537 0.071143 -0.156149 -0.136633 0.152296 0.037471 0.068742 -0.156927 -0.105237 0.001988 0.136192 -0.139849 0.143116 0.087235 0.015370 -0.041717 -0.029032 -0.072116 -0.039528 -0.072846 0.122838 0.017448 0.119846 -0.065579
0.011114 -0.082960 0.099842 -0.152113 0.057726 -0.164021 0.053473 -0.080870 -0.038765 0.114193 0.168502 0.103515 -0.095027 0.038079 0.027800 0.097676 -0.077805 0.060373 -0.031113 0.011951 -0.077486 0.078849 -0.007808 0.066216 -0.079430 0.031976 0.043225 -0.090178 0.003829 0.089515 0.017018 -0.088676 0.064563 -0.106835 0.010077 -0.129715 -0.179343 -0.167926 0.081416 0.176127 0.080488 -0.129574 0.082461 0.083240 -0.112542 0.103227 -0.022810 -0.051325 -0.105387 -0.082374 0.122166 0.127313 0.180611 0.123193 0.151678 0.167553 -0.144701 0.023631 0.032871 -0.001406 -0.045491 0.100620 -0.094236 -0.112380 -0.113195 -0.117063 0.104419 -0.123620 -0.061612 0.195718 0.167316 -0.085084 0.036760 -0.039516 0.006321 0.031136 0.176776 -0.048011 -0.156246 0.126430 0.034733 0.122583 0.128887 0.017387
0.008314 -0.101772 -0.089883 -0.173819 -0.115859 -0.127570 -0.086748 -0.024187 0.052389 -0.059358 0.013350 0.004251 -0.125297 0.125714 0.075514 -0.177093 -0.092099 -0.075089 0.094333 0.196679 -0.208014 0.013824 -0.058357 -0.136281 -0.108352 0.095493 -0.095707 0.126659 -0.003671 0.076388 0.126260 -0.014002 -0.179420 -0.112863 0.138183 0.002209 -0.192337 -0.169082 -0.000889 -0.074586 -0.141565 -0.078237 -0.148087 -0.040656 0.131874 0.011648 -0.026581 -0.045202 -0.008998 0.008262 -0.034103 0.071143 -0.089375 0.039466 -0.158520 0.017760 0.083652 -0.003748 0.069521 -0.070239 -0.057881 -0.206738 -0.091493 -0.022209 -0.006216 0.140639 -0.091038 -0.034344 0.017263 0.129732 -0.107618 0.039671 0.017315 0.022033 0.119195 0.111867 -0.077108 -0.119867 -0.057829 -0.205254 0.159343 0.079605 -0.133513 -0.032229
0.077124 0.014332 -0.014090 0.031226 0.113649 0.060382 0.062071 -0.151736 -0.154559 -0.139860 -0.143376 -0.129852 0.075258 0.039878 -0.015295 0.010214 -0.063889 -0.122920 0.073917 -0.151799 -0.170682 -0.080591 -0.071947 -0.040878 0.198934 0.056108 -0.053032 -0.112687 0.066532 0.095444 0.128159 0.207495 0.038898 -0.038750 0.016956 -0.035126 -0.151964 -0.141251 0.103369 0.087764 -0.028003 0.064258 -0.139180 0.134849 0.080625 0.040156 -0.027496 0.094727 0.011477 0.142213 -0.045498 -0.040964 -0.209405 -0.027948 -0.013638 -0.157618 0.041265 0.166192 -0.083454 -0.087126 -0.073926 0.066162 -0.147064 -0.125683 -0.025852 0.029511 -0.149826 0.016878 0.082132 -0.203872 -0.019579 -0.044403 -0.131559 0.004267 -0.149436 0.008034 -0.097573 -0.108566 -0.084910 0.054505 0.029338 -0.055294 0.025203 0.144290
-0.125050 0.073873 0.024961 -0.060955 0.041723 -0.021356 0.179773 0.037738 -0.003101 -0.020688 -0.004448 0.012266 -0.100795 0.060236 -0.050613 -0.192788 0.020682 0.197126 0.092552 -0.070480 -0.194126 0.045848 0.170976 0.046183 -0.026711 -0.137818 -0.184819 0.047767 -0.171789 -0.132373 -0.205722 -0.112463 -0.094370 0.135763 -0.013173 -0.021608 -0.117264 -0.142363 0.069389 -0.015702 -0.119925 0.009221 0.085892 -0.107417 -0.048608 -0.087796 0.102005 -0.139595 -0.027603 -0.187856 0.019030 0.099165 0.139505 0.014761 -0.177535 -0.009194 0.163567 0.192605 -0.099727 -0.176204 -0.164241 0.034366 -0.129255 -0.065529 0.094727 -0.044916 -0.109714 -0.128327 -0.176791 0.108450 0.015990 0.141285 0.050759 -0.137932 -0.116534 0.047134 0.061569 -0.016408 -0.074664 -0.081805 -0.125563 0.085211 -0.041603 -0.181729
0.095375 -0.173371 0.075101 0.069859 -0.166457 0.050305 -0.106377 0.040584 -0.029195 -0.131404 0.094247 -0.130071 0.132140 0.170144 0.047603 -0.049102 0.084139 0.034662 0.192847 -0.116824 -0.030234 0.229604 -0.159395 0.116330 0.078142 0.003412 0.067078 0.069031 -0.063188 -0.171932 -0.054385 -0.164817 0.044903 -0.153811 0.043533 0.061397 0.016387 0.010878 -0.051876 -0.068367 0.008181 -0.092296 0.148211 0.121317 -0.046470 -0.067753 -0.004832 -0.067758 -0.018834 0.080776 0.128395 -0.049318 -0.201782 -0.090596 0.091279 -0.006720 -0.085309 0.034789 -0.020335 0.124636 -0.176415 -0.027793 -0.033372 0.082098 -0.093023 -0.068212 0.162523 0.093032 -0.013153 -0.191114 0.098936 -0.178873 0.054909 0.169453 -0.153066 0.095026 0.082980 0.039795 -0.081624 -0.054760 -0.005896 0.054642 -0.046075 -0.014369
-0.109078 -0.194999 -0.059274 -0.204327 -0.168975 0.034081 0.157626 0.022706 0.179092 -0.081892 -0.033981 0.183218 -0.090101 0.149559 -0.077060 -0.191279 0.038267 0.016225 -0.002231 -0.109690 -0.071764 -0.043966 -0.050897 -0.032399 -0.078594 -0.114170 0.104557 -0.048402 0.163197 -0.066456 -0.064281 -0.004859 0.023391 -0.001050 -0.104384 -0.006698 -0.090201 -0.054925 0.085826 0.141569 -0.179885 0.051445 0.113685 0.196670 -0.205325 0.115040 -0.157970 -0.119245 0.122600 -0.051902 0.018315 0.104373 -0.023435 0.091132 0.070806 -0.066378 -0.080946 0.088021 -0.120401 -0.047162 0.112963 0.077340 0.070234 -0.072134 -0.098746 0.010573 0.025401 -0.057762 0.120551 0.084432 -0.036136 -0.088391 -0.113223 -0.034067 -0.137370 -0.151573 -0.041209 -0.020595 -0.027992 0.133774 -0.113244 -0.071631 0.011103 -0.154305
0.095852 -0.113759 0.106444 0.125622 -0.060544 -0.032129 0.097668 0.147206 0.181641 -0.116507 -0.148401 -0.014331 -0.135626 0.173452 -0.126872 -0.010173 0.039683 0.014448 -0.000441 -0.059289 -0.138202 -0.016287 -0.120653 -0.020418 0.016969 -0.142719 -0.071210 -0.006508 0.002118 0.105035 -0.108102 -0.075518 -0.085825 -0.032287 -0.166494 0.103185 0.092247 0.058838 0.128592 -0.130276 0.028056 -0.151522 0.088077 0.024725 0.058797 0.119178 0.056488 -0.062454 0.098973 -0.013612 -0.071152 -0.054575 0.114391 -0.071938 0.023113 0.180709 -0.157063 0.093289 0.081864 -0.087553 0.010972 0.021719 -0.121778 -0.020515 0.013331 -0.087599 0.171488 -0.031061 0.084294 0.011675 -0.108074 0.141737 -0.148762 0.111560 -0.073464 0.162820 0.083396 -0.002959 0.050484 0.000470 0.009545 -0.169146 0.109473 0.032659
-0.052905 0.113212 -0.050452 -0.046471 -0.002980 0.002410 -0.095459 -0.137067 -0.007476 -0.063177 0.132183 -0.014036 0.024527 0.104413 0.009778 0.007712 -0.081690 -0.097391 0.080653 0.030106 -0.109794 -0.123154 0.041241 0.025143 0.088994 -0.039422 -0.073824 0.043095 0.201134 0.022249 0.095217 -0.100537 0.117856 0.158753 0.165273 0.104901 -0.050111 -0.097160 -0.059575 -0.099591 0.158348 0.090738 0.022622 0.009216 -0.057561 0.003430 0.082377 -0.097221 -0.051789 0.205895 0.004236 0.207281 0.023556 -0.060630 0.051407 -0.186264 -0.206562 -0.091756 -0.010470 -0.041007 0.031391 -0.160546 0.051827 -0.112394 0.109708 0.048202 0.131126 -0.124480 -0.019915 -0.201755 -0.085613 0.077894 -0.020976 -0.052467 -0.070661 0.125007 0.009286 0.063318 -0.048863 -0.026586 -0.048259 -0.008645 -0.027475 0.020534
0.137173 -0.165120 0.031838 0.141961 0.042340 0.080134 -0.135872 0.059687 0.152483 0.022149 -0.019759 -0.107095 -0.037381 0.150241 -0.067488 -0.125580 -0.114579 0.151428 -0.051509 -0.062785 0.121557 -0.153608 0.159387 0.153660 0.036913 0.123151 0.090303 0.012491 -0.076031 -0.037221 0.138427 -0.019685 0.145430 0.156347 -0.113213 0.048889 0.022254 0.009902 0.102958 -0.095649 0.142993 -0.072842 0.148134 0.057799 -0.046837 -0.138664 -0.083544 0.137983 -0.067206 0.152681 0.099751 0.023872 -0.117839 -0.027116 -0.060620 0.086975 0.131997 -0.036987 0.043190 0.107920 0.145547 -0.087244 -0.155930 -0.061059 -0.167399 0.067405 0.101845 -0.081441 0.084049 0.007809 -0.075710 -0.139794 0.111948 -0.120093 -0.139198 -0.100697 -0.144999 -0.040714 -0.063446 -0.056557 -0.048749 0.108885 0.051175 -0.103449
0.116031 0.032888 -0.035956 0.054805 -0.145390 -0.049562 -0.110018 -0.170109 -0.161898 -0.159415 -0.151364 0.117208 -0.161160 -0.056129 0.085555 -0.151232 -0.149384 -0.117288 -0.060200 -0.084115 0.041691 0.205804 -0.051273 -0.063935 0.079338 0.018090 -0.165158 0.059513 0.097199 -0.108336 -0.067069 -0.102529 -0.064785 -0.163857 -0.129049 -0.179795 0.066092 0.082860 0.156714 0.011758 -0.056203 0.163942 -0.059267 0.078443 -0.063109 -0.010174 -0.113976 0.139068 -0.101794 0.039500 -0.024334 -0.109660 -0.190192 -0.038333 -0.017020 0.024749 -0.063376 -0.001509 -0.096208 -0.108116 0.093530 0.171981 -0.105451 -0.022169 0.064968 -0.183877 -0.097739 -0.013567 -0.055354 0.049021 -0.170536 -0.088186 -0.082048 -0.122733 0.074136 0.061870 0.015157 -0.074535 0.171378 -0.020470 -0.081193 -0.073521 -0.028590 -0.023751
0.209822 -0.035419 0.023473 -0.042426 0.046110 -0.040417 -0.113151 0.091716 0.102452 -0.123450 0.144916 -0.080189 -0.069726 -0.205087 -0.088968 0.113175 -0.144263 -0.091121 -0.103052 -0.125195 0.119774 0.018496 -0.151376 -0.178023 -0.078580 0.101577 -0.072842 0.175089 0.083456 0.062486 -0.043779 -0.137683 -0.045837 -0.122260 -0.052809 0.106741 -0.098496 -0.031858 0.044689 0.065033 -0.123619 0.062777 -0.014184 0.164614 0.026426 -0.038741 -0.010094 0.103478 0.134891 -0.095157 -0.083536 -0.205597 -0.137347 -0.106059 0.026088 0.085222 0.061910 -0.085540 0.121335 -0.119185 0.098322 0.148060 -0.169581 0.007267 0.001728 -0.107975 -0.089832 -0.057468 -0.048374 -0.177934 -0.070082 -0.123104 0.126061 -0.015580 -0.027054 -0.038893 0.000809 0.055271 -0.156657 -0.112801 -0.001307 0.053522 0.174375 -0.030432
-0.020673 0.130215 -0.179968 -0.006309 -0.085872 -0.076336 0.071271 -0.072784 -0.091134 0.000699 -0.108874 -0.132327 -0.066662 -0.012881 -0.026544 0.001038 -0.015658 0.062108 0.197857 0.026657 -0.052454 0.004713 -0.025200 0.115988 0.113617 -0.134125 0.060242 0.232711 0.174285 0.065861 0.029389 0.024467 -0.158976 0.062690 -0.117468 0.052253 0.107326 -0.104214 0.094865 -0.015763 0.202213 -0.008368 -0.095173 -0.068856 -0.068134 -0.003707 0.176954 0.077585 0.024245 -0.073281 -0.159670 -0.107621 -0.050643 0.088123 0.088649 -0.096044 -0.022999 0.123989 -0.045155 0.147939 0.158879 -0.050513 0.149159 0.132841 -0.006697 -0.111038 0.132637 0.032314 -0.102334 0.058604 0.052921 -0.188587 -0.032100 -0.004929 -0.031150 0.040143 0.084152 0.137882 0.000406 -0.169821 0.209793 0.058788 -0.059213 -0.007386
0.191594 0.055750 0.043826 0.173345 -0.059434 -0.125902 0.063409 -0.187887 0.069592 0.012923 -0.000438 0.102256 -0.057766 0.212245 -0.131876 -0.205233 0.089900 0.130035 -0.072551 -0.021429 -0.012994 0.127376 -0.044806 0.115070 -0.093070 0.095990 0.025952 -0.139990 -0.040513 -0.125196 -0.196514 -0.063397 -0.200443 -0.146989 0.053536 0.124999 -0.075048 -0.054697 0.035456 0.120747 0.013065 0.181905 -0.013382 -0.021783 0.122849 -0.189967 0.005011 0.059009 -0.056754 0.037284 -0.023795 -0.088420 0.090760 -0.045315 0.197399 -0.127322 0.038333 -0.224683 0.014009 0.106174 -0.009822 -0.185087 -0.011571 -0.170989 0.104302 0.110234 -0.148713 -0.098190 -0.107384 0.082037 0.121626 0.145154 -0.037149 -0.164233 -0.039076 0.021403 0.131762 -0.029308 -0.070838 0.085060 0.033445 0.038355 -0.072606 -0.029245
-0.012940 -0.132888 0.126971 0.118917 -0.096966 -0.032371 -0.084714 -0.121513 0.157010 -0.121718 -0.092338 -0.002907 -0.006567 -0.009745 -0.159451 0.045314 -0.118995 0.144605 0.173274 -0.075748 0.071756 -0.067001 0.129387 -0.196264 0.177137 0.104873 -0.193912 -0.114224 -0.029804 -0.177799 -0.061828 -0.074088 -0.089869 0.006151 -0.084115 0.047906 0.072630 0.110622 -0.088974 0.041823 -0.136210 -0.092922 -0.108942 0.145324 0.043115 0.066549 -0.107619 -0.048744 0.008434 -0.048968 -0.136859 -0.104744 0.038831 -0.149590 -0.105073 -0.032138 0.001262 -0.179471 -0.052422 0.130258 -0.096392 0.080121 -0.012000 0.055390 -0.092502 0.166207 0.151085 0.115082 -0.042582 -0.105791 -0.141380 -0.100660 -0.098392 0.020124 0.132348 0.085322 0.099389 0.095891 0.119633 -0.184188 0.143339 -0.071243 0.053384 0.113456
-0.116905 -0.093167 -0.105553 0.007127 0.053249 0.068283 -0.130942 0.168325 0.030393 -0.112843 0.017227 -0.012307 0.158367 0.052515 -0.166393 0.116114 -0.076165 0.062603 -0.093489 0.108354 -0.019101 0.055048 -0.058561 0.025342 0.002548 0.018774 0.121421 0.128292 -0.154840 -0.145728 -0.128752 0.110570 -0.094683 -0.085886 -0.173852 0.087755 -0.082967 0.062048 0.029451 0.012492 -0.178011 -0.073815 0.055234 0.133517 -0.078489 -0.161722 -0.207163 -0.009667 -0.041860 -0.106815 -0.045121 -0.142423 -0.188163 -0.133072 -0.043296 -0.198254 0.179126 0.092586 -0.108880 -0.037993 0.026804 0.068614 0.057218 0.026177 -0.106150 0.174941 0.039248 0.032876 -0.101309 -0.057881 -0.005968 0.156114 -0.072628 -0.047685 0.110994 -0.127923 -0.010224 -0.057962 0.080252 -0.120374 0.120241 -0.150613 0.116762 -0.028558
0.095887 -0.072982 -0.156246 0.042753 -0.154805 0.067463 0.003760 0.129659 0.098261 -0.127582 -0.007854 -0.120623 -0.030988 0.108640 -0.026684 0.077073 0.139645 -0.178890 0.032387 0.160954 0.062735 -0.046720 0.151541 -0.136674 0.124159 0.131847 -0.183265 -0.012327 -0.076689 -0.034767 0.079288 -0.083688 0.039254 0.030823 0.105229 0.028103 -0.034388 0.027121 -0.130505 0.087539 -0.095604 0.072582 0.158090 -0.102230 -0.002452 -0.097877 -0.070912 0.111413 -0.112914 0.174307 -0.010772 0.125539 -0.030847 0.027220 0.004471 0.104517 -0.086340 0.059940 0.015616 0.104510 -0.134462 -0.199271 0.079601 -0.017456 0.143863 0.127294 0.156723 0.077504 0.092016 0.023260 -0.057556 -0.015857 -0.097679 -0.112963 -0.056385 -0.143769 -0.044481 0.084608 0.089366 0.053318 -0.095709 0.075902 0.130490 0.027607
0.175443 -0.032525 0.113777 0.066963 -0.176062 0.021291 -0.066050 0.116660 -0.076897 0.129322 0.120907 -0.050176 -0.123567 0.018589 -0.084391 -0.067977 0.008030 0.114053 -0.158717 0.107884 -0.165566 -0.057880 -0.139478 -0.202032 0.137128 0.085603 -0.202904 -0.035337 -0.153533 -0.059958 -0.046145 0.104597 -0.118321 0.047865 -0.107536 0.044892 -0.101913 -0.159749 -0.056009 0.088512 0.204085 -0.035385 0.171553 0.175495 0.005824 0.028211 0.039361 0.065458 -0.003576 -0.112676 -0.086974 0.027662 -0.027390 0.001751 0.003717 0.110482 -0.019812 0.010363 0.090504 0.062065 -0.033504 0.116246 0.012589 -0.087874 0.159043 0.095027 0.107421 0.059916 -0.006684 0.070453 0.135211 -0.011456 -0.127874 0.044041 -0.010649 0.059484 -0.124884 -0.074070 -0.037762 -0.180825 0.144553 -0.056814 0.180766 -0.047814
-0.058277 -0.136757 0.198644 -0.190548 0.040113 -0.157497 0.083144 0.154001 0.163845 -0.038491 -0.035265 0.000135 0.149577 -0.025867 0.007039 0.050426 -0.075173 0.006086 -0.146724 0.081953 0.000597 0.074512 -0.136657 -0.174760 -0.124524 -0.059926 0.057658 -0.001683 -0.126724 -0.003508 0.108729 0.185279 0.130023 0.063797 0.164953 -0.110928 -0.188058 0.054531 0.202792 -0.059844 -0.105560 -0.036412 0.004896 -0.148525 -0.117499 0.038846 -0.119838 0.118070 0.023448 -0.068981 0.142219 -0.075998 -0.031951 -0.030652 0.115843 -0.119659 0.108634 -0.062471 -0.162772 0.068676 -0.139321 0.107323 0.013122 -0.132869 -0.165016 -0.195308 0.096706 0.138716 0.043373 -0.029119 -0.098984 0.124230 0.136139 0.142253 -0.088002 0.163214 -0.132869 -0.165898 -0.132421 -0.146911 0.078494 0.083156 0.100457 0.119916
-0.089757 0.170061 -0.162738 0.004887 -0.092726 -0.044998 0.083000 -0.129494 0.143885 0.068384 -0.003886 0.091882 -0.102890 -0.049843 -0.024968 -0.122691 -0.121008 -0.118058 0.121650 -0.130784 0.137528 0.096503 -0.149642 -0.005113 0.138467 0.040708 0.037095 0.161310 0.060154 0.088218 0.133060 -0.131775 -0.013826 0.074891 -0.145580 0.069540 0.085692 -0.101323 0.015348 0.118784 0.099424 -0.093429 0.146658 -0.115620 0.087780 -0.105839 -0.085719 0.121957 -0.053734 0.007263 0.085865 0.022356 -0.016320 -0.165706 0.167234 -0.094961 0.040253 -0.092078 -0.100280 -0.129391 -0.039036 0.066138 -0.149066 0.085942 0.156894 -0.128898 0.097016 0.112753 0.052872 -0.120676 0.071359 0.044547 -0.079204 -0.049788 -0.013550 -0.074434 0.035791 0.050643 -0.163594 -0.160914 0.149262 -0.053118 -0.016094 -0.025339
-0.073330 0.086848 -0.179245 0.162035 -0.189059 -0.020685 0.158458 0.051538 0.062800 -0.101436 -0.113790 0.165045 0.134850 0.147203 -0.038971 0.048061 0.035868 -0.022236 0.090375 0.053851 -0.118826 -0.083184 0.092097 -0.103569 0.038850 0.174271 -0.019541 -0.159607 0.073205 -0.109393 0.124279 0.142928 0.133087 0.147480 -0.092378 0.037016 0.062448 0.007226 0.147713 -0.082425 -0.104853 -0.077549 0.109381 0.189553 0.104543 -0.048687 -0.076327 -0.090037 0.170992 0.016904 0.037692 -0.194845 -0.159309 0.044698 0.116388 -0.123342 -0.194006 0.093664 -0.072036 -0.183675 -0.118376 0.027307 0.062082 -0.120878 -0.009062 -0.145524 -0.064870 -0.208296 -0.060169 0.083274 -0.059375 -0.003276 -0.141077 -0.151265 -0.186563 -0.024139 0.031725 -0.047381 -0.183027 -0.197004 0.013077 0.194264 0.153618 0.060315
-0.134494 0.097659 -0.041640 0.158052 0.028110 -0.065599 0.124217 0.123394 0.094371 0.104182 -0.109550 0.015723 -0.037973 -0.065875 0.021342 0.120031 -0.148300 0.064479 0.017281 0.140782 0.051364 -0.025519 -0.028237 0.022572 0.008755 0.150824 -0.131398 0.091166 0.032407 0.045220 0.060719 0.120804 0.068888 -0.134788 -0.161938 -0.086855 0.168327 -0.138080 -0.088388 -0.088599 -0.155519 0.033889 -0.109694 0.000156 0.002650 0.032852 -0.142001 0.017718 0.043967 -0.154233 -0.021911 0.023493 0.060035 0.195169 -0.050370 -0.063144 -0.136446 0.053586 -0.078455 0.106044 -0.184902 -0.008822 0.042267 -0.144061 0.061782 0.122212 -0.141411 0.016804 -0.088495 -0.152944 0.018588 0.153068 -0.124291 0.164070 0.066488 -0.003027 0.104403 -0.068035 0.152666 -0.124616 0.026720 -0.146539 -0.135051 -0.135117
0.025451 0.103579 0.115583 -0.120174 -0.020896 0.103282 -0.103930 -0.142311 0.143199 -0.157778 0.135923 -0.049480 -0.099662 0.136220 0.107143 -0.140866 0.023855 0.060548 0.002825 0.109741 -0.194337 -0.076966 -0.052997 -0.158394 0.060276 0.027266 -0.010924 0.061729 -0.130186 -0.098372 0.076593 -0.047396 -0.055150 0.077174 0.171081 -0.012862 0.092142 -0.064061 -0.100875 0.129466 0.159746 -0.181150 -0.048825 -0.117957 -0.148897 0.158133 -0.000091 -0.122716 -0.013233 0.089016 -0.158253 0.081920 -0.055778 0.124507 -0.085662 0.192030 -0.064648 -0.067183 -0.091304 -0.019886 0.025961 -0.107536 -0.001285 0.101697 0.028365 0.099654 -0.011317 -0.175746 -0.049689 -0.002151 -0.042198 -0.008997 -0.101470 0.019505 -0.056620 -0.162655 0.026825 -0.021726 -0.120340 0.100661 0.121914 0.052359 0.131694 -0.156323
0.138380 -0.096432 0.020868 -0.016591 -0.048404 -0.134799 0.016047 -0.106327 -0.126851 -0.126901 -0.119577 -0.197074 -0.031015 -0.084975 -0.099362 -0.112240 0.136336 0.024020 -0.129111 0.019815 0.114132 -0.032643 -0.087809 0.073624 -0.167062 0.009633 -0.120587 0.033825 -0.039232 -0.138397 0.024400 0.032380 -0.101999 0.056543 -0.113968 0.081042 -0.057412 -0.014827 0.176830 0.085712 0.026909 0.088469 0.035813 -0.181917 0.056083 -0.052280 0.170102 -0.016675 -0.145454 0.006277 -0.154475 -0.205084 -0.119115 -0.085277 -0.001947 0.158414 -0.154995 -0.001735 0.080313 0.051104 0.028102 -0.105128 -0.038030 0.183479 -0.057289 -0.032810 -0.148115 -0.101717 0.145748 0.051969 0.023008 0.004235 -0.073752 -0.021848 0.012211 -0.083605 -0.101214 0.047641 0.064863 0.014337 0.161606 -0.132180 0.018112 0.101080
-0.006958 -0.107153 -0.148751 -0.009908 -0.101166 -0.019312 -0.113627 -0.017284 -0.070462 -0.053392 0.047856 -0.159666 0.038862 -0.062584 0.151891 -0.137355 0.131276 0.094083 -0.154280 0.046791 -0.102596 0.115461 0.011596 -0.067707 -0.137410 -0.042903 -0.028193 0.147600 -0.119009 0.028946 -0.045386 0.021959 -0.019108 0.019440 -0.095934 0.151753 0.000238 -0.156845 -0.127022 0.096541 0.045011 0.164773 -0.156565 -0.116833 0.062285 0.115680 -0.069111 -0.162185 0.043461 0.155738 -0.038308 0.084448 0.110091 -0.161099 -0.015722 0.067194 0.013304 -0.136408 0.133059 -0.127128 0.141215 -0.021622 0.050478 0.032824 0.061034 0.073230 -0.148384 0.082563 0.167001 -0.060046 -0.110989 0.110701 0.022935 0.137631 -0.087576 -0.004784 -0.137375 0.082045 0.076412 -0.163711 0.040537 0.081840 -0.123210 0.127578
0.150988 0.147511 0.059428 0.025833 -0.052262 -0.063237 -0.032793 0.087069 0.005202 0.042570 0.138394 0.085906 -0.082408 -0.108715 0.093432 -0.144419 0.127875 0.153805 -0.092404 -0.095953 -0.074798 0.193798 0.156834 -0.156994 -0.077864 0.123781 0.077173 -0.110104 0.085639 -0.059264 -0.073693 0.039676 0.032706 -0.013576 0.033219 0.015218 0.190673 0.151222 -0.039641 0.078430 -0.029254 0.034027 0.087699 0.003134 0.073470 -0.109559 -0.131039 -0.062638 -0.071385 -0.196940 -0.046735 -0.030822 0.072836 0.128424 -0.078012 -0.082242 -0.026810 0.191716 -0.096789 -0.113559 0.033263 0.004664 0.143314 -0.025975 0.068062 -0.060878 0.158394 0.160777 -0.092026 0.083531 -0.198177 -0.132091 0.068779 -0.115557 0.060186 -0.124178 -0.086523 0.077583 0.043167 0.084468 0.044698 -0.016635 0.021332 0.168674
0.128462 -0.008368 0.150312 -0.024655 -0.041892 -0.065174 0.036983 0.094810 0.150523 -0.116820 -0.057420 -0.091722 0.094048 -0.140069 0.021983 -0.151779 -0.168117 0.025171 0.007429 0.123643 -0.049169 -0.021435 0.087117 -0.095741 0.113416 0.150245 0.132447 0.091280 -0.171106 -0.054754 0.114082 0.047189 0.016314 0.069060 0.135615 -0.137330 0.048454 -0.091592 -0.057686 -0.141200 -0.060583 0.065971 0.157939 -0.033053 -0.116830 0.070549 0.157036 0.124648 0.011129 0.052498 0.105635 0.030706 -0.083879 -0.089417 0.074744 -0.120547 -0.058393 -0.086532 -0.035816 -0.115448 -0.040235 0.074879 -0.143310 0.088344 -0.169018 -0.089854 -0.032011 0.021078 0.074431 -0.009782 -0.124279 -0.097477 0.048381 -0.122355 0.163379 0.041898 0.103749 -0.037628 -0.120963 0.024841 -0.029821 0.124832 0.042565 -0.018746
0.070645 0.146839 -0.039459 0.151954 -0.022514 -0.141774 -0.119111 -0.093357 -0.038066 -0.135383 -0.056091 -0.072474 0.056501 -0.092989 -0.117782 -0.159494 -0.038921 -0.143745 -0.133301 0.146403 0.048966 -0.101171 -0.131924 0.019739 0.096790 0.137738 -0.005529 0.045668 0.012774 -0.130156 0.031187 0.044687 -0.102792 0.103310 0.000948 0.020202 -0.083788 0.157921 -0.153168 0.050298 0.067454 -0.090156 -0.099677 -0.006192 -0.085844 -0.009394 0.130782 -0.050695 -0.100155 -0.067947 -0.167361 0.021903 0.083852 -0.023501 0.099786 -0.127112 0.119857 -0.134147 0.134416 -0.092339 0.027333 0.011336 -0.058168 -0.043881 -0.104788 0.067110 0.128974 0.113616 -0.154379 -0.129653 0.006129 0.130821 0.011108 0.080711 0.149612 0.101668 -0.090205 -0.106957 -0.069484 -0.102805 -0.056177 0.076307 -0.166270 -0.020340
-0.118935 0.075927 -0.100603 0.090397 0.030709 -0.019635 0.090539 -0.107707 -0.142851 0.030217 0.029578 -0.044314 -0.029376 -0.005194 0.145240 0.098368 -0.173510 0.092408 0.102516 0.167466 0.001069 0.065041 0.074224 0.043142 -0.050673 -0.095908 0.093227 0.135993 -0.020342 0.079882 0.034025 -0.169962 -0.026454 0.056791 0.081060 -0.175776 -0.046146 -0.110398 0.029423 0.132052 0.027091 0.174516 0.056038 -0.112991 -0.188353 0.119015 -0.081551 -0.008024 -0.149144 -0.096896 -0.171306 -0.172853 0.066080 0.024195 0.000024 -0.132498 -0.035896 0.193498 -0.026787 -0.161969 -0.077485 0.027086 0.180097 -0.019655 0.130970 -0.125613 -0.042525 -0.154533 -0.073042 -0.065612 0.102489 0.124562 -0.116836 0.047709 -0.184848 -0.039713 -0.120859 -0.078164 -0.057346 -0.131578 0.056183 0.088972 -0.103268 0.084604
0.003070 0.049883 -0.151628 -0.091643 0.061739 0.073755 -0.073366 0.159869 0.056944 0.036331 -0.143923 0.140151 -0.019352 -0.051588 0.128551 0.110331 -0.110680 -0.098206 -0.172006 0.170610 -0.115345 0.031819 0.141672 -0.098674 -0.109046 -0.125723 -0.166426 -0.122042 -0.165995 -0.020289 0.083723 -0.104384 -0.005259 -0.155812 0.137961 -0.077511 0.102669 0.019974 -0.136692 -0.051464 -0.078590 0.059634 -0.120109 0.133723 0.147866 -0.104729 0.123557 0.077915 -0.082583 -0.047489 0.126856 -0.001678 0.111437 -0.159412 -0.001964 -0.006732 0.100190 0.119013 0.118651 0.116749 -0.154570 -0.107123 0.178222 -0.023144 -0.087192 -0.039278 -0.024786 -0.072192 -0.158425 -0.033880 -0.106600 0.110014 0.028325 0.146936 0.189482 0.141479 -0.018241 0.101199 0.163715 -0.001799 0.086387 -0.052350 0.132876 -0.115471
0.070256 -0.102284 0.100039 0.082235 -0.117540 -0.042495 0.059637 0.068444 0.009701 -0.171172 0.126819 0.030249 -0.158378 -0.025673 -0.101923 -0.083784 -0.049021 -0.190911 0.121537 0.166640 0.016525 0.080641 -0.016705 -0.104430 -0.119327 -0.103306 0.076765 0.177227 0.040642 -0.009649 -0.202976 0.072185 -0.078023 0.128739 -0.117461 0.110003 -0.172001 -0.098756 0.024629 0.070491 -0.026598 -0.031507 -0.107472 0.011872 0.037571 -0.008970 0.100170 -0.003520 -0.169400 0.204226 -0.150165 -0.007687 0.102626 0.101889 0.164120 0.170475 0.126757 -0.135666 -0.002058 -0.140041 -0.041013 0.068539 -0.115245 -0.126181 0.038485 0.032571 -0.146815 0.042295 -0.007420 0.112521 -0.123353 0.023285 -0.054694 0.051865 0.077815 -0.086299 0.073400 -0.118816 -0.031683 0.051585 -0.117223 0.039663 -0.141693 -0.155272
-0.022725 -0.014835 0.016593 -0.125021 0.014558 0.049520 0.041974 -0.140861 -0.036472 -0.028894 0.069298 -0.096290 -0.023858 0.161122 -0.142071 -0.180317 0.072942 -0.197279 0.189227 -0.027571 0.041620 -0.072327 -0.114082 0.046047 0.009757 -0.060442 -0.174167 0.013283 0.052414 -0.043323 0.019408 0.004184 -0.200111 -0.022076 -0.093816 0.029443 0.117589 -0.068525 0.042006 0.011357 0.126096 0.027127 -0.143330 0.052332 -0.097666 -0.130623 -0.151276 0.111755 0.065166 -0.129321 0.126363 0.065902 0.103394 -0.035144 0.112796 0.138153 -0.185412 0.133268 0.115048 0.052436 -0.057910 0.058963 0.108056 -0.197086 -0.019660 0.105844 -0.004436 -0.074942 -0.190705 0.180741 -0.019273 -0.146665 0.095716 -0.073573 -0.013316 -0.013036 -0.049749 -0.170655 0.005483 0.133142 -0.096581 0.171870 0.027742 0.120397
0.113523 -0.144218 -0.011929 -0.089921 -0.064432 -0.137103 0.014455 -0.021955 0.020286 0.150809 -0.076417 0.006478 -0.081817 -0.118610 0.065097 -0.150640 -0.160284 0.029331 -0.010989 -0.159750 -0.142141 -0.157726 0.108484 -0.119908 -0.077858 0.147885 0.110985 0.013912 0.099926 0.008653 0.075302 0.129951 -0.118157 -0.172041 -0.126009 0.090408 0.043992 -0.114549 -0.041124 -0.068122 -0.161573 0.092209 -0.129246 -0.112020 0.145041 -0.129442 -0.038761 0.080389 0.090472 -0.118294 0.045996 0.161777 0.152500 -0.072106 0.122093 -0.067878 -0.074709 0.059549 0.014598 -0.116698 0.043796 -0.091535 -0.170980 0.092220 0.030140 0.170687 0.136903 -0.057704 -0.159032 0.075423 0.172426 -0.154698 0.141745 -0.096540 -0.156031 0.127083 0.020605 -0.025785 -0.135086 -0.009821 0.081704 0.084575 0.147790 -0.108092
0.138642 -0.065645 -0.153970 -0.107232 -0.135574 -0.113860 -0.066377 -0.204365 -0.040417 -0.115741 0.096845 -0.109596 -0.115752 -0.150151 -0.117894 -0.152608 0.133637 0.189427 0.062259 0.024750 0.023863 0.006362 0.081852 -0.095059 -0.028010 -0.139091 0.033867 0.104461 0.128980 -0.112541 -0.068075 0.109388 -0.104186 -0.165432 -0.161057 -0.151631 0.132122 -0.155135 -0.056905 -0.053145 0.089051 0.056036 -0.073482 -0.160029 0.083752 -0.078908 -0.113521 0.058933 -0.168178 0.113818 0.051282 -0.022173 -0.117326 -0.086412 0.095883 -0.043510 0.060910 0.023754 -0.057264 -0.094285 -0.052003 0.185256 -0.024965 0.141298 0.009526 0.053745 0.130412 -0.164129 -0.186881 -0.135936 -0.178745 0.007749 0.052765 -0.038986 -0.158734 -0.184854 0.025707 -0.063931 0.099478 -0.192129 0.141921 -0.145421 0.167081 0.022685
0.098439 -0.096964 0.078201 -0.089640 0.007602 0.115527 -0.142526 -0.002988 -0.135865 0.067651 -0.062975 -0.106448 -0.141332 -0.054165 0.005913 -0.057886 -0.005761 0.033888 0.067196 0.133571 0.090204 -0.138853 -0.105821 -0.029028 0.140151 0.101497 0.110020 -0.111753 0.011666 -0.159989 -0.130725 -0.131251 0.144603 -0.112291 0.063029 -0.088591 0.163847 -0.159949 -0.110089 0.020032 0.087229 -0.152674 -0.147101 -0.100408 -0.026263 0.131200 -0.084970 0.115659 0.110358 -0.030114 -0.070271 -0.029334 -0.165182 -0.104241 0.132465 0.074951 0.108668 -0.154948 0.068695 -0.151870 -0.059944 -0.161249 -0.066505 0.045646 -0.167549 0.134549 0.064107 0.039256 0.122683 -0.062412 0.132529 -0.152896 0.018840 0.001097 -0.157218 -0.111942 -0.162031 -0.052307 0.010078 0.008133 0.019962 0.164525 -0.128621 0.015965
0.003847 0.087752 -0.074687 -0.034189 -0.014197 -0.109921 0.068287 -0.047927 -0.000612 -0.040051 0.139683 0.147114 -0.152661 -0.079750 0.008312 0.030474 0.080274 -0.052163 0.112011 -0.123333 0.161844 -0.072761 0.009724 -0.025947 -0.127747 -0.067984 -0.044355 -0.038431 -0.082305 0.039848 -0.158918 -0.137175 -0.166664 0.147626 -0.059390 -0.155378 -0.008384 -0.170172 0.162478 -0.159408 0.060479 -0.125781 -0.010646 -0.053293 0.031861 -0.177259 0.077103 0.070557 0.095516 0.187084 0.070311 0.031224 -0.016444 0.108901 -0.003476 -0.135229 0.117464 0.105398 -0.179949 -0.081039 -0.073256 -0.006357 0.128713 0.072481 0.090700 0.172802 -0.157812 0.016692 -0.112257 -0.060219 0.119261 -0.129753 0.096505 -0.196462 -0.202059 -0.203063 0.129041 0.137556 0.108962 0.115116 -0.143248 -0.039057 0.178104 -0.080473
-0.148350 0.075110 0.068144 -0.139033 -0.181850 -0.179440 0.030055 -0.118982 -0.023041 0.067230 0.001259 -0.032585 -0.016219 -0.081697 -0.163472 -0.063929 -0.077329 -0.070865 -0.019483 -0.155797 -0.103302 -0.009927 0.092575 -0.191536 -0.094872 -0.148714 -0.149224 0.084312 0.108999 -0.093031 -0.150024 0.049966 -0.089281 -0.155690 0.148867 0.127087 -0.058445 0.015982 -0.016193 0.101587 -0.075309 0.032880 0.048772 -0.128509 -0.176433 -0.001244 -0.033876 -0.143936 -0.115764 -0.019667 -0.032324 0.004159 -0.109343 0.014589 0.036500 -0.147891 -0.085861 0.142596 -0.206582 -0.135351 0.011779 -0.140009 0.138464 -0.033145 -0.072876 -0.142766 0.111559 -0.154680 -0.172822 -0.026586 0.110015 -0.102859 -0.033507 0.033784 0.013899 -0.149979 -0.091741 -0.085431 0.147770 0.075751 -0.046685 0.003253 0.128974 -0.067957
0.171704 -0.128112 0.102125 -0.139935 -0.140321 0.124023 0.141463 -0.133422 -0.091809 -0.047080 0.012607 -0.054304 -0.014663 0.136629 0.076154 -0.127168 -0.134681 0.132441 -0.105410 0.073287 -0.089997 0.038060 0.025940 0.049375 -0.187241 -0.123996 0.126011 -0.215196 -0.162244 0.057231 0.057672 -0.198927 -0.021497 0.130083 -0.014553 0.008359 0.118100 -0.020636 -0.150268 -0.098282 -0.200968 -0.019499 0.150124 0.092553 0.070801 -0.174408 -0.044386 -0.003760 -0.009508 -0.023364 -0.010706 -0.088329 0.077391 -0.168617 0.052287 0.073145 -0.151460 0.113721 0.016082 -0.114889 -0.191932 0.078174 0.140452 -0.036241 -0.154393 -0.111443 -0.077734 0.052693 0.053529 -0.048664 0.113210 -0.088797 0.064421 -0.014185 -0.065295 0.001355 -0.023686 -0.080757 -0.104678 -0.189883 0.070232 0.102216 -0.030199 0.083192
-0.027170 -0.079584 -0.149557 0.001872 0.134298 -0.131649 -0.163179 -0.007774 -0.094164 -0.007955 -0.014182 0.009422 -0.070224 0.129639 -0.144264 0.116692 0.138043 -0.179800 -0.091441 0.084037 -0.109654 -0.009275 0.072518 -0.067346 -0.172359 0.003669 -0.132546 -0.093360 0.031408 0.051221 0.013296 0.005974 -0.077785 -0.132166 -0.151842 0.011737 0.032044 -0.124389 0.142680 0.134398 -0.070603 0.025094 -0.048145 0.046209 -0.001017 0.057823 -0.117138 0.168935 -0.014954 0.028992 -0.164218 0.089712 0.128955 0.073906 -0.121276 -0.129144 -0.106410 0.009072 -0.064255 -0.074626 -0.035865 -0.004434 -0.115023 0.057473 0.055872 0.034254 0.149634 0.109883 0.138468 -0.013268 -0.102235 -0.005074 -0.118783 -0.119552 -0.040993 0.161684 -0.040418 -0.009411 -0.178724 0.052535 0.017671 -0.051929 -0.126106 -0.199867
0.034086 -0.072244 0.074870 -0.073932 -0.000900 0.015612 -0.101607 -0.055514 0.038273 0.041912 -0.101948 -0.036985 0.029623 0.113585 -0.164382 -0.011310 -0.069137 0.085247 -0.032666 -0.129453 -0.075506 0.083469 -0.101186 -0.092679 0.075103 -0.025760 -0.027109 0.091271 -0.024791 0.129953 0.027592 0.051329 -0.055468 0.130139 0.157972 -0.027250 -0.032307 -0.138306 0.171653 0.188038 -0.176188 -0.046629 -0.037503 -0.073693 0.017106 -0.053913 0.064489 -0.166194 0.041414 -0.058249 -0.096437 0.068259 0.053472 0.050605 0.150984 -0.016266 0.091188 -0.155986 0.037500 0.038807 -0.136393 0.037115 -0.140328 -0.133843 -0.132615 0.099355 0.104996 -0.177147 0.033695 -0.056217 0.191089 -0.119892 -0.117830 -0.154214 0.045791 0.078124 -0.068564 0.097532 0.106059 0.131833 0.180777 0.100908 -0.067228 -0.181213
0.048451 0.047846 0.067584 -0.063907 -0.072136 -0.149329 0.037296 0.020934 -0.055793 0.055990 -0.060139 -0.047586 -0.074536 0.192895 0.116632 -0.108806 0.061226 -0.009435 -0.061394 -0.069712 0.035636 -0.090144 0.160836 -0.169827 -0.108571 -0.163921 -0.044625 0.041645 0.067567 -0.005123 -0.122920 -0.005814 -0.122191 0.005614 -0.041999 -0.110706 0.116624 0.120828 0.105810 0.078027 -0.106421 -0.160653 0.031085 0.090986 -0.049913 0.049402 -0.014920 0.111145 -0.169981 0.163369 0.153006 -0.015422 0.048498 0.006761 0.104472 -0.049872 0.056260 0.025533 0.115635 -0.158330 0.030241 0.123471 -0.046550 0.112775 0.104100 0.070177 -0.143837 -0.106503 0.097808 0.109378 0.016196 0.026363 -0.018847 -0.034667 0.065382 -0.051430 -0.030240 -0.024459 -0.056968 -0.148745 -0.014001 0.027967 0.051043 0.071060
-0.045202 -0.077273 0.001597 0.010820 0.108477 -0.052912 0.052617 0.161815 0.125537 -0.109642 -0.149827 0.103403 -0.087454 0.087903 -0.132236 0.045575 0.094261 -0.105675 0.098804 0.088204 0.063933 -0.142155 -0.060968 0.162334 -0.032206 -0.022442 -0.004618 -0.157092 0.021545 -0.139151 0.057959 0.093975 0.092513 0.162214 -0.059309 -0.137594 0.133796 0.169422 -0.010475 -0.017326 0.067378 -0.117812 0.170918 -0.148708 0.085909 0.015373 0.076026 0.063186 0.144918 0.031395 0.019047 0.157596 -0.116991 -0.128672 -0.105774 0.038550 -0.097009 0.024633 -0.094735 0.143043 -0.087966 0.020273 0.044880 -0.024259 0.090799 -0.010490 0.022653 0.117744 -0.022238 -0.070669 0.130734 -0.068662 -0.042021 -0.114796 -0.107704 0.153309 0.001013 -0.037869 -0.092236 -0.078824 0.114166 0.028808 0.143302 0.099219
-0.141768 0.059298 -0.075208 -0.081996 -0.028039 0.061097 -0.068496 -0.044523 0.118436 0.095499 -0.003064 0.071542 0.023027 0.035287 0.099622 -0.032877 0.017469 0.129666 0.061460 -0.089501 -0.153087 -0.097288 0.062601 -0.138324 0.071817 -0.021328 0.031958 -0.097365 0.034185 -0.020344 -0.010660 0.102228 -0.114182 0.122890 -0.040146 -0.055694 -0.085680 0.076254 0.013588 0.090221 0.087458 -0.165899 0.153894 0.006368 0.130542 0.038972 -0.087719 -0.123681 -0.044051 -0.056289 0.036700 -0.144657 0.028454 0.157860 0.060627 0.012795 0.034118 0.134277 -0.157114 0.076313 0.046356 0.138154 -0.061733 -0.137674 -0.137332 0.043852 0.047710 0.107342 -0.139184 -0.056973 -0.039926 -0.009278 0.157494 -0.139423 -0.114715 0.123967 -0.136127 -0.054399 0.165924 -0.053661 0.134254 0.154540 0.173221 -0.141204
0.013973 -0.036126 -0.043746 0.013109 -0.156735 -0.125331 -0.047278 -0.067504 0.081006 -0.106176 -0.028467 0.045342 0.084731 -0.186368 0.017047 0.019945 0.155178 -0.206561 0.046771 -0.025524 0.151287 0.103294 -0.145413 0.133687 -0.053325 0.029743 -0.001164 0.093855 0.009571 -0.026216 -0.162434 -0.163000 0.107342 0.121250 -0.116581 0.126953 -0.148635 0.056771 -0.078064 0.140105 -0.099548 -0.097633 -0.101589 0.181457 -0.122726 0.024704 0.089514 -0.019424 -0.170134 -0.063530 0.096349 0.089278 -0.132699 -0.139322 -0.001626 0.150964 0.051409 0.186351 0.118367 -0.167918 0.130231 -0.184588 0.042435 0.013283 -0.083869 -0.099789 -0.012437 -0.191692 0.089327 0.128306 -0.084534 0.110387 0.096558 -0.160255 -0.053530 0.061498 0.166985 -0.159919 0.070952 -0.175403 0.072383 0.174871 -0.194629 0.124554
0.165722 0.000920 0.004965 0.001743 0.100463 -0.157216 0.125458 0.156548 -0.191672 -0.025667 0.116361 0.207286 0.118421 0.144862 -0.146774 -0.102614 -0.021133 0.187233 0.028828 0.087547 -0.101277 -0.139931 0.034099 0.038506 0.113532 -0.098041 0.060981 0.137802 0.109149 -0.145291 -0.167053 0.003780 -0.170119 0.043420 0.144836 0.170276 0.008994 0.060676 -0.008919 0.170291 -0.031417 -0.126366 -0.072359 -0.153034 0.103262 -0.175511 0.093870 -0.169391 0.077671 0.046372 0.043976 0.107562 0.018749 0.117500 -0.019113 -0.035475 0.015152 -0.045940 0.059844 -0.050763 0.119508 -0.089584 0.063731 -0.133079 0.053656 0.131391 -0.168216 -0.073171 -0.121634 -0.065763 -0.113376 0.097082 -0.030957 0.052644 0.016266 -0.015941 -0.134005 -0.043614 -0.102891 -0.025191 -0.137629 -0.160969 0.060401 0.131556
-0.113722 -0.034105 -0.146931 0.033398 0.128969 0.080934 -0.059627 -0.084361 -0.164714 -0.117473 0.128502 -0.117348 -0.086589 -0.052170 -0.078689 0.026137 0.100099 0.173110 -0.030159 0.058903 -0.142966 -0.121252 -0.087799 0.038215 0.151157 -0.081864 -0.127461 -0.012931 -0.144235 -0.021198 0.075097 0.036566 -0.128680 -0.034536 -0.060352 0.055099 -0.048241 -0.158417 -0.007383 0.159056 0.028047 0.111036 -0.039959 -0.087930 -0.134102 0.104212 -0.032298 -0.156616 -0.071415 0.165884 -0.019919 -0.131392 0.050277 -0.143048 0.068627 -0.027059 -0.099882 0.022695 -0.028985 -0.003040 0.051115 0.162437 -0.008667 -0.153531 -0.051821 0.168112 0.168054 0.096973 0.108806 0.115215 0.080093 0.134436 -0.024726 -0.049953 -0.014733 0.164276 -0.159416 -0.162790 0.145039 0.069171 -0.080593 0.137566 -0.009908 0.091721
-0.055197 -0.003264 0.071490 0.171718 -0.012544 0.082198 0.091611 0.040301 0.084534 -0.170834 -0.138777 -0.129326 -0.048427 -0.169179 0.049983 -0.000278 0.136943 -0.164178 -0.121776 0.052078 0.137111 -0.003301 0.116122 -0.151882 0.150829 -0.077218 0.087287 -0.109460 -0.099129 0.037185 -0.106417 -0.081167 0.031798 -0.151821 0.144504 0.070826 -0.147372 0.111110 0.082524 0.018835 -0.115849 -0.059034 0.006507 0.003363 -0.116443 -0.053985 0.128680 0.007151 -0.002582 0.078090 0.135851 0.047722 -0.146560 -0.074830 0.117086 -0.097549 -0.104474 0.098205 -0.114374 -0.008451 -0.062449 0.028209 -0.121168 -0.075045 0.108865 0.057974 0.077086 -0.122337 -0.139818 -0.049282 0.029420 0.108209 0.118637 0.159189 0.075479 -0.104740 0.036374 0.081445 -0.126070 -0.088400 0.039798 -0.160303 0.126124 -0.097413
0.062902 -0.149391 0.000066 0.092201 0.132007 -0.107477 0.102471 -0.144497 -0.055194 0.013927 -0.121529 -0.047360 0.051795 0.077958 0.100868 0.041512 0.076662 -0.041493 -0.063924 -0.124893 -0.186395 0.180144 0.110266 0.116175 -0.129690 -0.018659 -0.130779 -0.113233 0.099439 0.109117 -0.113223 0.060206 -0.135134 0.070622 -0.051041 -0.188759 0.025954 0.030247 -0.123986 0.162038 -0.037108 -0.008977 0.125877 0.139352 0.112166 0.204465 0.051275 0.041027 -0.107746 0.123489 0.129540 0.063382 -0.071052 0.092858 -0.002013 -0.044242 -0.102281 -0.022850 -0.016556 -0.050514 -0.093767 -0.036047 0.007795 -0.195991 0.141889 0.046301 -0.129404 -0.052899 0.092605 -0.092467 -0.051435 0.130383 -0.095224 -0.033910 -0.042019 0.147878 0.086991 0.097685 -0.077666 -0.185004 0.006293 -0.051428 -0.082679 -0.052063
0.021289 0.158468 -0.161488 -0.129494 0.106943 0.092812 -0.116105 0.008235 0.113074 -0.007226 0.030051 -0.041985 0.109747 -0.060376 -0.059553 0.030254 -0.148484 -0.089010 -0.163503 0.029080 0.067740 0.033346 0.073616 -0.035055 -0.136927 0.017157 0.150704 0.081640 -0.022310 0.064459 -0.072913 0.113380 -0.078654 0.123233 -0.160609 0.169428 -0.165809 -0.161333 -0.025108 -0.004502 0.105612 0.115017 -0.033507 -0.126470 0.065182 -0.118912 0.012093 0.101310 -0.152122 -0.059769 -0.100504 -0.071476 0.032711 0.178601 -0.136255 0.157258 -0.104747 -0.037658 -0.122303 -0.009559 0.011158 0.107573 0.107908 -0.081704 0.127295 0.022478 0.109082 -0.138738 0.037409 0.119484 0.095919 -0.015183 0.073091 0.137571 -0.009160 0.092046 -0.141076 -0.078337 -0.027292 0.101953 0.161909 0.161837 -0.162803 0.024863
-0.121256 0.016878 0.122563 -0.025713 -0.010976 0.051378 -0.089072 -0.008235 0.062594 -0.126510 0.012584 0.032932 0.129071 0.029723 -0.108927 -0.108556 -0.176484 0.057263 0.121545 0.183924 0.073495 -0.152281 -0.140603 -0.116363 0.160490 -0.048051 -0.105745 -0.097585 0.122047 -0.112964 -0.136841 -0.062086 -0.157633 -0.016605 -0.001539 0.018445 -0.065774 -0.032054 0.072226 -0.084648 0.031236 0.141172 0.161318 0.101862 -0.009853 0.073663 -0.169405 0.085406 -0.099594 -0.166048 -0.114757 -0.028387 0.097652 -0.120169 -0.120007 0.082745 -0.058788 0.200550 0.106587 -0.155335 -0.163329 0.026714 -0.021826 -0.032786 -0.132182 -0.098625 0.106239 0.076653 0.198570 0.146547 0.013784 -0.172567 0.136552 -0.164906 0.058346 0.078496 0.023464 0.135170 0.103701 -0.170863 0.011794 0.076947 0.086250 0.082603
0.181365 -0.061259 -0.093238 0.178210 -0.010352 0.148629 0.094756 -0.046094 0.016663 0.121303 0.017623 0.102662 -0.175930 0.209203 -0.099577 -0.009659 -0.198108 -0.028350 0.102267 -0.021458 -0.164305 -0.111389 -0.135648 -0.142776 0.005977 0.135340 0.070726 -0.044768 -0.062755 -0.070234 -0.172242 -0.115999 -0.040361 -0.065332 -0.125408 -0.198522 0.097934 -0.031928 0.096759 0.112277 -0.086447 -0.107905 0.132628 0.049185 -0.166626 -0.100008 -0.099095 -0.064222 -0.078694 0.119593 0.020091 -0.121553 0.123342 0.008771 0.047139 -0.153169 -0.080831 -0.157432 -0.166062 -0.090902 -0.027337 -0.164072 -0.056908 -0.161420 -0.054181 0.123248 -0.081056 -0.100408 0.003439 -0.046393 0.150220 0.063550 -0.057216 0.109680 0.123085 0.067921 -0.163287 0.151671 -0.094067 -0.204988 0.007915 0.008740 0.032100 -0.098454
0.170585 0.038937 0.038659 -0.164380 0.129462 0.170207 0.032200 -0.046721 0.060654 0.056018 0.072840 -0.134771 0.127833 0.075629 0.093953 0.011108 0.079018 -0.174452 -0.034524 -0.027635 0.013655 -0.112937 -0.048041 0.107494 -0.147922 0.121584 0.007269 -0.118369 0.135525 -0.115008 -0.088535 0.082307 -0.008285 -0.059209 -0.020249 0.114298 -0.129356 0.104803 0.102757 -0.140968 -0.094300 0.001079 0.139317 -0.058038 -0.041864 -0.007896 0.091356 -0.082781 0.127657 -0.052538 -0.072235 -0.071559 -0.048750 -0.130493 -0.006185 -0.050845 -0.017378 -0.121033 0.132736 -0.106684 0.075852 -0.042534 -0.020916 0.048434 0.152306 -0.110585 -0.149763 -0.074055 -0.134274 -0.125805 -0.145561 -0.087158 -0.006326 -0.078479 0.139532 -0.041517 0.084785 0.053794 -0.071222 -0.195294 0.144985 0.024118 -0.027864 0.089247
0.078900 -0.161923 -0.024753 0.119355 -0.123880 0.006592 -0.039561 0.017986 0.124111 -0.100836 0.049027 -0.076910 -0.042828 0.012969 -0.024679 -0.045499 0.118965 0.182331 0.173781 -0.104515 0.114685 -0.121964 0.123867 0.091388 -0.114501 0.045533 0.147724 -0.146257 -0.155401 0.117751 -0.128433 0.150147 0.156175 0.132997 -0.043135 -0.005035 0.004156 -0.037306 -0.046904 0.065842 -0.041312 0.155395 0.057736 -0.052088 -0.037094 -0.000715 0.044022 0.021688 -0.066695 0.094851 0.078461 -0.164029 -0.049023 -0.110817 -0.120611 -0.164965 -0.133131 0.007915 0.052557 0.101846 0.158501 0.095199 -0.130635 0.075525 -0.127350 0.102545 0.101897 -0.000514 -0.021358 0.154084 0.063289 -0.048246 -0.070363 -0.128719 -0.031478 0.080015 0.085294 0.014826 -0.090554 -0.109287 -0.165357 -0.051212 -0.004336 -0.028449
0.024331 -0.133770 -0.027803 -0.073278 0.170850 0.154476 0.059104 -0.106211 -0.029936 0.104922 -0.157445 -0.095653 0.108666 0.104690 0.118420 -0.164757 -0.111314 0.146453 -0.157892 0.125625 0.012475 0.035228 -0.156700 -0.102013 0.157403 -0.143185 -0.117259 0.122925 -0.060590 0.114658 0.103218 0.059841 0.002238 -0.009372 -0.125861 0.055452 -0.047182 -0.118550 -0.044928 0.107774 -0.149335 -0.114637 0.031961 0.119141 -0.074795 -0.004879 0.031391 0.137927 -0.161105 -0.049667 -0.164393 -0.056022 -0.006462 0.018421 0.129699 0.056572 -0.150776 -0.070452 -0.047064 -0.073341 0.029914 -0.077678 0.022511 0.017136 0.090430 0.151440 -0.155768 0.087931 -0.142533 -0.042890 -0.158035 -0.123641 0.026012 -0.043817 -0.082835 -0.084386 -0.042133 0.087546 0.176377 -0.128679 -0.086971 0.169147 0.200743 -0.043049
-0.118219 -0.007399 -0.109255 0.099018 0.129772 0.114905 0.148631 -0.090510 -0.036365 -0.142581 0.108828 -0.153058 0.015828 0.084121 0.073577 -0.195111 0.120478 -0.109649 -0.078627 0.056915 -0.020351 0.124322 -0.076249 -0.133595 -0.081535 0.112834 -0.126809 0.085371 0.033257 -0.064108 -0.100715 0.120822 -0.012385 -0.187223 -0.096448 -0.050341 -0.065172 0.149110 -0.011341 -0.026356 0.077176 -0.138202 -0.046494 -0.156650 0.021783 0.130061 -0.048357 -0.156432 -0.087117 -0.134894 -0.000609 -0.150222 -0.122914 0.088491 -0.096235 0.128675 -0.026326 -0.021909 0.030209 -0.201605 0.117701 0.136436 -0.079974 0.014786 0.149116 -0.102817 -0.037615 -0.099558 0.067924 -0.182794 -0.184634 0.037662 -0.083418 -0.128170 -0.064161 -0.146833 0.015984 -0.167722 0.133255 -0.163541 0.089466 -0.018420 -0.108869 -0.019859
-0.074192 0.046317 -0.146070 -0.084262 0.070815 0.157370 -0.027585 0.122592 -0.139984 0.011997 0.127612 0.081826 0.011992 -0.054951 -0.008701 -0.074412 -0.113998 -0.136448 -0.141011 0.132271 0.126081 0.067848 -0.038140 -0.018708 0.051359 -0.041382 0.096954 0.041368 0.096970 -0.161270 0.029715 0.116495 0.070195 -0.145211 -0.088732 0.114111 0.050262 0.017566 0.083826 -0.172003 -0.085071 -0.056960 0.030117 -0.142868 0.164435 -0.077734 -0.081536 0.122285 -0.086076 0.153844 -0.025952 -0.118356 -0.142326 0.088399 0.092720 -0.090995 0.053627 -0.098705 0.092466 -0.131394 0.113729 0.024764 0.055221 0.005212 -0.109244 0.091035 0.032494 0.162182 0.078721 0.044415 0.171134 0.129265 0.164963 0.045832 0.072320 -0.061624 0.058148 0.027447 0.062663 0.133252 -0.022983 0.001136 0.032442 -0.009542
