0.024807 0.157437 -0.057246 0.208933 -0.003463 0.003510 -0.255629 -0.025792 0.066821 0.039439
-0.117267 -0.098055 0.146830 0.178180 -0.134550 -0.011420 0.091577 0.150433 -0.170945 -0.030972
0.107952 -0.059516 -0.070937 0.103633 0.028446 0.149824 -0.066960 -0.161397 -0.263671 0.169537
-0.227039 0.250023 -0.171512 0.057708 0.131222 0.243068 0.197763 -0.179763 -0.054340 0.038630
-0.136928 -0.211624 0.080764 0.177381 -0.040052 0.031847 -0.193311 -0.104067 0.025980 0.160028
0.084029 0.104024 0.052379 0.071101 0.186539 -0.033381 -0.021126 0.255482 -0.129664 -0.028163
0.006394 -0.257847 0.148192 0.191099 -0.054624 0.205542 0.250307 0.186076 -0.067797 0.140532
-0.077858 0.109654 -0.183010 0.233434 -0.164442 -0.006685 0.119314 0.184837 -0.063409 -0.154178
0.089125 -0.111857 -0.021970 -0.118930 -0.188310 -0.189799 -0.120980 0.238728 -0.194926 -0.120868
-0.202178 -0.032315 0.010121 -0.022898 0.102082 0.077660 -0.191364 -0.026563 0.016161 0.187315
-0.114372 0.228190 -0.144135 0.135044 -0.089758 -0.018245 0.053406 -0.099367 0.103434 0.212323
-0.267871 0.227401 -0.029977 0.191509 0.019878 0.014540 -0.223901 0.300202 0.169800 -0.072106
0.041097 -0.131473 0.123464 -0.091197 0.103870 -0.126356 -0.088736 -0.095649 -0.239593 -0.195357
-0.118550 0.297471 -0.134033 -0.180914 -0.176217 -0.293571 0.049509 0.304126 0.082107 -0.108057
-0.194623 0.190985 0.166844 -0.105856 0.115110 0.233015 -0.233389 0.175421 -0.227276 -0.090451
0.058308 -0.106069 0.039640 0.168322 0.214363 0.038026 -0.131838 -0.203906 0.285920 -0.084715
0.119862 0.030277 0.278717 0.261613 -0.191529 -0.196682 -0.134962 -0.170773 -0.043744 0.122435
-0.188692 0.063383 0.268624 0.226707 -0.075387 0.061744 0.000248 0.104225 0.094199 0.025890
-0.093161 0.170795 -0.051787 -0.226115 0.086441 0.059482 0.203692 -0.179295 0.009545 -0.127859
0.033781 0.074753 -0.258020 -0.255244 0.270797 -0.050832 -0.033892 0.042871 0.018640 -0.156697
0.062812 -0.016798 -0.151360 -0.020659 -0.156515 -0.045885 -0.265880 -0.137246 0.181993 0.092483
0.102902 0.233753 0.064945 -0.194179 0.022166 0.012145 0.256060 -0.030630 -0.020756 -0.071898
0.196544 -0.060914 -0.229201 0.050752 -0.029152 0.163955 -0.036317 0.090728 -0.214321 0.196755
-0.235625 -0.051873 0.035176 -0.008864 0.087492 0.095887 -0.212171 -0.236519 -0.043175 0.129486
0.149136 -0.048821 0.152459 0.060908 0.083760 0.159528 0.211289 -0.135436 0.246119 0.164305
-0.272284 0.041960 -0.285218 0.046384 -0.090963 0.173241 0.213921 -0.102755 0.238990 -0.214962
0.085869 0.035371 0.046852 -0.019278 0.127494 0.145766 -0.143171 0.169652 -0.031835 0.008870
0.178649 -0.137900 0.124698 0.073390 -0.136225 -0.171960 -0.100802 -0.263082 -0.193460 -0.053274
-0.006098 -0.024347 -0.154794 0.173755 0.218455 -0.225846 0.248948 -0.187799 0.058512 0.116826
-0.092253 0.043719 -0.189373 0.094233 0.202370 -0.220446 0.179858 0.169375 -0.093652 -0.164812
0.210679 0.157979 -0.220761 0.114626 -0.161605 -0.023543 -0.145346 -0.207626 -0.001534 -0.049138
0.151118 -0.292583 -0.029494 -0.023465 0.042520 0.156774 0.142524 -0.072151 -0.230320 -0.071721
0.229169 -0.112826 0.145555 -0.062432 -0.072996 -0.206154 -0.141747 -0.168208 -0.204178 -0.160264
-0.162233 -0.198609 0.049032 -0.189190 0.212443 -0.226438 0.171841 0.047673 0.123833 0.227036
0.187395 0.158009 -0.146079 -0.144832 -0.092474 -0.247723 0.027914 0.010598 -0.065337 -0.168652
-0.086100 -0.095129 0.147323 0.081985 0.102972 0.145488 0.057258 0.224506 -0.062213 -0.165093
-0.107589 0.123854 -0.012855 0.188875 0.294972 0.010634 0.015017 0.055475 0.130795 -0.126074
0.105067 -0.189978 0.216807 0.095513 0.014872 -0.212297 -0.107276 0.189068 -0.179540 -0.211093
0.166859 -0.015425 0.107078 0.150816 0.053778 -0.006105 -0.191859 -0.158210 0.164850 -0.139582
-0.146997 0.100305 0.142692 -0.198052 -0.215503 -0.183074 -0.190484 -0.077126 0.236464 0.000565
0.040197 0.079695 0.160781 0.053680 0.225339 0.015417 0.142734 -0.136744 -0.004229 0.053746
0.114984 0.012510 -0.200072 0.117423 -0.071745 0.100725 -0.185143 0.104749 -0.236526 0.005481
-0.028306 0.218383 0.133364 0.199518 -0.184959 -0.075961 0.122468 0.257363 0.006763 0.066318
-0.111883 0.090197 -0.176755 -0.184254 -0.059308 -0.050895 -0.231826 0.211675 -0.246438 -0.048012
-0.066160 -0.011635 -0.094432 0.186407 0.088211 0.247939 -0.080486 0.197285 -0.066751 0.078085
0.016662 -0.294689 0.180070 0.115649 0.005672 0.177711 0.104260 -0.082131 -0.178277 0.080992
0.205983 -0.138385 0.119016 0.164985 -0.138971 -0.018087 0.067889 -0.220797 -0.130963 -0.081164
0.189745 0.061104 -0.051322 -0.102982 -0.064419 -0.089440 0.026001 0.250606 -0.132921 -0.153781
0.092941 0.021678 -0.179181 -0.199681 -0.206712 -0.154964 0.159686 -0.218610 0.246577 -0.152867
-0.144981 0.170389 -0.072505 -0.208827 -0.096047 -0.223922 0.261084 -0.188944 -0.067075 0.072418
0.175581 -0.064505 -0.196904 -0.067167 0.127204 0.064656 -0.031177 0.060392 -0.077716 -0.122279
0.068370 -0.160419 0.044245 -0.143715 -0.193896 0.172758 -0.029842 0.230646 0.043718 -0.185972
-0.193794 -0.001986 0.087740 0.087108 0.132010 -0.034784 -0.205720 0.134679 0.169000 0.102908
0.084843 -0.206807 0.292079 -0.101156 -0.037035 -0.017793 -0.008708 -0.181504 -0.221118 -0.196759
0.042881 0.293942 0.281973 0.092138 -0.127453 -0.057561 -0.185231 0.137603 0.175744 -0.012061
-0.183663 -0.134018 -0.169349 -0.205697 0.171478 -0.024171 -0.013022 -0.022369 0.288804 0.189462
-0.109590 0.084364 0.026240 0.072485 -0.159397 0.053009 0.130990 0.024136 0.094812 -0.181242
-0.131573 -0.253439 0.173929 -0.059997 0.070541 0.070547 0.169109 0.207054 -0.256003 0.046269
-0.216705 0.009846 -0.152850 0.167157 -0.144379 0.118939 0.006815 0.024548 -0.204157 -0.187168
-0.116861 0.209155 -0.071632 -0.075533 0.010203 0.096597 -0.123445 0.118128 -0.263411 -0.209212
-0.078949 0.156161 -0.239534 0.145440 -0.137647 0.111116 -0.219302 0.129029 -0.109116 -0.010144
0.275632 -0.001990 0.226347 -0.151173 -0.183884 0.134769 -0.079062 0.237726 -0.052740 -0.058458
-0.069083 -0.220544 -0.232652 -0.203985 -0.122281 0.021777 0.074682 0.107356 0.031902 -0.003715
0.174403 -0.148297 0.013122 0.005590 0.084625 -0.212964 -0.074655 0.023916 -0.048392 -0.214621
-0.149965 -0.103485 -0.120480 -0.085467 -0.256350 -0.025639 -0.020899 -0.210353 -0.044649 0.072633
-0.209680 0.216009 0.151354 0.039794 0.054295 -0.259344 -0.187267 0.125383 0.065054 0.203751
0.161742 0.217783 0.219521 -0.093265 -0.112604 0.226807 0.078587 -0.199269 -0.063689 0.240205
-0.083491 0.138854 -0.164176 0.155156 0.077347 -0.040035 -0.166862 -0.168294 -0.010391 -0.211086
0.039391 -0.209697 -0.115094 0.122553 -0.169475 -0.177604 -0.043575 0.095648 0.126722 0.154706
0.135804 0.142062 -0.119207 -0.175047 -0.132358 0.061995 -0.212657 0.040097 0.273326 0.169256
0.046542 0.111767 0.160396 0.061130 0.028194 -0.196370 0.027205 0.181664 0.255928 0.154393
-0.169828 -0.031859 0.181896 -0.057107 0.040297 -0.221185 -0.169167 -0.118727 -0.000716 -0.216494
-0.081368 0.232467 -0.048229 -0.001688 0.219283 0.180450 0.016096 0.136615 -0.095282 0.095039
-0.101411 -0.072589 -0.208252 -0.214808 -0.162276 0.106273 0.189440 0.034534 -0.099403 0.054163
-0.174947 -0.165659 0.051211 -0.190652 -0.017768 -0.242268 0.145076 0.211466 -0.057664 0.056474
0.024811 0.112856 0.148438 -0.022228 0.119967 0.045488 -0.169361 -0.125701 -0.006862 0.176658
0.274628 0.069162 -0.070424 -0.104529 0.049566 -0.160561 0.109485 0.041580 0.120370 0.056891
0.134738 0.122255 0.239690 0.201539 0.157084 0.027603 0.174508 0.076061 -0.110165 0.058450
0.127931 -0.178465 -0.157390 -0.075533 -0.105837 0.197994 0.042578 -0.206445 -0.094603 0.129259
-0.103808 -0.080489 -0.093514 0.091694 0.162585 0.194432 0.133041 -0.012125 -0.203029 -0.200825
0.263998 0.027793 0.223430 -0.094789 0.221442 -0.160047 0.105249 -0.124054 0.038049 0.134503
0.071650 -0.076885 -0.156370 -0.121694 -0.068376 0.195855 0.005900 0.155544 0.190283 0.266534
0.044947 -0.076144 -0.241259 0.098791 -0.043110 -0.122349 -0.116908 0.026996 -0.124973 -0.177940
0.199736 0.069321 -0.218008 -0.287575 0.001585 0.074355 -0.063713 -0.163312 -0.037157 0.223981
