0.210893 -0.031189 -0.166135 -0.039382 -0.170453 -0.086810 0.219554 -0.173045 -0.070741 0.291557 0.128126 -0.183404 0.165702 0.030542 -0.054182 0.246677 0.042130 -0.031114 -0.112066 -0.111100
-0.238355 0.263925 -0.025686 0.264370 0.224505 0.025566 0.000355 -0.064226 0.104603 0.187429 -0.096866 -0.003650 -0.191726 -0.059557 0.078622 0.110005 -0.108483 -0.181427 0.198395 -0.087634
-0.290715 0.020440 0.028346 0.147469 -0.067472 -0.237364 -0.168817 0.074849 0.232252 0.035562 0.232498 0.236120 0.004548 -0.010363 -0.182007 -0.156503 -0.133765 -0.135356 -0.200806 0.229279
0.219733 -0.171157 0.174811 -0.047632 0.165876 -0.165255 -0.132075 0.285948 0.170804 0.153957 0.048319 0.057510 -0.231527 -0.257959 0.154773 0.109750 0.239204 0.050186 -0.119713 -0.270950
-0.217391 0.129903 0.053647 0.240341 -0.056204 -0.174364 -0.235353 0.274002 0.192758 0.139085 0.055959 -0.117910 0.084888 0.124192 -0.234317 0.113454 -0.180568 0.049444 0.289072 -0.260151
-0.238742 -0.018114 -0.250995 0.196863 -0.275257 0.268063 0.028076 0.185566 0.207516 0.127768 0.153100 -0.132150 -0.029541 -0.170517 -0.164512 0.119918 -0.064535 0.248686 0.122556 -0.170175
-0.155877 -0.192489 -0.106401 0.214704 -0.248881 -0.275483 0.119494 0.051441 -0.260688 -0.229683 -0.154400 -0.246785 -0.272617 0.084787 0.223671 0.205260 -0.126749 -0.134638 0.086500 0.044846
0.011908 -0.198687 -0.112374 -0.024415 -0.172896 -0.156420 -0.082762 0.069660 0.193193 -0.057433 0.144759 0.054689 -0.028046 0.235977 0.107844 0.168326 0.220040 0.031072 0.014446 0.202539
-0.008864 -0.236684 -0.071549 0.286393 0.084836 -0.252270 0.219847 0.110961 -0.186332 0.142561 0.020062 -0.254251 0.044943 -0.087652 0.257165 0.171672 0.005948 -0.147239 0.290287 0.164743
-0.126350 0.137967 0.225811 -0.234054 -0.182669 -0.056242 0.023812 0.248900 -0.065983 -0.155242 -0.174576 0.045212 0.189728 0.267090 -0.070157 0.218288 -0.121958 0.071815 -0.268823 -0.160049
-0.112926 -0.281369 0.218063 0.268449 0.100256 -0.182936 0.088901 0.002140 0.024272 0.277508 0.161374 0.143483 0.060743 -0.078674 -0.013635 -0.240326 0.070963 -0.111010 -0.183960 0.167398
0.270076 -0.127107 0.056762 0.191846 0.290348 0.073037 -0.244474 -0.094081 0.062064 0.282390 0.097872 0.204075 0.056461 0.073828 -0.266792 0.216093 0.255956 -0.142924 -0.238015 -0.148085
0.208485 -0.289691 -0.205536 0.130430 0.236913 -0.170771 0.262907 -0.007933 0.187515 0.140296 -0.042139 -0.275413 -0.086688 -0.267927 0.080920 -0.213958 -0.121287 0.226885 -0.147036 -0.114302
-0.030930 0.218776 -0.069206 0.168167 -0.157730 -0.168348 -0.218509 0.072709 -0.040967 0.234616 0.030641 -0.246837 -0.157642 0.109892 0.219407 -0.124304 -0.174654 -0.019243 0.154441 -0.271839
-0.120447 -0.136384 -0.005971 -0.170083 0.078449 0.036388 -0.228727 -0.193938 -0.099588 -0.107748 0.192502 0.019619 0.092713 0.136093 0.129876 0.127189 0.000653 0.272411 0.160537 -0.006478
0.199834 0.064215 -0.194781 -0.120191 -0.267362 0.122423 0.263656 -0.010843 -0.024632 -0.159481 -0.103639 0.069237 -0.025243 0.069121 -0.235625 0.255055 -0.078169 0.103959 -0.158594 0.096156
-0.286902 0.059178 0.240369 -0.145937 -0.220701 -0.283642 -0.064472 -0.286795 -0.194933 -0.139917 -0.176507 0.016848 0.249849 0.051412 0.032589 0.232290 -0.066411 -0.086910 -0.225053 0.023068
-0.226273 0.218516 -0.248193 -0.039040 0.044378 -0.269674 -0.015448 0.030361 -0.197177 0.144988 0.237252 0.038397 0.177267 -0.067001 0.024241 0.176379 0.100638 0.209167 -0.045540 0.144939
-0.149936 0.145156 0.051730 0.078176 -0.227975 -0.176764 0.276899 0.071579 -0.104776 -0.246551 -0.173461 -0.281282 -0.102540 0.005157 -0.157253 -0.025824 -0.275711 -0.247624 -0.031779 -0.056982
-0.212035 -0.230238 0.136500 -0.205608 -0.085370 -0.262851 0.144027 -0.258686 -0.121549 0.233106 -0.121023 -0.274323 0.263458 -0.171147 0.199135 -0.247071 0.183681 0.200892 -0.211662 -0.015341
-0.004952 0.025658 0.232041 0.228640 -0.075015 0.263944 0.002663 -0.154475 0.216798 0.078694 -0.145613 0.039352 0.261849 -0.018029 0.154808 -0.265076 -0.090605 -0.288108 -0.260608 0.251475
0.133199 0.213451 -0.092305 0.141847 0.088947 -0.270016 -0.020064 0.030477 0.255813 -0.102426 0.153423 -0.071846 0.104231 0.275103 0.083685 0.231423 0.110918 0.273936 -0.094588 0.082310
0.035835 -0.140397 0.097749 -0.198108 0.274673 0.197017 -0.139445 0.241629 -0.260812 0.174383 -0.095862 0.257229 -0.279806 0.142022 -0.177190 0.197512 -0.075780 0.170260 0.253790 -0.021894
-0.073403 0.135088 0.171056 0.017861 0.042601 0.199172 0.089986 -0.023311 -0.056404 -0.125411 0.142076 -0.279142 -0.178806 -0.204604 0.133945 0.265508 -0.032994 0.005302 -0.018791 -0.118023
-0.170748 -0.037128 0.000199 0.055348 0.154015 0.172230 0.250860 -0.132655 0.279766 -0.193525 -0.000902 0.018655 -0.274114 0.177108 0.230368 -0.134882 -0.174126 -0.011717 0.126332 0.262653
-0.175005 0.132682 -0.101417 0.095182 -0.279433 -0.231506 0.056002 -0.127443 -0.044918 0.086700 -0.069042 0.228409 -0.192891 -0.220039 -0.219106 -0.012085 0.116314 0.228079 0.086831 0.269995
-0.261953 -0.206040 -0.127702 -0.072356 0.089264 0.069810 -0.183183 -0.018855 -0.193509 0.142262 -0.149649 -0.046007 -0.189556 0.134805 0.140026 -0.193256 0.287299 0.195206 -0.169607 0.209375
-0.041013 0.179087 0.027451 0.012094 -0.102077 0.126688 -0.244849 -0.138500 -0.116623 0.037517 -0.238809 0.180066 0.246115 -0.171739 -0.080020 -0.095233 -0.265670 0.101428 0.048064 -0.032630
-0.028074 -0.068788 0.140899 0.159463 0.213982 0.248052 0.056085 0.078930 0.064891 0.006912 -0.206302 -0.283367 -0.108175 -0.120317 0.231654 -0.045728 -0.113376 0.177647 -0.023934 -0.211756
-0.031135 0.250001 -0.216891 -0.172480 0.231997 -0.258644 0.008525 0.061916 0.197674 0.034277 -0.237286 -0.152972 0.039122 -0.108503 -0.069996 0.155131 0.032500 -0.083347 0.078971 0.099101
0.138154 0.260171 -0.143483 0.234898 0.020985 -0.250110 0.144528 -0.289758 0.101498 -0.135252 -0.176103 -0.252097 -0.137775 0.267816 -0.137955 -0.245569 0.275573 0.245527 0.191164 0.201831
-0.030007 -0.186070 -0.177606 0.205066 0.107953 0.078118 -0.108165 -0.022930 -0.134929 -0.279684 -0.136439 -0.017526 -0.003970 0.080402 0.096998 -0.043836 -0.205613 -0.260350 0.027864 -0.095597
0.172079 -0.182917 -0.055924 -0.043103 -0.105406 0.215763 0.028325 -0.194007 0.251101 0.200148 -0.208109 0.108600 -0.222897 -0.224263 -0.054391 0.145325 0.097441 -0.126428 -0.048107 0.152275
-0.062183 -0.083949 0.084189 -0.015230 0.258986 0.084940 0.036172 -0.235005 -0.208685 -0.061381 0.056914 -0.145674 -0.239989 -0.129554 -0.080954 -0.188843 -0.056519 0.001837 -0.146584 -0.127394
-0.185742 0.128142 0.181045 -0.070866 0.046562 -0.130607 -0.249614 -0.165887 -0.167998 -0.181715 -0.074731 0.028523 -0.122694 0.061332 0.040137 -0.078668 -0.259304 -0.106774 0.001033 0.206487
0.135772 -0.167272 0.227700 -0.290941 -0.037812 -0.219632 0.190879 -0.229770 -0.008488 -0.227135 0.154246 -0.113064 0.039378 0.233471 -0.063229 0.288283 -0.040972 -0.271581 0.126656 -0.072527
-0.040699 0.086563 0.278086 0.191532 -0.289938 0.193116 0.188224 -0.253305 0.099446 0.129884 0.231579 -0.252893 0.292539 -0.188887 -0.183975 -0.252787 0.138671 0.194523 -0.160592 -0.228582
-0.112888 0.071775 0.250476 0.286743 0.208705 -0.228568 0.093872 0.063909 -0.192587 0.005863 -0.021427 0.168101 -0.233448 0.128908 -0.064898 0.007486 0.095218 0.069360 -0.108800 -0.276387
-0.173800 0.225416 0.057308 -0.288383 0.163324 -0.106180 -0.225400 0.070779 0.287351 0.132477 0.082979 -0.207733 0.185742 0.097150 -0.096995 0.249473 0.249107 0.136411 0.212012 -0.130875
0.124357 -0.068215 -0.274585 0.254372 0.273895 -0.175293 0.194951 -0.182289 0.206545 -0.256376 0.096032 0.195211 0.093995 0.103730 -0.039983 0.203641 0.231660 0.066773 0.170083 0.199806
-0.155605 -0.272726 -0.153812 0.033131 0.219475 -0.077856 0.081850 -0.033224 -0.179729 0.292087 -0.105407 0.219709 -0.189780 -0.158851 -0.236188 0.064960 -0.183772 0.000358 -0.194469 -0.031018
-0.217280 -0.035700 -0.130378 -0.052678 0.106031 -0.048520 0.146372 -0.043390 -0.074905 -0.044813 -0.138663 -0.101293 0.093958 -0.007580 -0.193957 -0.162332 -0.110610 -0.057542 -0.227525 0.286771
0.092039 0.033524 0.220383 0.021691 0.062956 0.279010 -0.180420 -0.204444 0.073926 -0.062330 0.291258 -0.115845 -0.196510 -0.072396 0.109963 -0.025088 -0.007721 0.034656 -0.252582 0.186161
-0.216761 -0.035579 0.053082 -0.256687 0.063883 0.250144 0.291428 -0.052742 -0.212636 -0.145558 0.200336 0.136024 -0.062423 -0.058967 -0.054046 0.022024 0.213506 -0.223608 -0.018733 -0.013709
-0.043931 0.005134 -0.196581 0.096253 0.214829 -0.027086 0.195038 -0.011765 -0.113161 -0.229058 0.203339 0.234073 -0.017757 -0.259677 -0.246159 0.041902 0.108306 -0.102431 0.016737 0.027353
-0.202428 -0.132088 -0.149554 -0.139682 -0.224589 0.265433 -0.079858 0.141275 -0.243961 -0.290208 0.160444 0.156322 0.188127 -0.057638 0.055143 0.190543 0.221486 0.122112 0.145404 -0.027888
0.126446 -0.124475 -0.130684 0.256621 0.115377 -0.063911 -0.261534 -0.288062 -0.256981 -0.100588 -0.112383 -0.084905 0.231466 0.240874 -0.288094 0.073972 -0.132074 0.034027 0.105252 0.228428
0.260509 0.188056 -0.058511 -0.184381 0.031628 0.039660 0.162508 -0.274749 -0.114323 0.089982 -0.278555 -0.159347 -0.079033 -0.165868 -0.046025 -0.030836 0.041054 -0.279141 0.278022 0.238458
0.221107 -0.020137 0.019917 0.118497 0.229691 -0.119607 0.077647 0.086113 0.084013 -0.076016 -0.166512 -0.175297 0.012051 -0.155170 -0.239676 -0.118464 -0.127274 0.066824 -0.118322 0.045866
0.065957 -0.267534 0.231556 0.266045 -0.134216 0.271263 -0.248547 0.061904 -0.027598 0.147666 -0.288228 -0.115807 0.173943 -0.265907 0.037232 0.188219 -0.240564 0.014250 0.129485 -0.056886
